/*
<Lenet Neural Network High Level Synthesis Lenet>

MIT License

Copyright (c) 2020 Filipe Maciel Lins

Permission is hereby granted, free of charge, to any person obtaining a copy of this software
and associated documentation files (the "Software"), to deal in the Software without restriction,
including without limitation the rights to use, copy, modify, merge, publish, distribute, sublicense,
and/or sell copies of the Software, and to permit persons to whom the Software is furnished to do so,
subject to the following conditions: The above copyright notice and this permission notice shall be
included in all copies or substantial portions of the Software.

THE SOFTWARE IS PROVIDED "AS IS", WITHOUT WARRANTY OF ANY KIND, EXPRESS OR IMPLIED,INCLUDING
BUT NOT LIMITED TO THE WARRANTIES OF MERCHANTABILITY,FITNESS FOR A PARTICULAR PURPOSE AND
NONINFRINGEMENT. IN NO EVENT SHALL THE AUTHORS OR COPYRIGHT HOLDERS BE LIABLE FOR ANY CLAIM,
DAMAGES OR OTHER LIABILITY, WHETHER IN AN ACTION OF CONTRACT, TORT OR OTHERWISE, ARISING FROM,
OUT OF OR IN CONNECTION WITH THE SOFTWARE OR THE USE OR OTHER DEALINGS IN THE SOFTWARE.
*/

#ifndef WEIGHTS_FC2_H
#define WEIGHTS_FC2_H
#include "ap_fixed.h" 
#include "defines.h" 
float24_t fc2_layer_bias[84] = {0.00781250000000000000000, 0.02343750000000000000000, -0.00781250000000000000000, 0.00781250000000000000000, 0.00000000000000000000000, -0.00781250000000000000000, 0.00781250000000000000000, 0.00000000000000000000000, 0.00000000000000000000000, 0.00781250000000000000000, 0.00781250000000000000000, 0.00000000000000000000000, 0.03125000000000000000000, 0.00000000000000000000000, 0.00781250000000000000000, 0.00000000000000000000000, 0.00000000000000000000000, 0.00781250000000000000000, -0.00781250000000000000000, 0.00781250000000000000000, 0.00781250000000000000000, 0.01562500000000000000000, 0.00000000000000000000000, 0.00781250000000000000000, -0.00781250000000000000000, 0.00781250000000000000000, 0.00000000000000000000000, 0.00781250000000000000000, 0.00000000000000000000000, 0.02343750000000000000000, 0.00781250000000000000000, 0.00781250000000000000000, 0.00781250000000000000000, 0.00000000000000000000000, 0.00000000000000000000000, 0.00781250000000000000000, -0.00781250000000000000000, 0.00000000000000000000000, -0.00781250000000000000000, 0.00781250000000000000000, 0.00000000000000000000000, 0.01562500000000000000000, 0.01562500000000000000000, 0.00000000000000000000000, 0.00000000000000000000000, 0.00000000000000000000000, 0.00000000000000000000000, 0.00781250000000000000000, 0.00781250000000000000000, 0.00000000000000000000000, 0.00000000000000000000000, 0.00000000000000000000000, 0.00000000000000000000000, -0.00781250000000000000000, 0.00000000000000000000000, 0.02343750000000000000000, 0.00000000000000000000000, 0.01562500000000000000000, 0.00781250000000000000000, 0.01562500000000000000000, 0.00781250000000000000000, 0.00000000000000000000000, 0.00000000000000000000000, 0.01562500000000000000000, 0.01562500000000000000000, -0.00781250000000000000000, 0.01562500000000000000000, 0.00000000000000000000000, 0.00781250000000000000000, 0.00000000000000000000000, 0.00781250000000000000000, 0.01562500000000000000000, 0.00000000000000000000000, 0.00781250000000000000000, -0.00781250000000000000000, 0.00000000000000000000000, 0.00000000000000000000000, 0.01562500000000000000000, 0.01562500000000000000000, 0.00000000000000000000000, 0.00781250000000000000000, -0.00781250000000000000000, 0.00781250000000000000000, 0.00000000000000000000000};
float24_t fc2_layer_weights[120][84] = { -0.15917968750000000000000,  -0.03686523437500000000000,  0.22180175781250000000000,  0.01440429687500000000000,  0.15100097656250000000000,  -0.09057617187500000000000,  -0.16516113281250000000000,  0.06372070312500000000000,  0.13464355468750000000000,  -0.07812500000000000000000,  0.10278320312500000000000,  0.23132324218750000000000,  -0.04602050781250000000000,  -0.06286621093750000000000,  -0.03662109375000000000000,  0.19750976562500000000000,  -0.15307617187500000000000,  -0.07360839843750000000000,  -0.15307617187500000000000,  -0.22875976562500000000000,  0.13208007812500000000000,  0.13098144531250000000000,  0.00268554687500000000000,  -0.01159667968750000000000,  0.14099121093750000000000,  0.11059570312500000000000,  0.01989746093750000000000,  0.14013671875000000000000,  0.04553222656250000000000,  -0.11328125000000000000000,  0.16503906250000000000000,  -0.11828613281250000000000,  -0.07592773437500000000000,  0.16467285156250000000000,  -0.13195800781250000000000,  0.00048828125000000000000,  -0.01770019531250000000000,  0.05859375000000000000000,  -0.00939941406250000000000,  -0.09777832031250000000000,  -0.02856445312500000000000,  -0.04687500000000000000000,  -0.14086914062500000000000,  0.11352539062500000000000,  0.17956542968750000000000,  0.07861328125000000000000,  0.14978027343750000000000,  0.13000488281250000000000,  -0.14196777343750000000000,  0.05017089843750000000000,  0.12316894531250000000000,  -0.09008789062500000000000,  0.05334472656250000000000,  -0.07104492187500000000000,  0.03747558593750000000000,  0.16528320312500000000000,  0.19421386718750000000000,  -0.12268066406250000000000,  -0.06896972656250000000000,  0.07958984375000000000000,  -0.08544921875000000000000,  0.05456542968750000000000,  0.13610839843750000000000,  0.05859375000000000000000,  0.13562011718750000000000,  -0.03234863281250000000000,  -0.06542968750000000000000,  -0.01403808593750000000000,  0.09838867187500000000000,  0.09484863281250000000000,  -0.14587402343750000000000,  -0.01464843750000000000000,  -0.02453613281250000000000,  -0.02038574218750000000000,  -0.23315429687500000000000,  0.03625488281250000000000,  0.12548828125000000000000,  -0.10168457031250000000000,  0.09436035156250000000000,  -0.00915527343750000000000,  -0.11633300781250000000000,  0.11108398437500000000000,  0.08947753906250000000000,  -0.16882324218750000000000,
 0.08703613281250000000000,  0.17736816406250000000000,  -0.03625488281250000000000,  0.12182617187500000000000,  0.24194335937500000000000,  -0.16186523437500000000000,  0.03955078125000000000000,  0.06103515625000000000000,  0.02172851562500000000000,  -0.12963867187500000000000,  -0.13562011718750000000000,  0.04541015625000000000000,  -0.06945800781250000000000,  0.15661621093750000000000,  -0.04406738281250000000000,  -0.02075195312500000000000,  0.23339843750000000000000,  0.10949707031250000000000,  0.05456542968750000000000,  0.25769042968750000000000,  0.06164550781250000000000,  -0.25805664062500000000000,  -0.19897460937500000000000,  0.08300781250000000000000,  0.12756347656250000000000,  0.20056152343750000000000,  0.10388183593750000000000,  -0.09545898437500000000000,  -0.27392578125000000000000,  0.15039062500000000000000,  0.13464355468750000000000,  -0.13500976562500000000000,  0.22924804687500000000000,  0.16052246093750000000000,  -0.13903808593750000000000,  0.05407714843750000000000,  -0.12622070312500000000000,  0.04931640625000000000000,  -0.24365234375000000000000,  -0.04370117187500000000000,  -0.26452636718750000000000,  -0.00646972656250000000000,  0.05029296875000000000000,  -0.16430664062500000000000,  -0.11999511718750000000000,  0.17480468750000000000000,  0.00341796875000000000000,  -0.08154296875000000000000,  -0.01281738281250000000000,  -0.25244140625000000000000,  0.16687011718750000000000,  -0.05065917968750000000000,  0.12329101562500000000000,  -0.19702148437500000000000,  0.18554687500000000000000,  -0.13073730468750000000000,  -0.06164550781250000000000,  0.08959960937500000000000,  0.20886230468750000000000,  -0.17297363281250000000000,  0.10510253906250000000000,  -0.06604003906250000000000,  0.01257324218750000000000,  -0.19616699218750000000000,  0.11828613281250000000000,  0.18493652343750000000000,  0.10156250000000000000000,  -0.07238769531250000000000,  0.18054199218750000000000,  -0.20654296875000000000000,  -0.28637695312500000000000,  -0.23156738281250000000000,  -0.02966308593750000000000,  -0.20629882812500000000000,  -0.05114746093750000000000,  -0.16296386718750000000000,  0.13708496093750000000000,  0.07507324218750000000000,  0.00927734375000000000000,  0.01123046875000000000000,  -0.03051757812500000000000,  -0.01281738281250000000000,  0.01403808593750000000000,  0.12573242187500000000000,
 -0.00671386718750000000000,  -0.10681152343750000000000,  -0.21325683593750000000000,  0.30004882812500000000000,  -0.14746093750000000000000,  -0.24145507812500000000000,  0.00061035156250000000000,  0.08947753906250000000000,  0.16711425781250000000000,  -0.12158203125000000000000,  0.22204589843750000000000,  0.12292480468750000000000,  -0.14245605468750000000000,  -0.13903808593750000000000,  0.06958007812500000000000,  -0.12524414062500000000000,  0.21398925781250000000000,  0.26196289062500000000000,  0.08227539062500000000000,  -0.21044921875000000000000,  0.03625488281250000000000,  -0.19030761718750000000000,  -0.03125000000000000000000,  -0.14843750000000000000000,  0.08544921875000000000000,  0.05273437500000000000000,  -0.12951660156250000000000,  -0.16699218750000000000000,  0.03417968750000000000000,  -0.16308593750000000000000,  -0.09130859375000000000000,  -0.11950683593750000000000,  0.04602050781250000000000,  -0.19104003906250000000000,  0.14208984375000000000000,  0.06054687500000000000000,  -0.04443359375000000000000,  -0.04602050781250000000000,  0.25048828125000000000000,  0.13989257812500000000000,  0.12268066406250000000000,  -0.05090332031250000000000,  0.18139648437500000000000,  0.06567382812500000000000,  -0.17260742187500000000000,  -0.25305175781250000000000,  -0.04211425781250000000000,  -0.02209472656250000000000,  -0.10571289062500000000000,  0.27636718750000000000000,  0.15307617187500000000000,  0.07507324218750000000000,  0.12243652343750000000000,  -0.09082031250000000000000,  -0.18872070312500000000000,  -0.09228515625000000000000,  0.04223632812500000000000,  0.16662597656250000000000,  0.03674316406250000000000,  -0.21691894531250000000000,  0.14624023437500000000000,  -0.08959960937500000000000,  0.19079589843750000000000,  -0.11901855468750000000000,  -0.13549804687500000000000,  -0.04443359375000000000000,  -0.26257324218750000000000,  0.09130859375000000000000,  -0.05297851562500000000000,  0.04553222656250000000000,  0.24487304687500000000000,  -0.17871093750000000000000,  0.15136718750000000000000,  0.20581054687500000000000,  0.23229980468750000000000,  0.16894531250000000000000,  -0.07128906250000000000000,  0.12585449218750000000000,  0.13708496093750000000000,  -0.00659179687500000000000,  0.13769531250000000000000,  0.04431152343750000000000,  0.12280273437500000000000,  -0.00903320312500000000000,
 0.17346191406250000000000,  0.07812500000000000000000,  -0.09570312500000000000000,  -0.06896972656250000000000,  0.00439453125000000000000,  -0.10998535156250000000000,  -0.05871582031250000000000,  -0.07470703125000000000000,  -0.14245605468750000000000,  -0.07238769531250000000000,  -0.00402832031250000000000,  -0.13635253906250000000000,  0.15356445312500000000000,  0.07653808593750000000000,  0.07678222656250000000000,  0.10742187500000000000000,  0.09240722656250000000000,  -0.10815429687500000000000,  -0.15185546875000000000000,  0.23120117187500000000000,  -0.05773925781250000000000,  0.00329589843750000000000,  0.00598144531250000000000,  -0.19702148437500000000000,  -0.09020996093750000000000,  -0.02954101562500000000000,  -0.04113769531250000000000,  -0.01232910156250000000000,  -0.21948242187500000000000,  0.06286621093750000000000,  0.11499023437500000000000,  0.06091308593750000000000,  0.16247558593750000000000,  0.24255371093750000000000,  0.09436035156250000000000,  0.16455078125000000000000,  0.08605957031250000000000,  -0.23388671875000000000000,  -0.15527343750000000000000,  0.07861328125000000000000,  -0.11328125000000000000000,  0.22521972656250000000000,  -0.19897460937500000000000,  0.05944824218750000000000,  0.06738281250000000000000,  -0.18652343750000000000000,  0.15881347656250000000000,  0.07629394531250000000000,  0.03039550781250000000000,  -0.00476074218750000000000,  -0.15588378906250000000000,  0.04589843750000000000000,  -0.08691406250000000000000,  -0.04870605468750000000000,  0.06994628906250000000000,  -0.03369140625000000000000,  0.03015136718750000000000,  0.04187011718750000000000,  -0.02587890625000000000000,  -0.13720703125000000000000,  -0.17297363281250000000000,  0.10693359375000000000000,  0.03186035156250000000000,  -0.02307128906250000000000,  -0.15197753906250000000000,  0.19567871093750000000000,  0.00781250000000000000000,  -0.02893066406250000000000,  -0.04504394531250000000000,  -0.15258789062500000000000,  0.20764160156250000000000,  0.18432617187500000000000,  -0.05346679687500000000000,  0.03088378906250000000000,  0.00805664062500000000000,  0.18933105468750000000000,  0.04504394531250000000000,  0.04626464843750000000000,  0.00634765625000000000000,  0.12158203125000000000000,  -0.20556640625000000000000,  -0.04003906250000000000000,  -0.00183105468750000000000,  -0.20129394531250000000000,
 0.05712890625000000000000,  0.12170410156250000000000,  -0.04833984375000000000000,  0.06604003906250000000000,  -0.05249023437500000000000,  -0.09118652343750000000000,  0.03186035156250000000000,  0.04687500000000000000000,  0.20178222656250000000000,  -0.22912597656250000000000,  0.19580078125000000000000,  0.02929687500000000000000,  0.31262207031250000000000,  -0.27136230468750000000000,  0.00000000000000000000000,  -0.12731933593750000000000,  -0.12060546875000000000000,  0.09582519531250000000000,  0.14794921875000000000000,  0.10803222656250000000000,  0.09558105468750000000000,  0.04675292968750000000000,  -0.02905273437500000000000,  0.21984863281250000000000,  -0.02319335937500000000000,  0.01330566406250000000000,  -0.28039550781250000000000,  0.19641113281250000000000,  0.18750000000000000000000,  -0.14758300781250000000000,  -0.01074218750000000000000,  -0.14697265625000000000000,  -0.18322753906250000000000,  -0.08972167968750000000000,  0.17834472656250000000000,  -0.00231933593750000000000,  -0.03320312500000000000000,  -0.01806640625000000000000,  0.14978027343750000000000,  -0.16967773437500000000000,  0.14965820312500000000000,  0.05944824218750000000000,  0.00891113281250000000000,  -0.04077148437500000000000,  0.14770507812500000000000,  0.00500488281250000000000,  0.19750976562500000000000,  0.14575195312500000000000,  -0.23645019531250000000000,  0.03442382812500000000000,  0.09606933593750000000000,  -0.29125976562500000000000,  0.03381347656250000000000,  -0.26660156250000000000000,  0.06115722656250000000000,  -0.18151855468750000000000,  0.25720214843750000000000,  0.03393554687500000000000,  0.09667968750000000000000,  -0.00170898437500000000000,  0.02880859375000000000000,  -0.18737792968750000000000,  -0.04260253906250000000000,  0.09423828125000000000000,  -0.05981445312500000000000,  -0.08837890625000000000000,  0.17700195312500000000000,  -0.03637695312500000000000,  0.07666015625000000000000,  0.01354980468750000000000,  0.06445312500000000000000,  -0.12817382812500000000000,  -0.02673339843750000000000,  -0.15429687500000000000000,  0.28405761718750000000000,  0.01965332031250000000000,  0.13061523437500000000000,  0.18591308593750000000000,  -0.04003906250000000000000,  0.17834472656250000000000,  0.20849609375000000000000,  0.14123535156250000000000,  -0.00585937500000000000000,  -0.11254882812500000000000,
 0.04187011718750000000000,  0.09423828125000000000000,  -0.22668457031250000000000,  -0.08691406250000000000000,  0.02758789062500000000000,  0.19873046875000000000000,  -0.14770507812500000000000,  -0.00646972656250000000000,  0.02661132812500000000000,  -0.10485839843750000000000,  0.10070800781250000000000,  0.14270019531250000000000,  0.05615234375000000000000,  0.15466308593750000000000,  0.06359863281250000000000,  -0.01550292968750000000000,  -0.12585449218750000000000,  -0.11376953125000000000000,  0.01269531250000000000000,  0.11901855468750000000000,  0.17895507812500000000000,  -0.14221191406250000000000,  -0.07153320312500000000000,  -0.03662109375000000000000,  -0.19812011718750000000000,  -0.17041015625000000000000,  0.13610839843750000000000,  -0.01379394531250000000000,  0.17407226562500000000000,  -0.09497070312500000000000,  0.24584960937500000000000,  0.02868652343750000000000,  -0.02502441406250000000000,  -0.05615234375000000000000,  -0.02453613281250000000000,  -0.08032226562500000000000,  0.22497558593750000000000,  -0.05419921875000000000000,  -0.20629882812500000000000,  -0.05102539062500000000000,  0.00793457031250000000000,  0.07885742187500000000000,  0.01196289062500000000000,  -0.06433105468750000000000,  -0.13305664062500000000000,  0.11242675781250000000000,  -0.04040527343750000000000,  -0.27294921875000000000000,  0.06811523437500000000000,  0.10363769531250000000000,  -0.11767578125000000000000,  0.11462402343750000000000,  0.02612304687500000000000,  0.15551757812500000000000,  0.27917480468750000000000,  0.00268554687500000000000,  -0.06408691406250000000000,  -0.01855468750000000000000,  -0.01586914062500000000000,  -0.04943847656250000000000,  -0.04565429687500000000000,  -0.11206054687500000000000,  0.25476074218750000000000,  -0.03576660156250000000000,  0.01367187500000000000000,  0.01757812500000000000000,  0.08581542968750000000000,  0.08837890625000000000000,  0.13269042968750000000000,  0.04541015625000000000000,  0.19653320312500000000000,  0.22692871093750000000000,  -0.04113769531250000000000,  0.06689453125000000000000,  -0.03112792968750000000000,  0.03857421875000000000000,  0.27001953125000000000000,  0.19836425781250000000000,  -0.03930664062500000000000,  -0.08178710937500000000000,  -0.11279296875000000000000,  0.03613281250000000000000,  0.14978027343750000000000,  0.12390136718750000000000,
 0.20227050781250000000000,  0.14404296875000000000000,  -0.17248535156250000000000,  0.21496582031250000000000,  -0.02294921875000000000000,  -0.14477539062500000000000,  0.11962890625000000000000,  -0.28381347656250000000000,  0.04687500000000000000000,  0.26147460937500000000000,  0.05139160156250000000000,  -0.05383300781250000000000,  0.25793457031250000000000,  -0.04870605468750000000000,  -0.09338378906250000000000,  -0.14538574218750000000000,  0.03942871093750000000000,  0.18078613281250000000000,  0.03015136718750000000000,  0.26806640625000000000000,  0.08666992187500000000000,  -0.09313964843750000000000,  -0.19226074218750000000000,  -0.12377929687500000000000,  0.09436035156250000000000,  0.08154296875000000000000,  -0.17370605468750000000000,  0.14245605468750000000000,  -0.03149414062500000000000,  -0.26501464843750000000000,  -0.01330566406250000000000,  -0.05761718750000000000000,  0.10412597656250000000000,  -0.06030273437500000000000,  -0.11059570312500000000000,  0.08569335937500000000000,  -0.03125000000000000000000,  -0.00012207031250000000000,  -0.16101074218750000000000,  0.01452636718750000000000,  0.00451660156250000000000,  -0.00854492187500000000000,  0.13305664062500000000000,  0.03942871093750000000000,  0.10961914062500000000000,  0.09326171875000000000000,  0.12792968750000000000000,  -0.04272460937500000000000,  -0.12072753906250000000000,  0.12634277343750000000000,  -0.07690429687500000000000,  0.03662109375000000000000,  0.10729980468750000000000,  0.25952148437500000000000,  -0.03747558593750000000000,  -0.21752929687500000000000,  0.07592773437500000000000,  0.09228515625000000000000,  -0.11291503906250000000000,  -0.07775878906250000000000,  -0.08129882812500000000000,  0.00598144531250000000000,  -0.28149414062500000000000,  -0.03442382812500000000000,  0.02770996093750000000000,  0.26342773437500000000000,  -0.21679687500000000000000,  -0.16186523437500000000000,  0.01916503906250000000000,  -0.05615234375000000000000,  -0.14160156250000000000000,  -0.12414550781250000000000,  -0.27783203125000000000000,  -0.04064941406250000000000,  -0.11560058593750000000000,  -0.01098632812500000000000,  -0.10253906250000000000000,  0.07739257812500000000000,  0.13818359375000000000000,  -0.21936035156250000000000,  -0.18701171875000000000000,  -0.08654785156250000000000,  -0.04870605468750000000000,  0.13464355468750000000000,
 0.16857910156250000000000,  0.19946289062500000000000,  0.18029785156250000000000,  -0.09216308593750000000000,  -0.11828613281250000000000,  0.07873535156250000000000,  -0.09313964843750000000000,  0.08093261718750000000000,  -0.05444335937500000000000,  0.05383300781250000000000,  0.07458496093750000000000,  0.03063964843750000000000,  0.08361816406250000000000,  0.13366699218750000000000,  0.05639648437500000000000,  0.15808105468750000000000,  0.09228515625000000000000,  0.05957031250000000000000,  0.14428710937500000000000,  0.00048828125000000000000,  0.01477050781250000000000,  0.05700683593750000000000,  -0.05273437500000000000000,  0.02929687500000000000000,  0.02978515625000000000000,  0.09985351562500000000000,  0.15185546875000000000000,  0.04785156250000000000000,  -0.02734375000000000000000,  0.03051757812500000000000,  0.03198242187500000000000,  -0.04028320312500000000000,  0.00048828125000000000000,  0.08581542968750000000000,  -0.05444335937500000000000,  -0.18762207031250000000000,  -0.10827636718750000000000,  -0.02673339843750000000000,  0.03039550781250000000000,  -0.20593261718750000000000,  0.22070312500000000000000,  -0.07836914062500000000000,  -0.19787597656250000000000,  -0.01965332031250000000000,  0.06018066406250000000000,  0.20776367187500000000000,  -0.08117675781250000000000,  -0.25073242187500000000000,  0.18676757812500000000000,  -0.05920410156250000000000,  -0.14355468750000000000000,  0.00219726562500000000000,  -0.06213378906250000000000,  0.06481933593750000000000,  -0.14611816406250000000000,  0.10266113281250000000000,  0.00561523437500000000000,  -0.00329589843750000000000,  -0.20141601562500000000000,  0.05944824218750000000000,  -0.18444824218750000000000,  0.06420898437500000000000,  -0.01770019531250000000000,  -0.05493164062500000000000,  0.06652832031250000000000,  -0.12988281250000000000000,  0.06237792968750000000000,  -0.11083984375000000000000,  0.22839355468750000000000,  -0.15148925781250000000000,  0.20654296875000000000000,  -0.09423828125000000000000,  0.05212402343750000000000,  0.15026855468750000000000,  -0.04418945312500000000000,  -0.03051757812500000000000,  -0.07067871093750000000000,  -0.16906738281250000000000,  0.00964355468750000000000,  -0.09863281250000000000000,  -0.11437988281250000000000,  0.14978027343750000000000,  -0.16137695312500000000000,  0.22570800781250000000000,
 -0.18408203125000000000000,  0.04113769531250000000000,  0.02661132812500000000000,  0.20385742187500000000000,  -0.13769531250000000000000,  0.15637207031250000000000,  0.04809570312500000000000,  0.02624511718750000000000,  -0.19689941406250000000000,  0.08544921875000000000000,  -0.06726074218750000000000,  0.17260742187500000000000,  -0.18225097656250000000000,  -0.10998535156250000000000,  0.01123046875000000000000,  -0.00219726562500000000000,  0.23583984375000000000000,  -0.09851074218750000000000,  0.18029785156250000000000,  0.11462402343750000000000,  0.05529785156250000000000,  -0.02319335937500000000000,  -0.13964843750000000000000,  0.11315917968750000000000,  0.01391601562500000000000,  0.15087890625000000000000,  0.04846191406250000000000,  -0.04882812500000000000000,  0.12475585937500000000000,  -0.24743652343750000000000,  0.09606933593750000000000,  0.08947753906250000000000,  -0.17138671875000000000000,  -0.05541992187500000000000,  0.19641113281250000000000,  -0.10388183593750000000000,  -0.04711914062500000000000,  0.18994140625000000000000,  -0.25280761718750000000000,  0.26464843750000000000000,  -0.13391113281250000000000,  0.04565429687500000000000,  0.06384277343750000000000,  0.02587890625000000000000,  -0.14868164062500000000000,  0.16711425781250000000000,  0.13354492187500000000000,  -0.12585449218750000000000,  -0.29040527343750000000000,  0.21276855468750000000000,  -0.03625488281250000000000,  0.03881835937500000000000,  -0.21325683593750000000000,  0.05981445312500000000000,  0.03283691406250000000000,  0.12207031250000000000000,  -0.18823242187500000000000,  -0.13586425781250000000000,  -0.04956054687500000000000,  0.01855468750000000000000,  0.03015136718750000000000,  -0.07275390625000000000000,  0.09936523437500000000000,  -0.01525878906250000000000,  0.07775878906250000000000,  0.03137207031250000000000,  -0.08276367187500000000000,  0.09851074218750000000000,  0.24353027343750000000000,  -0.02893066406250000000000,  -0.01843261718750000000000,  -0.17004394531250000000000,  0.08435058593750000000000,  0.00842285156250000000000,  0.19445800781250000000000,  -0.05895996093750000000000,  -0.03674316406250000000000,  -0.12866210937500000000000,  -0.11181640625000000000000,  -0.01818847656250000000000,  -0.13073730468750000000000,  -0.21618652343750000000000,  0.19555664062500000000000,  0.24426269531250000000000,
 0.04296875000000000000000,  -0.08862304687500000000000,  -0.15966796875000000000000,  0.00378417968750000000000,  -0.04736328125000000000000,  -0.03369140625000000000000,  -0.11840820312500000000000,  -0.21459960937500000000000,  0.01550292968750000000000,  -0.05126953125000000000000,  0.08874511718750000000000,  0.01574707031250000000000,  -0.20935058593750000000000,  0.03857421875000000000000,  -0.16430664062500000000000,  -0.02185058593750000000000,  -0.12402343750000000000000,  -0.04577636718750000000000,  0.10473632812500000000000,  0.00256347656250000000000,  0.11547851562500000000000,  0.18566894531250000000000,  -0.02648925781250000000000,  -0.02404785156250000000000,  -0.04260253906250000000000,  -0.04272460937500000000000,  -0.07104492187500000000000,  0.08056640625000000000000,  -0.05590820312500000000000,  0.06872558593750000000000,  0.05554199218750000000000,  -0.27624511718750000000000,  0.03698730468750000000000,  -0.01086425781250000000000,  -0.00744628906250000000000,  0.21423339843750000000000,  0.12048339843750000000000,  0.01428222656250000000000,  0.03442382812500000000000,  0.27062988281250000000000,  0.03491210937500000000000,  -0.15527343750000000000000,  -0.11511230468750000000000,  0.08569335937500000000000,  0.06909179687500000000000,  0.05639648437500000000000,  -0.03198242187500000000000,  0.11535644531250000000000,  -0.00854492187500000000000,  -0.08422851562500000000000,  -0.00317382812500000000000,  -0.14782714843750000000000,  0.04711914062500000000000,  0.11596679687500000000000,  0.03710937500000000000000,  -0.19042968750000000000000,  -0.13684082031250000000000,  0.21569824218750000000000,  0.17102050781250000000000,  -0.17504882812500000000000,  0.03820800781250000000000,  0.20605468750000000000000,  -0.12731933593750000000000,  -0.24267578125000000000000,  0.02954101562500000000000,  -0.03430175781250000000000,  0.03015136718750000000000,  0.26159667968750000000000,  0.05688476562500000000000,  -0.15734863281250000000000,  0.08105468750000000000000,  0.21813964843750000000000,  0.10119628906250000000000,  -0.02441406250000000000000,  -0.03991699218750000000000,  -0.06152343750000000000000,  0.00500488281250000000000,  -0.04663085937500000000000,  0.14282226562500000000000,  -0.11328125000000000000000,  -0.03161621093750000000000,  0.03906250000000000000000,  0.12121582031250000000000,  -0.16088867187500000000000,
 0.13562011718750000000000,  -0.16540527343750000000000,  0.07458496093750000000000,  -0.15270996093750000000000,  0.16674804687500000000000,  0.03271484375000000000000,  -0.08642578125000000000000,  -0.08312988281250000000000,  -0.01000976562500000000000,  0.02209472656250000000000,  -0.06762695312500000000000,  0.13977050781250000000000,  -0.07885742187500000000000,  -0.24108886718750000000000,  0.25207519531250000000000,  -0.07666015625000000000000,  -0.01269531250000000000000,  -0.02307128906250000000000,  0.23522949218750000000000,  -0.30786132812500000000000,  -0.08935546875000000000000,  0.17053222656250000000000,  -0.28674316406250000000000,  0.16772460937500000000000,  0.01831054687500000000000,  -0.23254394531250000000000,  -0.16699218750000000000000,  -0.08349609375000000000000,  -0.18237304687500000000000,  0.11730957031250000000000,  0.15356445312500000000000,  -0.02270507812500000000000,  -0.11596679687500000000000,  -0.01855468750000000000000,  -0.03515625000000000000000,  -0.18847656250000000000000,  -0.18713378906250000000000,  0.04235839843750000000000,  -0.05944824218750000000000,  0.14050292968750000000000,  0.03674316406250000000000,  0.16345214843750000000000,  0.18432617187500000000000,  0.14819335937500000000000,  0.01330566406250000000000,  -0.25939941406250000000000,  -0.16625976562500000000000,  -0.02502441406250000000000,  0.27026367187500000000000,  -0.05065917968750000000000,  -0.02648925781250000000000,  0.21386718750000000000000,  0.13562011718750000000000,  0.06420898437500000000000,  0.03540039062500000000000,  0.10632324218750000000000,  0.10192871093750000000000,  -0.28784179687500000000000,  -0.02355957031250000000000,  -0.17907714843750000000000,  -0.06750488281250000000000,  0.07312011718750000000000,  -0.12329101562500000000000,  -0.25708007812500000000000,  -0.02758789062500000000000,  -0.15515136718750000000000,  0.07421875000000000000000,  -0.05285644531250000000000,  -0.18615722656250000000000,  0.14794921875000000000000,  -0.14428710937500000000000,  -0.03308105468750000000000,  0.08410644531250000000000,  0.19763183593750000000000,  -0.06567382812500000000000,  0.15905761718750000000000,  0.02368164062500000000000,  -0.23474121093750000000000,  0.14062500000000000000000,  -0.22082519531250000000000,  -0.14807128906250000000000,  0.01074218750000000000000,  0.25817871093750000000000,  -0.29943847656250000000000,
 -0.24768066406250000000000,  0.06066894531250000000000,  -0.02832031250000000000000,  -0.13928222656250000000000,  -0.07482910156250000000000,  0.11645507812500000000000,  0.25524902343750000000000,  -0.09313964843750000000000,  0.06005859375000000000000,  -0.00793457031250000000000,  -0.10595703125000000000000,  0.03076171875000000000000,  -0.00146484375000000000000,  -0.22119140625000000000000,  -0.03137207031250000000000,  0.28149414062500000000000,  -0.09692382812500000000000,  -0.20825195312500000000000,  0.02124023437500000000000,  -0.02233886718750000000000,  0.15319824218750000000000,  -0.13977050781250000000000,  -0.08154296875000000000000,  -0.09326171875000000000000,  -0.12609863281250000000000,  0.00000000000000000000000,  0.14916992187500000000000,  0.04931640625000000000000,  0.09289550781250000000000,  -0.28112792968750000000000,  0.10156250000000000000000,  -0.11132812500000000000000,  -0.21606445312500000000000,  -0.11462402343750000000000,  -0.16247558593750000000000,  -0.16235351562500000000000,  0.17541503906250000000000,  -0.04846191406250000000000,  0.13867187500000000000000,  -0.02429199218750000000000,  0.07312011718750000000000,  -0.00805664062500000000000,  -0.07336425781250000000000,  -0.08605957031250000000000,  0.01025390625000000000000,  0.19055175781250000000000,  0.01953125000000000000000,  0.11608886718750000000000,  0.10986328125000000000000,  -0.03601074218750000000000,  0.01879882812500000000000,  -0.00537109375000000000000,  -0.05346679687500000000000,  0.09814453125000000000000,  0.09594726562500000000000,  -0.20507812500000000000000,  0.03344726562500000000000,  0.22387695312500000000000,  0.25964355468750000000000,  -0.24707031250000000000000,  0.13049316406250000000000,  0.05334472656250000000000,  -0.16418457031250000000000,  -0.01635742187500000000000,  0.21020507812500000000000,  -0.04602050781250000000000,  -0.09375000000000000000000,  -0.07470703125000000000000,  0.02758789062500000000000,  -0.20520019531250000000000,  -0.20642089843750000000000,  -0.02905273437500000000000,  0.08984375000000000000000,  -0.11804199218750000000000,  -0.17858886718750000000000,  -0.01806640625000000000000,  0.02331542968750000000000,  -0.07263183593750000000000,  0.14172363281250000000000,  -0.18542480468750000000000,  0.00549316406250000000000,  -0.05993652343750000000000,  -0.03540039062500000000000,  0.05871582031250000000000,
 0.29333496093750000000000,  -0.06811523437500000000000,  0.01000976562500000000000,  -0.22595214843750000000000,  0.06567382812500000000000,  0.07897949218750000000000,  0.06347656250000000000000,  0.00659179687500000000000,  0.00524902343750000000000,  -0.20971679687500000000000,  -0.01391601562500000000000,  -0.12207031250000000000000,  0.11865234375000000000000,  0.15539550781250000000000,  -0.05712890625000000000000,  -0.00659179687500000000000,  -0.19885253906250000000000,  0.25622558593750000000000,  -0.26416015625000000000000,  0.03662109375000000000000,  -0.18908691406250000000000,  0.12170410156250000000000,  -0.02099609375000000000000,  -0.10778808593750000000000,  0.01232910156250000000000,  -0.12500000000000000000000,  0.12048339843750000000000,  -0.01782226562500000000000,  -0.07238769531250000000000,  -0.25231933593750000000000,  0.21252441406250000000000,  -0.01257324218750000000000,  -0.04089355468750000000000,  0.09631347656250000000000,  0.06274414062500000000000,  0.03820800781250000000000,  -0.16455078125000000000000,  -0.18664550781250000000000,  0.05151367187500000000000,  0.22875976562500000000000,  0.00842285156250000000000,  -0.07165527343750000000000,  0.10363769531250000000000,  0.11669921875000000000000,  -0.21130371093750000000000,  0.00305175781250000000000,  0.09997558593750000000000,  0.23596191406250000000000,  0.22717285156250000000000,  -0.00939941406250000000000,  -0.07360839843750000000000,  -0.10473632812500000000000,  -0.09851074218750000000000,  -0.18664550781250000000000,  0.00439453125000000000000,  0.18737792968750000000000,  -0.06567382812500000000000,  0.03991699218750000000000,  0.08923339843750000000000,  0.19567871093750000000000,  0.16467285156250000000000,  -0.28027343750000000000000,  -0.12292480468750000000000,  0.23291015625000000000000,  0.27075195312500000000000,  -0.19958496093750000000000,  -0.00085449218750000000000,  -0.14624023437500000000000,  0.07958984375000000000000,  0.29333496093750000000000,  0.18151855468750000000000,  -0.00476074218750000000000,  0.06250000000000000000000,  0.30920410156250000000000,  -0.09533691406250000000000,  -0.03320312500000000000000,  -0.04687500000000000000000,  0.07934570312500000000000,  -0.09228515625000000000000,  0.03552246093750000000000,  -0.16735839843750000000000,  0.11120605468750000000000,  0.09228515625000000000000,  -0.12500000000000000000000,
 -0.10253906250000000000000,  0.04382324218750000000000,  0.17980957031250000000000,  -0.02563476562500000000000,  -0.07470703125000000000000,  -0.09643554687500000000000,  0.05895996093750000000000,  -0.21728515625000000000000,  -0.15490722656250000000000,  -0.17565917968750000000000,  0.14465332031250000000000,  0.02355957031250000000000,  0.12084960937500000000000,  -0.18750000000000000000000,  -0.08801269531250000000000,  -0.22546386718750000000000,  0.33874511718750000000000,  -0.16699218750000000000000,  -0.12072753906250000000000,  -0.07885742187500000000000,  -0.17236328125000000000000,  -0.07812500000000000000000,  -0.13574218750000000000000,  -0.01049804687500000000000,  -0.25598144531250000000000,  -0.07238769531250000000000,  0.09606933593750000000000,  0.08715820312500000000000,  -0.15222167968750000000000,  0.18115234375000000000000,  0.20422363281250000000000,  0.03479003906250000000000,  -0.06127929687500000000000,  -0.00354003906250000000000,  0.00463867187500000000000,  0.15893554687500000000000,  0.00292968750000000000000,  -0.27575683593750000000000,  0.25402832031250000000000,  0.04199218750000000000000,  0.19384765625000000000000,  0.18151855468750000000000,  0.11706542968750000000000,  0.15368652343750000000000,  0.19018554687500000000000,  0.24560546875000000000000,  0.01586914062500000000000,  -0.11718750000000000000000,  -0.17883300781250000000000,  0.08251953125000000000000,  0.00939941406250000000000,  0.02404785156250000000000,  0.09436035156250000000000,  0.26257324218750000000000,  -0.02575683593750000000000,  0.04516601562500000000000,  0.21728515625000000000000,  0.06799316406250000000000,  0.04321289062500000000000,  -0.20397949218750000000000,  -0.02258300781250000000000,  -0.12231445312500000000000,  0.00219726562500000000000,  -0.18286132812500000000000,  0.17211914062500000000000,  0.19641113281250000000000,  -0.05993652343750000000000,  -0.02770996093750000000000,  -0.12231445312500000000000,  -0.08044433593750000000000,  0.00708007812500000000000,  0.08752441406250000000000,  -0.09045410156250000000000,  0.07592773437500000000000,  -0.03601074218750000000000,  0.09069824218750000000000,  -0.31896972656250000000000,  -0.21691894531250000000000,  0.07141113281250000000000,  -0.22131347656250000000000,  0.07678222656250000000000,  0.03625488281250000000000,  -0.02819824218750000000000,  0.03540039062500000000000,
 -0.22509765625000000000000,  0.01123046875000000000000,  -0.04577636718750000000000,  -0.02099609375000000000000,  0.15991210937500000000000,  0.14489746093750000000000,  0.17504882812500000000000,  0.29833984375000000000000,  0.06640625000000000000000,  0.17590332031250000000000,  -0.22204589843750000000000,  -0.26013183593750000000000,  0.14953613281250000000000,  0.06640625000000000000000,  0.13256835937500000000000,  -0.17834472656250000000000,  -0.18737792968750000000000,  0.03173828125000000000000,  0.03259277343750000000000,  0.19616699218750000000000,  -0.18859863281250000000000,  -0.00744628906250000000000,  0.22509765625000000000000,  -0.04028320312500000000000,  -0.03442382812500000000000,  -0.09924316406250000000000,  0.21643066406250000000000,  -0.04821777343750000000000,  0.09667968750000000000000,  -0.04748535156250000000000,  0.08288574218750000000000,  0.00927734375000000000000,  -0.02893066406250000000000,  -0.16186523437500000000000,  0.20751953125000000000000,  -0.07067871093750000000000,  -0.26074218750000000000000,  0.11401367187500000000000,  -0.08349609375000000000000,  0.03051757812500000000000,  0.19042968750000000000000,  -0.06201171875000000000000,  -0.05322265625000000000000,  0.12377929687500000000000,  -0.06628417968750000000000,  0.04541015625000000000000,  -0.01184082031250000000000,  0.04223632812500000000000,  0.03344726562500000000000,  -0.05065917968750000000000,  0.00109863281250000000000,  -0.08386230468750000000000,  -0.02661132812500000000000,  0.13903808593750000000000,  0.04138183593750000000000,  0.13574218750000000000000,  -0.16894531250000000000000,  -0.01745605468750000000000,  -0.14733886718750000000000,  -0.10168457031250000000000,  0.12670898437500000000000,  -0.09338378906250000000000,  0.05249023437500000000000,  -0.04443359375000000000000,  -0.01660156250000000000000,  0.04309082031250000000000,  0.12780761718750000000000,  -0.10815429687500000000000,  0.05334472656250000000000,  -0.11633300781250000000000,  0.16137695312500000000000,  -0.10314941406250000000000,  0.01245117187500000000000,  -0.06811523437500000000000,  -0.09887695312500000000000,  -0.08911132812500000000000,  0.23913574218750000000000,  0.04455566406250000000000,  -0.00122070312500000000000,  -0.08312988281250000000000,  0.01171875000000000000000,  0.03723144531250000000000,  0.11376953125000000000000,  0.17089843750000000000000,
 -0.06872558593750000000000,  0.11047363281250000000000,  0.00402832031250000000000,  -0.17370605468750000000000,  0.18066406250000000000000,  -0.15869140625000000000000,  0.08020019531250000000000,  -0.14831542968750000000000,  0.07836914062500000000000,  0.11706542968750000000000,  -0.11584472656250000000000,  0.12011718750000000000000,  0.05761718750000000000000,  -0.14196777343750000000000,  0.02612304687500000000000,  -0.07788085937500000000000,  0.32019042968750000000000,  0.08630371093750000000000,  0.19396972656250000000000,  0.03369140625000000000000,  0.02416992187500000000000,  -0.05371093750000000000000,  -0.16979980468750000000000,  0.03125000000000000000000,  0.16528320312500000000000,  -0.28820800781250000000000,  0.00891113281250000000000,  0.09252929687500000000000,  -0.01220703125000000000000,  0.01245117187500000000000,  0.08361816406250000000000,  0.11474609375000000000000,  0.23400878906250000000000,  0.11950683593750000000000,  0.01220703125000000000000,  -0.17041015625000000000000,  -0.20825195312500000000000,  -0.27233886718750000000000,  0.23132324218750000000000,  -0.04736328125000000000000,  0.01586914062500000000000,  0.26794433593750000000000,  -0.06689453125000000000000,  0.10266113281250000000000,  -0.04931640625000000000000,  -0.09216308593750000000000,  -0.04394531250000000000000,  0.21997070312500000000000,  0.17761230468750000000000,  -0.14428710937500000000000,  -0.10583496093750000000000,  -0.24707031250000000000000,  -0.09887695312500000000000,  0.09729003906250000000000,  0.03723144531250000000000,  -0.14709472656250000000000,  -0.08215332031250000000000,  -0.25878906250000000000000,  -0.23413085937500000000000,  0.23486328125000000000000,  -0.07922363281250000000000,  -0.08422851562500000000000,  -0.06811523437500000000000,  0.13513183593750000000000,  0.03466796875000000000000,  0.03063964843750000000000,  0.07189941406250000000000,  -0.03710937500000000000000,  -0.24987792968750000000000,  -0.03979492187500000000000,  -0.22204589843750000000000,  0.23486328125000000000000,  -0.17687988281250000000000,  0.30151367187500000000000,  -0.10266113281250000000000,  -0.04113769531250000000000,  -0.11437988281250000000000,  0.03662109375000000000000,  -0.07629394531250000000000,  -0.15625000000000000000000,  -0.00024414062500000000000,  -0.16040039062500000000000,  -0.18444824218750000000000,  -0.07678222656250000000000,
 0.16552734375000000000000,  0.24035644531250000000000,  -0.16320800781250000000000,  -0.10388183593750000000000,  0.20117187500000000000000,  -0.11352539062500000000000,  -0.26501464843750000000000,  0.23901367187500000000000,  0.12792968750000000000000,  0.09252929687500000000000,  -0.02685546875000000000000,  0.03210449218750000000000,  0.19445800781250000000000,  -0.13427734375000000000000,  -0.23437500000000000000000,  -0.07202148437500000000000,  -0.18933105468750000000000,  0.24365234375000000000000,  0.17163085937500000000000,  0.22253417968750000000000,  0.12561035156250000000000,  0.09594726562500000000000,  -0.23583984375000000000000,  -0.02221679687500000000000,  -0.02124023437500000000000,  0.18554687500000000000000,  -0.03002929687500000000000,  -0.01171875000000000000000,  -0.04577636718750000000000,  0.16015625000000000000000,  -0.20947265625000000000000,  0.20605468750000000000000,  0.25903320312500000000000,  -0.11022949218750000000000,  -0.12182617187500000000000,  0.06762695312500000000000,  -0.04345703125000000000000,  0.06835937500000000000000,  0.07421875000000000000000,  -0.23840332031250000000000,  0.16015625000000000000000,  -0.03710937500000000000000,  0.12988281250000000000000,  -0.13208007812500000000000,  -0.11389160156250000000000,  -0.07568359375000000000000,  0.10852050781250000000000,  0.06677246093750000000000,  0.08288574218750000000000,  0.05456542968750000000000,  0.01611328125000000000000,  -0.01855468750000000000000,  0.16857910156250000000000,  0.19750976562500000000000,  0.07482910156250000000000,  -0.02685546875000000000000,  -0.14587402343750000000000,  0.08984375000000000000000,  0.08679199218750000000000,  0.05993652343750000000000,  0.03967285156250000000000,  -0.13073730468750000000000,  0.05468750000000000000000,  0.14282226562500000000000,  0.12536621093750000000000,  -0.22412109375000000000000,  -0.20629882812500000000000,  -0.02807617187500000000000,  -0.03149414062500000000000,  0.14636230468750000000000,  -0.06542968750000000000000,  0.06079101562500000000000,  -0.09680175781250000000000,  0.22229003906250000000000,  -0.16284179687500000000000,  -0.02954101562500000000000,  0.13879394531250000000000,  0.18615722656250000000000,  0.22375488281250000000000,  0.13586425781250000000000,  -0.00341796875000000000000,  -0.19763183593750000000000,  -0.08959960937500000000000,  -0.14892578125000000000000,
 0.22302246093750000000000,  0.04528808593750000000000,  -0.01428222656250000000000,  -0.11425781250000000000000,  -0.17517089843750000000000,  -0.23107910156250000000000,  0.06811523437500000000000,  0.01879882812500000000000,  -0.08874511718750000000000,  0.16943359375000000000000,  0.13195800781250000000000,  -0.23388671875000000000000,  0.05310058593750000000000,  0.04418945312500000000000,  -0.01147460937500000000000,  0.00842285156250000000000,  0.15905761718750000000000,  0.00952148437500000000000,  0.18078613281250000000000,  -0.03100585937500000000000,  -0.01782226562500000000000,  0.03234863281250000000000,  -0.00427246093750000000000,  -0.09179687500000000000000,  -0.11584472656250000000000,  -0.00280761718750000000000,  0.09436035156250000000000,  0.03356933593750000000000,  0.21997070312500000000000,  0.20495605468750000000000,  -0.13537597656250000000000,  -0.03515625000000000000000,  0.27587890625000000000000,  -0.20275878906250000000000,  -0.07153320312500000000000,  -0.01489257812500000000000,  0.28466796875000000000000,  -0.07812500000000000000000,  -0.07885742187500000000000,  0.03747558593750000000000,  -0.02392578125000000000000,  0.20129394531250000000000,  -0.02099609375000000000000,  -0.13146972656250000000000,  -0.25793457031250000000000,  -0.11315917968750000000000,  0.06018066406250000000000,  -0.02514648437500000000000,  -0.03747558593750000000000,  -0.23840332031250000000000,  -0.08984375000000000000000,  0.04907226562500000000000,  0.00317382812500000000000,  0.09204101562500000000000,  -0.11108398437500000000000,  -0.06652832031250000000000,  0.04785156250000000000000,  0.02001953125000000000000,  -0.00415039062500000000000,  -0.04028320312500000000000,  0.11242675781250000000000,  0.08593750000000000000000,  0.00585937500000000000000,  0.10058593750000000000000,  -0.12963867187500000000000,  -0.23217773437500000000000,  0.05712890625000000000000,  -0.07470703125000000000000,  -0.10388183593750000000000,  0.25122070312500000000000,  0.00244140625000000000000,  -0.01367187500000000000000,  0.15551757812500000000000,  0.16821289062500000000000,  0.19091796875000000000000,  -0.05432128906250000000000,  0.19042968750000000000000,  0.16430664062500000000000,  -0.14575195312500000000000,  -0.01330566406250000000000,  0.05859375000000000000000,  -0.01684570312500000000000,  -0.00366210937500000000000,  -0.10693359375000000000000,
 0.29296875000000000000000,  0.13000488281250000000000,  0.10424804687500000000000,  -0.18835449218750000000000,  -0.01330566406250000000000,  0.01794433593750000000000,  -0.19116210937500000000000,  -0.11303710937500000000000,  0.08959960937500000000000,  0.19982910156250000000000,  -0.25341796875000000000000,  -0.11376953125000000000000,  0.06164550781250000000000,  -0.02246093750000000000000,  -0.09436035156250000000000,  0.06225585937500000000000,  -0.10009765625000000000000,  0.02697753906250000000000,  -0.04455566406250000000000,  -0.10852050781250000000000,  0.03930664062500000000000,  -0.22546386718750000000000,  -0.21057128906250000000000,  -0.11328125000000000000000,  0.19787597656250000000000,  0.21313476562500000000000,  0.31506347656250000000000,  0.18029785156250000000000,  -0.08728027343750000000000,  -0.02319335937500000000000,  0.11523437500000000000000,  0.09716796875000000000000,  0.05493164062500000000000,  -0.01721191406250000000000,  -0.15441894531250000000000,  -0.15417480468750000000000,  -0.00561523437500000000000,  -0.14868164062500000000000,  -0.15673828125000000000000,  -0.27819824218750000000000,  -0.01196289062500000000000,  -0.04052734375000000000000,  0.01037597656250000000000,  0.07971191406250000000000,  0.21594238281250000000000,  0.09448242187500000000000,  -0.04760742187500000000000,  0.16613769531250000000000,  0.16650390625000000000000,  0.01245117187500000000000,  -0.00183105468750000000000,  0.19555664062500000000000,  -0.02453613281250000000000,  0.12744140625000000000000,  0.09509277343750000000000,  -0.15490722656250000000000,  0.21813964843750000000000,  -0.17395019531250000000000,  -0.30053710937500000000000,  -0.01245117187500000000000,  -0.23693847656250000000000,  0.12658691406250000000000,  0.07226562500000000000000,  0.05773925781250000000000,  0.09008789062500000000000,  0.22058105468750000000000,  -0.01623535156250000000000,  0.05883789062500000000000,  -0.12915039062500000000000,  -0.18542480468750000000000,  -0.26342773437500000000000,  0.00073242187500000000000,  0.08959960937500000000000,  -0.14843750000000000000000,  -0.15417480468750000000000,  0.17407226562500000000000,  -0.00964355468750000000000,  -0.09313964843750000000000,  0.08935546875000000000000,  -0.02844238281250000000000,  -0.19921875000000000000000,  -0.29138183593750000000000,  -0.11645507812500000000000,  0.05810546875000000000000,
 0.04284667968750000000000,  0.05859375000000000000000,  0.20959472656250000000000,  -0.27734375000000000000000,  -0.03491210937500000000000,  0.23754882812500000000000,  0.15722656250000000000000,  0.08923339843750000000000,  -0.11010742187500000000000,  -0.18969726562500000000000,  -0.07763671875000000000000,  -0.08581542968750000000000,  -0.00952148437500000000000,  0.18127441406250000000000,  -0.08093261718750000000000,  -0.14538574218750000000000,  0.10021972656250000000000,  -0.01184082031250000000000,  -0.22668457031250000000000,  -0.11157226562500000000000,  -0.02355957031250000000000,  0.13623046875000000000000,  0.20434570312500000000000,  -0.01574707031250000000000,  0.00146484375000000000000,  -0.03662109375000000000000,  -0.22888183593750000000000,  0.10888671875000000000000,  0.02172851562500000000000,  0.19738769531250000000000,  -0.08923339843750000000000,  -0.00769042968750000000000,  0.05041503906250000000000,  0.18713378906250000000000,  -0.31982421875000000000000,  -0.06225585937500000000000,  0.06677246093750000000000,  -0.00708007812500000000000,  0.25170898437500000000000,  0.09301757812500000000000,  -0.20861816406250000000000,  -0.01733398437500000000000,  0.17675781250000000000000,  -0.06970214843750000000000,  0.06140136718750000000000,  0.09545898437500000000000,  -0.06518554687500000000000,  0.01306152343750000000000,  0.04711914062500000000000,  -0.09350585937500000000000,  -0.14160156250000000000000,  0.14477539062500000000000,  -0.20336914062500000000000,  0.07080078125000000000000,  0.20532226562500000000000,  0.04223632812500000000000,  0.05090332031250000000000,  0.23547363281250000000000,  0.26550292968750000000000,  0.09777832031250000000000,  -0.16577148437500000000000,  -0.14416503906250000000000,  -0.01892089843750000000000,  0.05273437500000000000000,  0.17492675781250000000000,  -0.09289550781250000000000,  0.01782226562500000000000,  -0.01892089843750000000000,  -0.08154296875000000000000,  0.06555175781250000000000,  -0.19433593750000000000000,  -0.04284667968750000000000,  -0.06481933593750000000000,  0.01062011718750000000000,  -0.02783203125000000000000,  0.19628906250000000000000,  -0.27526855468750000000000,  -0.18298339843750000000000,  0.23596191406250000000000,  0.01110839843750000000000,  0.06970214843750000000000,  0.17834472656250000000000,  0.22680664062500000000000,  -0.15136718750000000000000,
 -0.03308105468750000000000,  -0.04528808593750000000000,  0.08911132812500000000000,  0.16381835937500000000000,  -0.15332031250000000000000,  -0.09851074218750000000000,  0.14929199218750000000000,  -0.05029296875000000000000,  0.10852050781250000000000,  0.01696777343750000000000,  -0.11547851562500000000000,  -0.04406738281250000000000,  0.21228027343750000000000,  -0.02343750000000000000000,  -0.04016113281250000000000,  0.16748046875000000000000,  0.08361816406250000000000,  0.14916992187500000000000,  0.07958984375000000000000,  -0.00781250000000000000000,  -0.04016113281250000000000,  0.02587890625000000000000,  0.06176757812500000000000,  0.21118164062500000000000,  -0.09228515625000000000000,  0.15441894531250000000000,  0.19531250000000000000000,  -0.01428222656250000000000,  0.00378417968750000000000,  0.22521972656250000000000,  0.17309570312500000000000,  -0.10510253906250000000000,  -0.32080078125000000000000,  0.13146972656250000000000,  0.01477050781250000000000,  0.12524414062500000000000,  0.21752929687500000000000,  0.03295898437500000000000,  -0.14465332031250000000000,  -0.09484863281250000000000,  -0.16564941406250000000000,  -0.23754882812500000000000,  0.20739746093750000000000,  0.30700683593750000000000,  -0.19104003906250000000000,  0.04040527343750000000000,  -0.10876464843750000000000,  0.08325195312500000000000,  -0.05395507812500000000000,  -0.06481933593750000000000,  -0.13366699218750000000000,  -0.00817871093750000000000,  0.02429199218750000000000,  -0.17077636718750000000000,  0.06176757812500000000000,  -0.04174804687500000000000,  -0.09301757812500000000000,  -0.10339355468750000000000,  -0.14782714843750000000000,  -0.00512695312500000000000,  -0.10009765625000000000000,  -0.19262695312500000000000,  -0.32275390625000000000000,  0.19140625000000000000000,  -0.16125488281250000000000,  -0.27307128906250000000000,  -0.01843261718750000000000,  0.11437988281250000000000,  0.05871582031250000000000,  0.07812500000000000000000,  -0.03308105468750000000000,  0.02453613281250000000000,  -0.26721191406250000000000,  0.06652832031250000000000,  0.15368652343750000000000,  -0.09643554687500000000000,  -0.19995117187500000000000,  -0.27355957031250000000000,  0.03308105468750000000000,  0.02929687500000000000000,  0.27148437500000000000000,  0.13000488281250000000000,  0.06896972656250000000000,  0.04980468750000000000000,
 0.20190429687500000000000,  0.20544433593750000000000,  0.25512695312500000000000,  -0.01074218750000000000000,  -0.04724121093750000000000,  -0.10974121093750000000000,  -0.16174316406250000000000,  0.09130859375000000000000,  0.06188964843750000000000,  -0.20178222656250000000000,  0.04187011718750000000000,  -0.00671386718750000000000,  -0.27502441406250000000000,  0.09008789062500000000000,  0.00036621093750000000000,  -0.03796386718750000000000,  0.23510742187500000000000,  -0.28320312500000000000000,  0.00622558593750000000000,  0.09729003906250000000000,  -0.06726074218750000000000,  -0.08044433593750000000000,  0.06945800781250000000000,  0.20141601562500000000000,  0.18225097656250000000000,  0.19042968750000000000000,  0.10034179687500000000000,  0.07934570312500000000000,  -0.13793945312500000000000,  -0.11010742187500000000000,  0.00537109375000000000000,  -0.02795410156250000000000,  0.19262695312500000000000,  -0.03161621093750000000000,  0.15649414062500000000000,  0.06481933593750000000000,  -0.14782714843750000000000,  0.02331542968750000000000,  -0.00952148437500000000000,  0.18408203125000000000000,  -0.18701171875000000000000,  0.08459472656250000000000,  -0.04101562500000000000000,  -0.04772949218750000000000,  -0.08679199218750000000000,  0.13793945312500000000000,  -0.16699218750000000000000,  -0.01855468750000000000000,  0.07519531250000000000000,  -0.07104492187500000000000,  -0.13159179687500000000000,  -0.09387207031250000000000,  0.02563476562500000000000,  -0.00317382812500000000000,  -0.04150390625000000000000,  -0.03527832031250000000000,  -0.06030273437500000000000,  0.10449218750000000000000,  0.13806152343750000000000,  -0.13732910156250000000000,  -0.00732421875000000000000,  0.15795898437500000000000,  -0.04882812500000000000000,  0.11962890625000000000000,  0.23657226562500000000000,  0.00427246093750000000000,  -0.00903320312500000000000,  0.26867675781250000000000,  -0.00366210937500000000000,  -0.05419921875000000000000,  -0.25537109375000000000000,  0.10632324218750000000000,  0.12500000000000000000000,  0.13024902343750000000000,  -0.00256347656250000000000,  -0.01770019531250000000000,  -0.01501464843750000000000,  -0.11804199218750000000000,  -0.12817382812500000000000,  -0.02880859375000000000000,  -0.07934570312500000000000,  0.01831054687500000000000,  0.22326660156250000000000,  0.07336425781250000000000,
 0.11303710937500000000000,  0.20727539062500000000000,  0.00305175781250000000000,  0.12829589843750000000000,  -0.01159667968750000000000,  -0.15515136718750000000000,  0.11840820312500000000000,  -0.20007324218750000000000,  0.03295898437500000000000,  0.18786621093750000000000,  0.25158691406250000000000,  0.12377929687500000000000,  0.02673339843750000000000,  0.18676757812500000000000,  0.07727050781250000000000,  -0.15087890625000000000000,  -0.08117675781250000000000,  -0.07043457031250000000000,  -0.07470703125000000000000,  -0.04968261718750000000000,  -0.04797363281250000000000,  0.02136230468750000000000,  -0.03381347656250000000000,  0.17614746093750000000000,  0.15417480468750000000000,  0.03613281250000000000000,  0.10168457031250000000000,  -0.01184082031250000000000,  0.07910156250000000000000,  0.20031738281250000000000,  -0.24670410156250000000000,  0.24438476562500000000000,  -0.00280761718750000000000,  -0.18261718750000000000000,  0.05322265625000000000000,  0.11389160156250000000000,  0.10510253906250000000000,  0.05139160156250000000000,  -0.11694335937500000000000,  -0.06640625000000000000000,  -0.05285644531250000000000,  -0.02819824218750000000000,  0.07824707031250000000000,  -0.08593750000000000000000,  -0.13012695312500000000000,  0.09155273437500000000000,  -0.23718261718750000000000,  0.00854492187500000000000,  0.20446777343750000000000,  0.00048828125000000000000,  0.06567382812500000000000,  -0.13806152343750000000000,  0.08874511718750000000000,  -0.16906738281250000000000,  0.03454589843750000000000,  0.09558105468750000000000,  0.10253906250000000000000,  0.11254882812500000000000,  -0.01318359375000000000000,  0.15100097656250000000000,  0.10571289062500000000000,  0.11462402343750000000000,  -0.14477539062500000000000,  -0.23547363281250000000000,  -0.05603027343750000000000,  -0.19921875000000000000000,  0.30322265625000000000000,  0.22717285156250000000000,  -0.05517578125000000000000,  -0.00183105468750000000000,  0.01037597656250000000000,  0.01794433593750000000000,  0.06469726562500000000000,  0.06274414062500000000000,  -0.12683105468750000000000,  0.19616699218750000000000,  0.06555175781250000000000,  -0.03601074218750000000000,  -0.15661621093750000000000,  0.16662597656250000000000,  0.01062011718750000000000,  -0.14953613281250000000000,  -0.03601074218750000000000,  0.03405761718750000000000,
 -0.01696777343750000000000,  -0.12573242187500000000000,  -0.07678222656250000000000,  0.00048828125000000000000,  0.21582031250000000000000,  0.01647949218750000000000,  0.02502441406250000000000,  -0.07897949218750000000000,  0.06213378906250000000000,  0.02551269531250000000000,  0.22778320312500000000000,  -0.00305175781250000000000,  0.00769042968750000000000,  -0.19409179687500000000000,  0.21215820312500000000000,  -0.05920410156250000000000,  -0.11877441406250000000000,  -0.12890625000000000000000,  -0.06750488281250000000000,  0.22668457031250000000000,  0.05529785156250000000000,  0.09020996093750000000000,  -0.05944824218750000000000,  0.09020996093750000000000,  0.08361816406250000000000,  0.18200683593750000000000,  0.19604492187500000000000,  0.11071777343750000000000,  0.15039062500000000000000,  0.06506347656250000000000,  0.11523437500000000000000,  -0.00915527343750000000000,  0.22839355468750000000000,  -0.28222656250000000000000,  0.05688476562500000000000,  0.14746093750000000000000,  0.11804199218750000000000,  0.02795410156250000000000,  -0.06359863281250000000000,  -0.03381347656250000000000,  -0.10986328125000000000000,  -0.01440429687500000000000,  -0.06530761718750000000000,  0.15478515625000000000000,  0.05871582031250000000000,  0.02001953125000000000000,  -0.05554199218750000000000,  0.14868164062500000000000,  -0.24194335937500000000000,  0.05004882812500000000000,  -0.09838867187500000000000,  0.23791503906250000000000,  0.08007812500000000000000,  0.17224121093750000000000,  0.04418945312500000000000,  -0.20117187500000000000000,  -0.13647460937500000000000,  0.08166503906250000000000,  0.27099609375000000000000,  0.16906738281250000000000,  0.12023925781250000000000,  0.19213867187500000000000,  -0.26086425781250000000000,  0.11193847656250000000000,  -0.01855468750000000000000,  0.00805664062500000000000,  0.17553710937500000000000,  0.03564453125000000000000,  -0.15576171875000000000000,  -0.22326660156250000000000,  -0.19946289062500000000000,  -0.15734863281250000000000,  0.02172851562500000000000,  -0.18664550781250000000000,  -0.11401367187500000000000,  0.02331542968750000000000,  -0.14318847656250000000000,  -0.10864257812500000000000,  0.08129882812500000000000,  -0.01770019531250000000000,  -0.05151367187500000000000,  -0.08691406250000000000000,  0.00109863281250000000000,  0.25207519531250000000000,
 0.12194824218750000000000,  0.22070312500000000000000,  0.06359863281250000000000,  0.28527832031250000000000,  0.00500488281250000000000,  0.09094238281250000000000,  0.17004394531250000000000,  0.04113769531250000000000,  -0.04113769531250000000000,  -0.10424804687500000000000,  0.18859863281250000000000,  0.07116699218750000000000,  -0.09875488281250000000000,  -0.03857421875000000000000,  -0.09729003906250000000000,  -0.01049804687500000000000,  -0.12597656250000000000000,  0.26721191406250000000000,  -0.02929687500000000000000,  0.06420898437500000000000,  0.02319335937500000000000,  -0.11853027343750000000000,  -0.01696777343750000000000,  -0.05273437500000000000000,  -0.14758300781250000000000,  -0.14160156250000000000000,  -0.07788085937500000000000,  -0.05688476562500000000000,  -0.02795410156250000000000,  -0.18444824218750000000000,  0.01928710937500000000000,  0.10229492187500000000000,  -0.24951171875000000000000,  0.22827148437500000000000,  0.04235839843750000000000,  0.04443359375000000000000,  -0.13732910156250000000000,  0.15148925781250000000000,  0.00195312500000000000000,  0.23608398437500000000000,  -0.09777832031250000000000,  -0.00268554687500000000000,  -0.00134277343750000000000,  0.01672363281250000000000,  -0.23754882812500000000000,  0.02612304687500000000000,  0.27258300781250000000000,  0.01306152343750000000000,  -0.05737304687500000000000,  -0.03112792968750000000000,  0.09082031250000000000000,  -0.21691894531250000000000,  0.01098632812500000000000,  -0.08569335937500000000000,  -0.05078125000000000000000,  0.03662109375000000000000,  -0.17126464843750000000000,  0.00000000000000000000000,  0.21789550781250000000000,  0.05322265625000000000000,  0.10925292968750000000000,  -0.16223144531250000000000,  -0.17138671875000000000000,  0.03637695312500000000000,  0.23962402343750000000000,  -0.19250488281250000000000,  0.01550292968750000000000,  -0.05041503906250000000000,  0.05053710937500000000000,  0.09960937500000000000000,  0.13195800781250000000000,  0.12219238281250000000000,  0.03576660156250000000000,  0.03283691406250000000000,  0.09619140625000000000000,  -0.06945800781250000000000,  0.17333984375000000000000,  0.12194824218750000000000,  0.05822753906250000000000,  0.24353027343750000000000,  -0.08337402343750000000000,  0.10083007812500000000000,  0.08935546875000000000000,  0.08825683593750000000000,
 0.05102539062500000000000,  -0.15222167968750000000000,  -0.01403808593750000000000,  0.01599121093750000000000,  0.02819824218750000000000,  -0.13073730468750000000000,  -0.18237304687500000000000,  0.09814453125000000000000,  -0.06787109375000000000000,  0.07299804687500000000000,  -0.01928710937500000000000,  -0.05603027343750000000000,  0.07849121093750000000000,  0.10717773437500000000000,  0.03466796875000000000000,  -0.08654785156250000000000,  0.05651855468750000000000,  0.04943847656250000000000,  0.06909179687500000000000,  -0.14855957031250000000000,  -0.10253906250000000000000,  0.16552734375000000000000,  0.08654785156250000000000,  -0.09680175781250000000000,  0.20947265625000000000000,  0.20117187500000000000000,  0.26745605468750000000000,  0.15966796875000000000000,  -0.01306152343750000000000,  -0.00280761718750000000000,  0.15100097656250000000000,  -0.16076660156250000000000,  -0.14648437500000000000000,  -0.05078125000000000000000,  -0.04858398437500000000000,  -0.28222656250000000000000,  0.18310546875000000000000,  0.17004394531250000000000,  -0.21008300781250000000000,  0.03967285156250000000000,  0.14587402343750000000000,  -0.12841796875000000000000,  -0.18969726562500000000000,  -0.19421386718750000000000,  0.23974609375000000000000,  0.23425292968750000000000,  0.12353515625000000000000,  -0.08496093750000000000000,  0.01147460937500000000000,  0.10803222656250000000000,  -0.17590332031250000000000,  -0.11035156250000000000000,  0.00964355468750000000000,  0.30578613281250000000000,  -0.03637695312500000000000,  -0.02355957031250000000000,  0.19470214843750000000000,  0.05029296875000000000000,  -0.21276855468750000000000,  0.14794921875000000000000,  -0.09423828125000000000000,  -0.02673339843750000000000,  0.22680664062500000000000,  -0.28503417968750000000000,  -0.10986328125000000000000,  -0.00720214843750000000000,  -0.11450195312500000000000,  0.13024902343750000000000,  -0.04931640625000000000000,  -0.03662109375000000000000,  0.10815429687500000000000,  0.07287597656250000000000,  -0.04113769531250000000000,  0.10998535156250000000000,  -0.03845214843750000000000,  -0.03833007812500000000000,  0.08911132812500000000000,  0.08386230468750000000000,  0.01501464843750000000000,  -0.12915039062500000000000,  -0.13854980468750000000000,  0.07983398437500000000000,  -0.23999023437500000000000,  -0.22888183593750000000000,
 0.07006835937500000000000,  0.26159667968750000000000,  0.05017089843750000000000,  0.08703613281250000000000,  -0.26782226562500000000000,  0.11743164062500000000000,  0.14477539062500000000000,  -0.24340820312500000000000,  0.15234375000000000000000,  -0.25231933593750000000000,  0.20349121093750000000000,  0.28857421875000000000000,  0.07946777343750000000000,  -0.13879394531250000000000,  0.01147460937500000000000,  -0.20324707031250000000000,  0.20544433593750000000000,  -0.18493652343750000000000,  0.22558593750000000000000,  0.14306640625000000000000,  0.08544921875000000000000,  -0.06750488281250000000000,  0.16711425781250000000000,  -0.04345703125000000000000,  -0.03698730468750000000000,  0.03466796875000000000000,  -0.09863281250000000000000,  -0.28210449218750000000000,  -0.09277343750000000000000,  -0.02001953125000000000000,  -0.12060546875000000000000,  0.10351562500000000000000,  -0.08886718750000000000000,  -0.03649902343750000000000,  0.27490234375000000000000,  0.10070800781250000000000,  0.19445800781250000000000,  0.01635742187500000000000,  -0.14477539062500000000000,  0.01562500000000000000000,  0.02746582031250000000000,  0.10937500000000000000000,  0.01232910156250000000000,  0.06103515625000000000000,  0.08081054687500000000000,  0.12792968750000000000000,  0.07507324218750000000000,  0.11010742187500000000000,  -0.16528320312500000000000,  -0.08044433593750000000000,  -0.06030273437500000000000,  0.18505859375000000000000,  -0.03063964843750000000000,  0.03540039062500000000000,  0.23278808593750000000000,  0.12878417968750000000000,  -0.05065917968750000000000,  -0.25183105468750000000000,  0.11853027343750000000000,  0.17150878906250000000000,  -0.04833984375000000000000,  0.01464843750000000000000,  0.12548828125000000000000,  -0.23071289062500000000000,  -0.08972167968750000000000,  -0.00756835937500000000000,  0.11584472656250000000000,  0.23608398437500000000000,  -0.21862792968750000000000,  0.11010742187500000000000,  0.27136230468750000000000,  -0.05004882812500000000000,  0.05529785156250000000000,  0.26892089843750000000000,  0.05139160156250000000000,  0.09313964843750000000000,  -0.17724609375000000000000,  -0.28430175781250000000000,  0.26965332031250000000000,  -0.08984375000000000000000,  -0.00854492187500000000000,  0.10229492187500000000000,  -0.00036621093750000000000,  0.01403808593750000000000,
 -0.05566406250000000000000,  0.04602050781250000000000,  -0.04113769531250000000000,  -0.00610351562500000000000,  -0.03869628906250000000000,  0.07397460937500000000000,  -0.01135253906250000000000,  -0.17761230468750000000000,  -0.07910156250000000000000,  0.05676269531250000000000,  -0.22338867187500000000000,  0.22241210937500000000000,  0.06799316406250000000000,  0.04992675781250000000000,  -0.01354980468750000000000,  0.08007812500000000000000,  -0.14794921875000000000000,  -0.13854980468750000000000,  -0.28637695312500000000000,  0.17651367187500000000000,  -0.28881835937500000000000,  -0.09960937500000000000000,  0.02514648437500000000000,  -0.00256347656250000000000,  -0.03918457031250000000000,  -0.18261718750000000000000,  -0.00988769531250000000000,  -0.01867675781250000000000,  -0.09155273437500000000000,  -0.02990722656250000000000,  0.02990722656250000000000,  -0.00708007812500000000000,  -0.16882324218750000000000,  -0.10266113281250000000000,  0.08398437500000000000000,  -0.10925292968750000000000,  -0.20886230468750000000000,  0.21008300781250000000000,  -0.08654785156250000000000,  0.18603515625000000000000,  0.27819824218750000000000,  0.01562500000000000000000,  0.03833007812500000000000,  -0.08471679687500000000000,  0.04907226562500000000000,  -0.17602539062500000000000,  0.16369628906250000000000,  0.10388183593750000000000,  -0.08178710937500000000000,  0.22851562500000000000000,  -0.05834960937500000000000,  0.03320312500000000000000,  0.20092773437500000000000,  0.09252929687500000000000,  -0.00683593750000000000000,  0.02929687500000000000000,  -0.02429199218750000000000,  -0.19677734375000000000000,  0.02587890625000000000000,  -0.28491210937500000000000,  0.05322265625000000000000,  -0.14416503906250000000000,  0.12890625000000000000000,  -0.08557128906250000000000,  -0.03564453125000000000000,  -0.13562011718750000000000,  0.11193847656250000000000,  0.12280273437500000000000,  -0.18505859375000000000000,  0.03723144531250000000000,  0.17541503906250000000000,  -0.12817382812500000000000,  0.07092285156250000000000,  -0.00769042968750000000000,  0.20495605468750000000000,  -0.00231933593750000000000,  -0.11596679687500000000000,  -0.16772460937500000000000,  0.14245605468750000000000,  -0.08129882812500000000000,  0.19238281250000000000000,  0.03125000000000000000000,  -0.21374511718750000000000,  -0.15344238281250000000000,
 0.07299804687500000000000,  -0.10485839843750000000000,  0.04968261718750000000000,  0.00708007812500000000000,  -0.09497070312500000000000,  -0.18310546875000000000000,  -0.20898437500000000000000,  -0.03295898437500000000000,  -0.09484863281250000000000,  0.06298828125000000000000,  0.08911132812500000000000,  -0.24450683593750000000000,  -0.09631347656250000000000,  0.12377929687500000000000,  -0.07580566406250000000000,  0.20605468750000000000000,  0.22119140625000000000000,  -0.21923828125000000000000,  -0.11108398437500000000000,  -0.20129394531250000000000,  -0.28210449218750000000000,  -0.15454101562500000000000,  0.06750488281250000000000,  0.29455566406250000000000,  -0.19506835937500000000000,  -0.02758789062500000000000,  -0.24890136718750000000000,  -0.03100585937500000000000,  -0.27832031250000000000000,  0.09143066406250000000000,  0.11584472656250000000000,  -0.24951171875000000000000,  0.27172851562500000000000,  0.07299804687500000000000,  0.26318359375000000000000,  -0.13305664062500000000000,  0.06091308593750000000000,  -0.03442382812500000000000,  -0.18237304687500000000000,  -0.04663085937500000000000,  -0.02453613281250000000000,  0.08361816406250000000000,  0.12426757812500000000000,  0.01440429687500000000000,  -0.23474121093750000000000,  -0.05041503906250000000000,  -0.01623535156250000000000,  -0.02856445312500000000000,  -0.05102539062500000000000,  0.03491210937500000000000,  -0.00073242187500000000000,  0.00866699218750000000000,  0.12463378906250000000000,  0.16955566406250000000000,  0.05627441406250000000000,  0.12670898437500000000000,  -0.08081054687500000000000,  -0.00366210937500000000000,  -0.09118652343750000000000,  0.01403808593750000000000,  0.11596679687500000000000,  -0.02502441406250000000000,  0.04101562500000000000000,  0.23071289062500000000000,  -0.00537109375000000000000,  0.12170410156250000000000,  0.21716308593750000000000,  0.16699218750000000000000,  -0.23962402343750000000000,  -0.22180175781250000000000,  0.01550292968750000000000,  -0.06677246093750000000000,  -0.11853027343750000000000,  -0.00756835937500000000000,  0.15563964843750000000000,  0.14892578125000000000000,  -0.06359863281250000000000,  0.11755371093750000000000,  0.13037109375000000000000,  0.03234863281250000000000,  -0.06262207031250000000000,  0.14514160156250000000000,  -0.02355957031250000000000,  0.08972167968750000000000,
 -0.16357421875000000000000,  0.02783203125000000000000,  -0.15051269531250000000000,  -0.06909179687500000000000,  0.01452636718750000000000,  -0.26794433593750000000000,  0.14147949218750000000000,  0.07397460937500000000000,  0.10351562500000000000000,  -0.00402832031250000000000,  0.18334960937500000000000,  -0.07080078125000000000000,  -0.19860839843750000000000,  0.01586914062500000000000,  -0.19470214843750000000000,  -0.08496093750000000000000,  -0.03747558593750000000000,  0.28942871093750000000000,  0.08117675781250000000000,  -0.05480957031250000000000,  -0.15136718750000000000000,  -0.21533203125000000000000,  0.05737304687500000000000,  0.04736328125000000000000,  0.04455566406250000000000,  -0.04870605468750000000000,  -0.02380371093750000000000,  -0.18908691406250000000000,  0.01367187500000000000000,  -0.12280273437500000000000,  -0.07324218750000000000000,  0.19714355468750000000000,  0.13586425781250000000000,  -0.12854003906250000000000,  0.01684570312500000000000,  -0.11572265625000000000000,  -0.11706542968750000000000,  0.12304687500000000000000,  -0.06823730468750000000000,  0.00024414062500000000000,  0.01135253906250000000000,  0.01245117187500000000000,  -0.16125488281250000000000,  -0.10620117187500000000000,  0.21057128906250000000000,  0.19531250000000000000000,  -0.00292968750000000000000,  -0.01635742187500000000000,  0.00854492187500000000000,  0.15222167968750000000000,  -0.20251464843750000000000,  -0.08251953125000000000000,  0.18969726562500000000000,  -0.07238769531250000000000,  0.10473632812500000000000,  -0.01379394531250000000000,  0.11938476562500000000000,  0.21765136718750000000000,  -0.01257324218750000000000,  0.07775878906250000000000,  -0.00585937500000000000000,  -0.27612304687500000000000,  -0.05749511718750000000000,  -0.09265136718750000000000,  -0.13732910156250000000000,  0.09680175781250000000000,  -0.23071289062500000000000,  -0.04821777343750000000000,  0.14941406250000000000000,  0.27246093750000000000000,  0.04992675781250000000000,  -0.06628417968750000000000,  0.07275390625000000000000,  -0.15222167968750000000000,  -0.22998046875000000000000,  0.05615234375000000000000,  0.01367187500000000000000,  0.16564941406250000000000,  0.15270996093750000000000,  0.01110839843750000000000,  -0.02526855468750000000000,  -0.01733398437500000000000,  0.16723632812500000000000,  0.07604980468750000000000,
 -0.20739746093750000000000,  0.13366699218750000000000,  -0.07922363281250000000000,  0.00585937500000000000000,  0.03723144531250000000000,  0.14892578125000000000000,  0.02990722656250000000000,  -0.20129394531250000000000,  -0.13085937500000000000000,  -0.17163085937500000000000,  0.18713378906250000000000,  -0.07690429687500000000000,  0.04394531250000000000000,  -0.01708984375000000000000,  -0.02734375000000000000000,  -0.24804687500000000000000,  -0.09277343750000000000000,  -0.23461914062500000000000,  -0.17541503906250000000000,  -0.09008789062500000000000,  0.03564453125000000000000,  -0.22863769531250000000000,  -0.11071777343750000000000,  -0.25573730468750000000000,  -0.19226074218750000000000,  -0.02746582031250000000000,  -0.14428710937500000000000,  -0.15637207031250000000000,  0.06176757812500000000000,  0.09460449218750000000000,  0.10424804687500000000000,  0.21826171875000000000000,  0.05859375000000000000000,  0.00854492187500000000000,  -0.11096191406250000000000,  0.07128906250000000000000,  0.21508789062500000000000,  -0.28100585937500000000000,  -0.21276855468750000000000,  0.17236328125000000000000,  -0.07177734375000000000000,  0.13476562500000000000000,  -0.11816406250000000000000,  -0.02307128906250000000000,  0.16369628906250000000000,  0.05566406250000000000000,  0.03076171875000000000000,  -0.14050292968750000000000,  0.17309570312500000000000,  0.19750976562500000000000,  0.05493164062500000000000,  0.04418945312500000000000,  -0.00280761718750000000000,  0.04760742187500000000000,  -0.11474609375000000000000,  -0.16833496093750000000000,  0.10766601562500000000000,  -0.15759277343750000000000,  0.06286621093750000000000,  -0.29028320312500000000000,  -0.20410156250000000000000,  0.00964355468750000000000,  0.06933593750000000000000,  -0.17150878906250000000000,  -0.22509765625000000000000,  0.26379394531250000000000,  0.09350585937500000000000,  0.27343750000000000000000,  0.00109863281250000000000,  0.03247070312500000000000,  -0.02563476562500000000000,  -0.01745605468750000000000,  -0.01745605468750000000000,  0.01586914062500000000000,  0.16601562500000000000000,  0.00292968750000000000000,  0.15625000000000000000000,  0.02954101562500000000000,  0.14001464843750000000000,  0.20080566406250000000000,  -0.04577636718750000000000,  0.18994140625000000000000,  -0.02502441406250000000000,  0.04577636718750000000000,
 0.04724121093750000000000,  -0.05578613281250000000000,  0.03369140625000000000000,  -0.10839843750000000000000,  -0.20153808593750000000000,  -0.05957031250000000000000,  0.23803710937500000000000,  0.21276855468750000000000,  0.02111816406250000000000,  -0.12878417968750000000000,  0.21044921875000000000000,  0.14916992187500000000000,  -0.06286621093750000000000,  0.14440917968750000000000,  0.27038574218750000000000,  -0.02075195312500000000000,  0.02795410156250000000000,  -0.02880859375000000000000,  0.15820312500000000000000,  -0.05480957031250000000000,  0.22045898437500000000000,  0.02575683593750000000000,  0.16674804687500000000000,  0.23876953125000000000000,  0.19140625000000000000000,  0.23205566406250000000000,  0.04968261718750000000000,  -0.07873535156250000000000,  -0.06176757812500000000000,  0.08349609375000000000000,  -0.14501953125000000000000,  -0.08935546875000000000000,  -0.09106445312500000000000,  -0.04040527343750000000000,  -0.24353027343750000000000,  -0.01770019531250000000000,  0.04687500000000000000000,  -0.01647949218750000000000,  -0.16088867187500000000000,  0.16027832031250000000000,  0.18347167968750000000000,  0.09631347656250000000000,  -0.08532714843750000000000,  0.21655273437500000000000,  0.15588378906250000000000,  -0.24719238281250000000000,  0.05676269531250000000000,  0.20239257812500000000000,  -0.06591796875000000000000,  -0.08422851562500000000000,  0.13781738281250000000000,  -0.08691406250000000000000,  -0.20837402343750000000000,  -0.18225097656250000000000,  -0.07690429687500000000000,  0.18164062500000000000000,  0.03906250000000000000000,  0.17224121093750000000000,  -0.04003906250000000000000,  -0.03894042968750000000000,  0.08825683593750000000000,  0.06872558593750000000000,  0.07336425781250000000000,  0.01318359375000000000000,  -0.12792968750000000000000,  -0.04260253906250000000000,  0.04455566406250000000000,  -0.22338867187500000000000,  -0.16259765625000000000000,  0.08398437500000000000000,  -0.21984863281250000000000,  0.23095703125000000000000,  0.07922363281250000000000,  -0.18542480468750000000000,  -0.07482910156250000000000,  0.06726074218750000000000,  -0.07495117187500000000000,  0.01000976562500000000000,  0.10095214843750000000000,  0.02368164062500000000000,  0.00097656250000000000000,  0.18408203125000000000000,  0.01000976562500000000000,  0.18188476562500000000000,
 -0.23010253906250000000000,  -0.04284667968750000000000,  0.07165527343750000000000,  -0.26025390625000000000000,  -0.17187500000000000000000,  -0.00585937500000000000000,  0.04309082031250000000000,  0.26794433593750000000000,  0.20214843750000000000000,  0.04345703125000000000000,  0.22009277343750000000000,  0.08239746093750000000000,  -0.08459472656250000000000,  -0.20056152343750000000000,  0.08996582031250000000000,  -0.13000488281250000000000,  0.22375488281250000000000,  0.00000000000000000000000,  -0.15209960937500000000000,  -0.13574218750000000000000,  -0.10021972656250000000000,  -0.05444335937500000000000,  0.04833984375000000000000,  0.07910156250000000000000,  -0.26977539062500000000000,  0.06115722656250000000000,  0.11145019531250000000000,  0.02392578125000000000000,  -0.22412109375000000000000,  0.03198242187500000000000,  -0.02282714843750000000000,  0.01062011718750000000000,  -0.15039062500000000000000,  -0.13415527343750000000000,  0.01586914062500000000000,  0.12866210937500000000000,  -0.28149414062500000000000,  -0.12365722656250000000000,  -0.17749023437500000000000,  -0.02917480468750000000000,  0.05249023437500000000000,  0.00048828125000000000000,  -0.20788574218750000000000,  0.02905273437500000000000,  -0.07910156250000000000000,  0.21166992187500000000000,  0.04980468750000000000000,  0.15112304687500000000000,  0.03808593750000000000000,  0.01623535156250000000000,  -0.07507324218750000000000,  -0.29382324218750000000000,  0.06298828125000000000000,  0.04199218750000000000000,  0.09497070312500000000000,  0.30908203125000000000000,  -0.11059570312500000000000,  -0.02539062500000000000000,  0.23681640625000000000000,  -0.13732910156250000000000,  -0.12451171875000000000000,  -0.22631835937500000000000,  0.16796875000000000000000,  -0.00939941406250000000000,  -0.01818847656250000000000,  -0.09265136718750000000000,  -0.04797363281250000000000,  0.22814941406250000000000,  0.16857910156250000000000,  0.03198242187500000000000,  -0.06811523437500000000000,  0.04919433593750000000000,  0.06359863281250000000000,  0.18725585937500000000000,  -0.13208007812500000000000,  -0.01098632812500000000000,  0.09020996093750000000000,  0.12951660156250000000000,  -0.09313964843750000000000,  -0.11816406250000000000000,  -0.01611328125000000000000,  0.06848144531250000000000,  0.12963867187500000000000,  0.10546875000000000000000,
 -0.09484863281250000000000,  -0.12097167968750000000000,  -0.03271484375000000000000,  0.11425781250000000000000,  0.11413574218750000000000,  -0.27246093750000000000000,  0.17651367187500000000000,  -0.07128906250000000000000,  -0.17407226562500000000000,  0.08911132812500000000000,  0.14062500000000000000000,  0.01806640625000000000000,  -0.18237304687500000000000,  0.18041992187500000000000,  0.04260253906250000000000,  0.14904785156250000000000,  0.05749511718750000000000,  0.09338378906250000000000,  -0.00695800781250000000000,  0.00952148437500000000000,  0.06359863281250000000000,  0.02880859375000000000000,  -0.01452636718750000000000,  -0.14660644531250000000000,  0.15808105468750000000000,  0.15905761718750000000000,  -0.18835449218750000000000,  0.13183593750000000000000,  0.02246093750000000000000,  0.09436035156250000000000,  0.16540527343750000000000,  -0.02465820312500000000000,  0.08996582031250000000000,  0.09936523437500000000000,  0.07690429687500000000000,  0.00805664062500000000000,  -0.00976562500000000000000,  -0.09753417968750000000000,  0.08691406250000000000000,  0.07202148437500000000000,  0.13562011718750000000000,  0.07946777343750000000000,  -0.00927734375000000000000,  -0.02233886718750000000000,  -0.02709960937500000000000,  0.02526855468750000000000,  0.05187988281250000000000,  -0.10070800781250000000000,  0.07067871093750000000000,  -0.09667968750000000000000,  -0.21875000000000000000000,  -0.07556152343750000000000,  -0.02221679687500000000000,  0.05432128906250000000000,  -0.18688964843750000000000,  0.04248046875000000000000,  0.10107421875000000000000,  -0.17883300781250000000000,  -0.19763183593750000000000,  -0.14746093750000000000000,  -0.00329589843750000000000,  0.09777832031250000000000,  -0.11950683593750000000000,  0.03283691406250000000000,  0.03393554687500000000000,  0.06628417968750000000000,  -0.15258789062500000000000,  0.11206054687500000000000,  -0.07336425781250000000000,  -0.06311035156250000000000,  0.08068847656250000000000,  -0.10546875000000000000000,  0.20019531250000000000000,  -0.25439453125000000000000,  0.06091308593750000000000,  -0.06201171875000000000000,  0.00195312500000000000000,  -0.21557617187500000000000,  0.08422851562500000000000,  -0.05957031250000000000000,  0.02673339843750000000000,  -0.00109863281250000000000,  -0.09692382812500000000000,  0.18688964843750000000000,
 0.12719726562500000000000,  0.17126464843750000000000,  -0.18151855468750000000000,  -0.14062500000000000000000,  0.25988769531250000000000,  0.21166992187500000000000,  0.07263183593750000000000,  0.08447265625000000000000,  0.03857421875000000000000,  0.20727539062500000000000,  -0.22717285156250000000000,  0.03234863281250000000000,  0.04589843750000000000000,  0.17395019531250000000000,  0.09497070312500000000000,  -0.19531250000000000000000,  0.03662109375000000000000,  0.05322265625000000000000,  0.25622558593750000000000,  -0.08850097656250000000000,  0.01904296875000000000000,  0.10729980468750000000000,  -0.09350585937500000000000,  -0.18237304687500000000000,  -0.03247070312500000000000,  0.17846679687500000000000,  -0.20019531250000000000000,  0.18505859375000000000000,  -0.14428710937500000000000,  0.02136230468750000000000,  -0.02526855468750000000000,  0.11633300781250000000000,  0.15783691406250000000000,  0.23168945312500000000000,  0.09057617187500000000000,  -0.18334960937500000000000,  -0.09863281250000000000000,  0.01025390625000000000000,  0.02990722656250000000000,  -0.15173339843750000000000,  -0.18542480468750000000000,  -0.14685058593750000000000,  -0.02941894531250000000000,  0.03967285156250000000000,  -0.15112304687500000000000,  0.03344726562500000000000,  -0.08605957031250000000000,  -0.02844238281250000000000,  -0.21716308593750000000000,  -0.12658691406250000000000,  0.07641601562500000000000,  0.25891113281250000000000,  -0.07604980468750000000000,  0.20703125000000000000000,  0.08740234375000000000000,  0.19055175781250000000000,  -0.08276367187500000000000,  -0.18432617187500000000000,  -0.00964355468750000000000,  0.31701660156250000000000,  0.25378417968750000000000,  0.16870117187500000000000,  0.02185058593750000000000,  0.25109863281250000000000,  0.02917480468750000000000,  -0.11975097656250000000000,  0.29968261718750000000000,  -0.13073730468750000000000,  -0.00964355468750000000000,  0.08349609375000000000000,  0.15527343750000000000000,  0.13476562500000000000000,  -0.22265625000000000000000,  0.04052734375000000000000,  -0.04626464843750000000000,  -0.01257324218750000000000,  0.07495117187500000000000,  0.01770019531250000000000,  0.14282226562500000000000,  0.12329101562500000000000,  -0.12304687500000000000000,  0.18713378906250000000000,  0.10119628906250000000000,  -0.26708984375000000000000,
 -0.16308593750000000000000,  0.06933593750000000000000,  0.12292480468750000000000,  -0.00610351562500000000000,  0.03271484375000000000000,  0.08215332031250000000000,  -0.11889648437500000000000,  0.10778808593750000000000,  0.11364746093750000000000,  -0.08654785156250000000000,  0.04113769531250000000000,  0.02380371093750000000000,  -0.11376953125000000000000,  0.26281738281250000000000,  0.03137207031250000000000,  -0.04870605468750000000000,  -0.08984375000000000000000,  -0.01806640625000000000000,  0.00805664062500000000000,  -0.01232910156250000000000,  0.06909179687500000000000,  -0.28112792968750000000000,  -0.16516113281250000000000,  -0.08215332031250000000000,  -0.15112304687500000000000,  0.08703613281250000000000,  -0.00488281250000000000000,  0.09179687500000000000000,  -0.18457031250000000000000,  -0.09130859375000000000000,  0.06323242187500000000000,  0.02624511718750000000000,  0.14050292968750000000000,  -0.17041015625000000000000,  0.01599121093750000000000,  0.21008300781250000000000,  -0.07519531250000000000000,  -0.02575683593750000000000,  0.04516601562500000000000,  0.13842773437500000000000,  0.06225585937500000000000,  -0.00878906250000000000000,  0.02050781250000000000000,  -0.03271484375000000000000,  -0.01989746093750000000000,  -0.24414062500000000000000,  0.00732421875000000000000,  0.04724121093750000000000,  0.18005371093750000000000,  -0.01208496093750000000000,  -0.13024902343750000000000,  0.24145507812500000000000,  -0.01806640625000000000000,  -0.10668945312500000000000,  0.20654296875000000000000,  0.29296875000000000000000,  -0.15905761718750000000000,  -0.04614257812500000000000,  -0.16564941406250000000000,  -0.16650390625000000000000,  0.03735351562500000000000,  0.11767578125000000000000,  0.14880371093750000000000,  -0.09143066406250000000000,  0.09716796875000000000000,  0.26098632812500000000000,  -0.11743164062500000000000,  -0.05847167968750000000000,  0.23449707031250000000000,  0.02185058593750000000000,  -0.05847167968750000000000,  -0.08227539062500000000000,  -0.06884765625000000000000,  0.08532714843750000000000,  -0.09985351562500000000000,  0.08215332031250000000000,  0.04492187500000000000000,  0.00268554687500000000000,  -0.07482910156250000000000,  0.09436035156250000000000,  0.11145019531250000000000,  0.01489257812500000000000,  0.08264160156250000000000,  0.17224121093750000000000,
 -0.09448242187500000000000,  0.05651855468750000000000,  0.22229003906250000000000,  0.00427246093750000000000,  0.09228515625000000000000,  0.14868164062500000000000,  0.00683593750000000000000,  0.00354003906250000000000,  -0.16455078125000000000000,  -0.00927734375000000000000,  -0.11804199218750000000000,  -0.11743164062500000000000,  -0.16162109375000000000000,  -0.10852050781250000000000,  0.02600097656250000000000,  0.18737792968750000000000,  -0.08728027343750000000000,  -0.08911132812500000000000,  0.13513183593750000000000,  0.11682128906250000000000,  0.13073730468750000000000,  0.04443359375000000000000,  0.02648925781250000000000,  0.00329589843750000000000,  0.01550292968750000000000,  0.19970703125000000000000,  -0.07214355468750000000000,  -0.09411621093750000000000,  -0.15795898437500000000000,  -0.03442382812500000000000,  -0.00695800781250000000000,  0.18566894531250000000000,  -0.08349609375000000000000,  -0.22741699218750000000000,  -0.02941894531250000000000,  0.26623535156250000000000,  0.05566406250000000000000,  0.17016601562500000000000,  0.06652832031250000000000,  -0.09143066406250000000000,  0.04138183593750000000000,  0.27416992187500000000000,  0.07153320312500000000000,  0.02160644531250000000000,  -0.09655761718750000000000,  0.07043457031250000000000,  0.10021972656250000000000,  -0.26928710937500000000000,  -0.17883300781250000000000,  -0.03332519531250000000000,  0.06469726562500000000000,  -0.00781250000000000000000,  -0.11340332031250000000000,  0.02539062500000000000000,  0.16516113281250000000000,  -0.18579101562500000000000,  0.06237792968750000000000,  -0.17822265625000000000000,  0.13964843750000000000000,  0.03271484375000000000000,  0.09289550781250000000000,  0.10766601562500000000000,  -0.01513671875000000000000,  0.12097167968750000000000,  0.19091796875000000000000,  -0.15405273437500000000000,  -0.02600097656250000000000,  0.20300292968750000000000,  0.12622070312500000000000,  -0.00244140625000000000000,  0.04785156250000000000000,  0.04602050781250000000000,  -0.25659179687500000000000,  -0.21557617187500000000000,  -0.06042480468750000000000,  0.05895996093750000000000,  -0.06555175781250000000000,  0.01586914062500000000000,  -0.05761718750000000000000,  -0.08703613281250000000000,  0.12927246093750000000000,  -0.21520996093750000000000,  0.14025878906250000000000,  0.11059570312500000000000,
 0.13598632812500000000000,  -0.00134277343750000000000,  -0.00012207031250000000000,  0.10778808593750000000000,  -0.07678222656250000000000,  0.06140136718750000000000,  0.11999511718750000000000,  0.20056152343750000000000,  0.20471191406250000000000,  0.03857421875000000000000,  -0.05859375000000000000000,  0.11865234375000000000000,  -0.11462402343750000000000,  -0.17248535156250000000000,  -0.08715820312500000000000,  0.00195312500000000000000,  -0.07421875000000000000000,  -0.20690917968750000000000,  0.26867675781250000000000,  0.15759277343750000000000,  0.14648437500000000000000,  -0.00585937500000000000000,  0.00280761718750000000000,  -0.04309082031250000000000,  -0.21667480468750000000000,  -0.02526855468750000000000,  0.05688476562500000000000,  0.00659179687500000000000,  0.28283691406250000000000,  -0.17871093750000000000000,  -0.03442382812500000000000,  0.01818847656250000000000,  0.22546386718750000000000,  -0.08496093750000000000000,  -0.10290527343750000000000,  0.13208007812500000000000,  -0.29028320312500000000000,  -0.07702636718750000000000,  0.23522949218750000000000,  -0.20190429687500000000000,  0.12231445312500000000000,  0.08740234375000000000000,  0.10168457031250000000000,  0.17590332031250000000000,  -0.23010253906250000000000,  -0.03149414062500000000000,  -0.05090332031250000000000,  -0.00109863281250000000000,  -0.10205078125000000000000,  0.14135742187500000000000,  -0.21008300781250000000000,  -0.11376953125000000000000,  0.09863281250000000000000,  0.26794433593750000000000,  -0.11035156250000000000000,  0.18237304687500000000000,  0.04028320312500000000000,  -0.12988281250000000000000,  -0.13500976562500000000000,  0.19433593750000000000000,  0.21276855468750000000000,  0.05236816406250000000000,  0.14062500000000000000000,  0.06738281250000000000000,  0.01232910156250000000000,  -0.18603515625000000000000,  0.22094726562500000000000,  -0.16809082031250000000000,  0.28784179687500000000000,  -0.26318359375000000000000,  0.02832031250000000000000,  -0.07763671875000000000000,  0.02404785156250000000000,  -0.05578613281250000000000,  0.05615234375000000000000,  -0.15869140625000000000000,  0.14294433593750000000000,  0.10266113281250000000000,  0.00976562500000000000000,  0.05578613281250000000000,  -0.12866210937500000000000,  0.05810546875000000000000,  -0.18688964843750000000000,  -0.09973144531250000000000,
 0.15954589843750000000000,  -0.04675292968750000000000,  -0.21215820312500000000000,  -0.08398437500000000000000,  -0.07568359375000000000000,  -0.11865234375000000000000,  -0.05761718750000000000000,  0.10522460937500000000000,  0.22949218750000000000000,  0.09143066406250000000000,  -0.08959960937500000000000,  -0.18041992187500000000000,  -0.03759765625000000000000,  0.21569824218750000000000,  -0.20495605468750000000000,  0.02026367187500000000000,  -0.19409179687500000000000,  0.01318359375000000000000,  -0.07055664062500000000000,  0.01782226562500000000000,  0.09655761718750000000000,  0.15319824218750000000000,  0.06994628906250000000000,  0.10009765625000000000000,  -0.11730957031250000000000,  -0.22363281250000000000000,  -0.05554199218750000000000,  0.12854003906250000000000,  -0.08044433593750000000000,  -0.05554199218750000000000,  0.06591796875000000000000,  0.09094238281250000000000,  -0.01306152343750000000000,  -0.19531250000000000000000,  0.07263183593750000000000,  -0.01513671875000000000000,  0.11401367187500000000000,  -0.08410644531250000000000,  -0.06884765625000000000000,  -0.09326171875000000000000,  -0.13012695312500000000000,  -0.11499023437500000000000,  0.00512695312500000000000,  0.17211914062500000000000,  -0.22167968750000000000000,  0.12951660156250000000000,  0.28979492187500000000000,  -0.00488281250000000000000,  0.09252929687500000000000,  -0.06530761718750000000000,  -0.18859863281250000000000,  -0.03735351562500000000000,  0.07861328125000000000000,  -0.11254882812500000000000,  0.00244140625000000000000,  0.06396484375000000000000,  -0.11401367187500000000000,  0.12060546875000000000000,  -0.06970214843750000000000,  0.10937500000000000000000,  -0.01318359375000000000000,  -0.23608398437500000000000,  -0.00073242187500000000000,  -0.07849121093750000000000,  -0.13293457031250000000000,  0.01049804687500000000000,  -0.12988281250000000000000,  0.09667968750000000000000,  0.06311035156250000000000,  -0.19567871093750000000000,  -0.06433105468750000000000,  -0.18225097656250000000000,  0.22204589843750000000000,  -0.06665039062500000000000,  0.02807617187500000000000,  -0.15014648437500000000000,  0.22998046875000000000000,  0.15625000000000000000000,  0.04284667968750000000000,  0.02636718750000000000000,  -0.17504882812500000000000,  0.19165039062500000000000,  0.04833984375000000000000,  0.10388183593750000000000,
 -0.02709960937500000000000,  0.18908691406250000000000,  -0.07263183593750000000000,  -0.03149414062500000000000,  -0.08056640625000000000000,  -0.17236328125000000000000,  -0.14233398437500000000000,  -0.09606933593750000000000,  0.18615722656250000000000,  0.10974121093750000000000,  -0.11474609375000000000000,  -0.00842285156250000000000,  0.10437011718750000000000,  0.21923828125000000000000,  -0.21472167968750000000000,  -0.17810058593750000000000,  -0.06884765625000000000000,  0.18725585937500000000000,  -0.09118652343750000000000,  -0.24584960937500000000000,  -0.04565429687500000000000,  0.10766601562500000000000,  -0.05493164062500000000000,  0.02575683593750000000000,  -0.27941894531250000000000,  -0.24279785156250000000000,  -0.10729980468750000000000,  0.15917968750000000000000,  -0.06652832031250000000000,  0.04492187500000000000000,  -0.01574707031250000000000,  -0.13171386718750000000000,  -0.15441894531250000000000,  0.21301269531250000000000,  -0.27648925781250000000000,  0.07531738281250000000000,  0.04455566406250000000000,  -0.27832031250000000000000,  -0.00268554687500000000000,  0.01989746093750000000000,  0.13464355468750000000000,  0.12158203125000000000000,  -0.27551269531250000000000,  0.05224609375000000000000,  -0.19726562500000000000000,  -0.05981445312500000000000,  0.02026367187500000000000,  -0.23669433593750000000000,  -0.02160644531250000000000,  -0.01330566406250000000000,  0.11511230468750000000000,  0.04858398437500000000000,  -0.27062988281250000000000,  0.06066894531250000000000,  -0.12011718750000000000000,  -0.13537597656250000000000,  0.00341796875000000000000,  0.17333984375000000000000,  -0.05090332031250000000000,  0.04003906250000000000000,  -0.26013183593750000000000,  0.23352050781250000000000,  0.10864257812500000000000,  0.03588867187500000000000,  0.04846191406250000000000,  0.09350585937500000000000,  -0.00708007812500000000000,  0.03918457031250000000000,  0.09985351562500000000000,  0.16735839843750000000000,  -0.11572265625000000000000,  -0.14855957031250000000000,  0.10009765625000000000000,  -0.03271484375000000000000,  0.18127441406250000000000,  -0.01037597656250000000000,  -0.30017089843750000000000,  -0.14501953125000000000000,  -0.08642578125000000000000,  -0.04162597656250000000000,  0.09912109375000000000000,  -0.06140136718750000000000,  0.17810058593750000000000,  0.17858886718750000000000,
