/*
<Lenet Neural Network High Level Synthesis Lenet>

MIT License

Copyright (c) 2020 Filipe Maciel Lins

Permission is hereby granted, free of charge, to any person obtaining a copy of this software
and associated documentation files (the "Software"), to deal in the Software without restriction,
including without limitation the rights to use, copy, modify, merge, publish, distribute, sublicense,
and/or sell copies of the Software, and to permit persons to whom the Software is furnished to do so,
subject to the following conditions: The above copyright notice and this permission notice shall be
included in all copies or substantial portions of the Software.

THE SOFTWARE IS PROVIDED "AS IS", WITHOUT WARRANTY OF ANY KIND, EXPRESS OR IMPLIED,INCLUDING
BUT NOT LIMITED TO THE WARRANTIES OF MERCHANTABILITY,FITNESS FOR A PARTICULAR PURPOSE AND
NONINFRINGEMENT. IN NO EVENT SHALL THE AUTHORS OR COPYRIGHT HOLDERS BE LIABLE FOR ANY CLAIM,
DAMAGES OR OTHER LIABILITY, WHETHER IN AN ACTION OF CONTRACT, TORT OR OTHERWISE, ARISING FROM,
OUT OF OR IN CONNECTION WITH THE SOFTWARE OR THE USE OR OTHER DEALINGS IN THE SOFTWARE.
*/

#ifndef WEIGHTS_FC3_H
#define WEIGHTS_FC3_H
#include "ap_fixed.h" 
#include "defines.h" 
float24_t fc3_layer_bias[10] = { 0.00000000000000000000000,  0.01562500000000000000000,  0.00000000000000000000000,  -0.00781250000000000000000,  0.00000000000000000000000,  0.01562500000000000000000,  -0.00781250000000000000000,  0.00000000000000000000000,  -0.00781250000000000000000,  0.00781250000000000000000};
float24_t fc3_layer_weights[84][10] = { -0.16113281250000000000000,  -0.24938964843750000000000,  -0.14941406250000000000000,  0.01977539062500000000000,  0.03247070312500000000000,  -0.06652832031250000000000,  -0.35229492187500000000000,  -0.07299804687500000000000,  -0.15881347656250000000000,  -0.06298828125000000000000,
 -0.07360839843750000000000,  -0.02001953125000000000000,  -0.33789062500000000000000,  0.11865234375000000000000,  -0.23278808593750000000000,  0.05725097656250000000000,  -0.11437988281250000000000,  -0.19299316406250000000000,  -0.23571777343750000000000,  0.36059570312500000000000,
 -0.13586425781250000000000,  0.11462402343750000000000,  -0.08105468750000000000000,  0.13256835937500000000000,  -0.07434082031250000000000,  0.29675292968750000000000,  -0.11987304687500000000000,  -0.14843750000000000000000,  -0.01831054687500000000000,  -0.13659667968750000000000,
 -0.22180175781250000000000,  -0.11242675781250000000000,  0.19750976562500000000000,  -0.18603515625000000000000,  0.24536132812500000000000,  -0.32214355468750000000000,  -0.03259277343750000000000,  -0.17993164062500000000000,  -0.21606445312500000000000,  0.32189941406250000000000,
 0.15478515625000000000000,  0.25488281250000000000000,  -0.22058105468750000000000,  0.00720214843750000000000,  0.07006835937500000000000,  0.25720214843750000000000,  0.08154296875000000000000,  -0.20947265625000000000000,  0.04211425781250000000000,  -0.27343750000000000000000,
 0.11547851562500000000000,  -0.08679199218750000000000,  0.02001953125000000000000,  -0.15417480468750000000000,  0.00964355468750000000000,  -0.01464843750000000000000,  -0.13098144531250000000000,  0.02844238281250000000000,  0.27746582031250000000000,  -0.07226562500000000000000,
 -0.12915039062500000000000,  -0.01855468750000000000000,  0.07226562500000000000000,  0.22949218750000000000000,  0.14892578125000000000000,  -0.29736328125000000000000,  -0.17541503906250000000000,  0.27075195312500000000000,  -0.12072753906250000000000,  -0.16796875000000000000000,
 0.19592285156250000000000,  -0.14562988281250000000000,  0.11975097656250000000000,  -0.03283691406250000000000,  -0.17944335937500000000000,  -0.24645996093750000000000,  0.29699707031250000000000,  0.00756835937500000000000,  0.08215332031250000000000,  -0.18408203125000000000000,
 -0.22998046875000000000000,  0.08923339843750000000000,  0.12255859375000000000000,  0.27136230468750000000000,  0.13061523437500000000000,  0.24633789062500000000000,  0.03552246093750000000000,  -0.03088378906250000000000,  0.37597656250000000000000,  0.27709960937500000000000,
 0.09057617187500000000000,  0.04553222656250000000000,  0.02221679687500000000000,  0.15393066406250000000000,  0.08032226562500000000000,  0.01611328125000000000000,  0.23669433593750000000000,  -0.18615722656250000000000,  0.22314453125000000000000,  -0.23095703125000000000000,
 0.00195312500000000000000,  -0.29504394531250000000000,  0.17858886718750000000000,  -0.10986328125000000000000,  -0.17663574218750000000000,  -0.20202636718750000000000,  -0.21936035156250000000000,  0.22424316406250000000000,  0.04748535156250000000000,  0.00048828125000000000000,
 -0.16528320312500000000000,  -0.24462890625000000000000,  0.33398437500000000000000,  0.11499023437500000000000,  0.14904785156250000000000,  -0.06640625000000000000000,  0.08398437500000000000000,  -0.11389160156250000000000,  -0.27941894531250000000000,  -0.17785644531250000000000,
 -0.19763183593750000000000,  0.27099609375000000000000,  -0.21411132812500000000000,  -0.10192871093750000000000,  0.00488281250000000000000,  -0.23315429687500000000000,  0.01831054687500000000000,  0.12341308593750000000000,  -0.34020996093750000000000,  0.09655761718750000000000,
 -0.32592773437500000000000,  -0.10266113281250000000000,  -0.34777832031250000000000,  0.15490722656250000000000,  0.10217285156250000000000,  0.11608886718750000000000,  0.01879882812500000000000,  -0.06457519531250000000000,  -0.00585937500000000000000,  -0.22570800781250000000000,
 0.23718261718750000000000,  0.16784667968750000000000,  0.13806152343750000000000,  -0.20556640625000000000000,  0.06420898437500000000000,  -0.15051269531250000000000,  -0.11437988281250000000000,  0.15197753906250000000000,  -0.08044433593750000000000,  -0.04797363281250000000000,
 -0.00488281250000000000000,  0.06713867187500000000000,  -0.01831054687500000000000,  0.05920410156250000000000,  0.00354003906250000000000,  0.05957031250000000000000,  0.26525878906250000000000,  0.01354980468750000000000,  -0.03039550781250000000000,  -0.21789550781250000000000,
 0.13854980468750000000000,  0.07690429687500000000000,  0.29125976562500000000000,  -0.17871093750000000000000,  -0.12915039062500000000000,  0.09680175781250000000000,  0.20776367187500000000000,  -0.11828613281250000000000,  -0.05651855468750000000000,  0.01489257812500000000000,
 -0.29870605468750000000000,  -0.06237792968750000000000,  0.03344726562500000000000,  0.32971191406250000000000,  0.25183105468750000000000,  0.11010742187500000000000,  0.17602539062500000000000,  0.03796386718750000000000,  -0.09387207031250000000000,  0.33764648437500000000000,
 -0.22192382812500000000000,  -0.28063964843750000000000,  -0.15295410156250000000000,  0.34094238281250000000000,  -0.23205566406250000000000,  -0.15039062500000000000000,  -0.01501464843750000000000,  -0.17041015625000000000000,  -0.17285156250000000000000,  0.08251953125000000000000,
 -0.18371582031250000000000,  -0.08801269531250000000000,  -0.16638183593750000000000,  -0.01147460937500000000000,  -0.37854003906250000000000,  0.03991699218750000000000,  0.04589843750000000000000,  0.34436035156250000000000,  0.18737792968750000000000,  0.26831054687500000000000,
 0.02758789062500000000000,  0.26550292968750000000000,  0.06445312500000000000000,  0.20703125000000000000000,  -0.03063964843750000000000,  -0.10498046875000000000000,  0.03662109375000000000000,  0.03869628906250000000000,  0.01281738281250000000000,  0.31250000000000000000000,
 0.03112792968750000000000,  0.36730957031250000000000,  0.36840820312500000000000,  0.26757812500000000000000,  0.21777343750000000000000,  -0.35839843750000000000000,  0.17480468750000000000000,  0.30554199218750000000000,  -0.13183593750000000000000,  -0.29309082031250000000000,
 0.03076171875000000000000,  0.13903808593750000000000,  -0.30297851562500000000000,  -0.02355957031250000000000,  -0.29614257812500000000000,  0.11096191406250000000000,  0.02343750000000000000000,  -0.13928222656250000000000,  -0.17065429687500000000000,  0.11499023437500000000000,
 0.32995605468750000000000,  -0.33117675781250000000000,  0.12573242187500000000000,  -0.03063964843750000000000,  -0.13061523437500000000000,  -0.12341308593750000000000,  -0.17480468750000000000000,  0.20092773437500000000000,  -0.16247558593750000000000,  -0.25488281250000000000000,
 -0.10327148437500000000000,  -0.07287597656250000000000,  -0.05773925781250000000000,  0.06640625000000000000000,  0.02185058593750000000000,  -0.01110839843750000000000,  -0.22045898437500000000000,  -0.29394531250000000000000,  -0.32189941406250000000000,  0.11694335937500000000000,
 0.11389160156250000000000,  0.14074707031250000000000,  0.28295898437500000000000,  -0.27307128906250000000000,  -0.13488769531250000000000,  -0.19372558593750000000000,  -0.14392089843750000000000,  0.11181640625000000000000,  0.01513671875000000000000,  -0.02392578125000000000000,
 0.20263671875000000000000,  -0.05456542968750000000000,  0.06152343750000000000000,  -0.09741210937500000000000,  -0.34008789062500000000000,  -0.00695800781250000000000,  0.04296875000000000000000,  -0.32678222656250000000000,  -0.09118652343750000000000,  -0.25268554687500000000000,
 0.23730468750000000000000,  0.06164550781250000000000,  -0.13598632812500000000000,  -0.03674316406250000000000,  0.06530761718750000000000,  0.20568847656250000000000,  -0.23071289062500000000000,  -0.02832031250000000000000,  0.11791992187500000000000,  0.02233886718750000000000,
 0.24353027343750000000000,  0.11254882812500000000000,  0.00280761718750000000000,  0.15014648437500000000000,  -0.02258300781250000000000,  0.13671875000000000000000,  -0.05944824218750000000000,  0.25476074218750000000000,  0.26550292968750000000000,  0.10766601562500000000000,
 -0.09277343750000000000000,  0.03125000000000000000000,  -0.08874511718750000000000,  -0.14147949218750000000000,  -0.04248046875000000000000,  0.08618164062500000000000,  0.09387207031250000000000,  0.37133789062500000000000,  -0.34301757812500000000000,  -0.20056152343750000000000,
 -0.01184082031250000000000,  0.18078613281250000000000,  -0.07360839843750000000000,  0.01806640625000000000000,  -0.13671875000000000000000,  0.13134765625000000000000,  0.03454589843750000000000,  -0.01037597656250000000000,  0.25537109375000000000000,  -0.10925292968750000000000,
 0.12011718750000000000000,  -0.09204101562500000000000,  -0.03027343750000000000000,  0.28063964843750000000000,  -0.18725585937500000000000,  0.19848632812500000000000,  0.26721191406250000000000,  0.17077636718750000000000,  -0.30041503906250000000000,  -0.00244140625000000000000,
 0.23364257812500000000000,  -0.07568359375000000000000,  -0.03466796875000000000000,  -0.30126953125000000000000,  -0.03527832031250000000000,  0.33886718750000000000000,  -0.00451660156250000000000,  0.04394531250000000000000,  -0.02868652343750000000000,  0.20495605468750000000000,
 -0.08312988281250000000000,  0.14892578125000000000000,  -0.12084960937500000000000,  0.29602050781250000000000,  0.19653320312500000000000,  -0.07971191406250000000000,  0.12060546875000000000000,  0.13012695312500000000000,  0.10852050781250000000000,  -0.12524414062500000000000,
 0.18151855468750000000000,  -0.08264160156250000000000,  -0.09948730468750000000000,  -0.10876464843750000000000,  -0.22692871093750000000000,  -0.32873535156250000000000,  0.35717773437500000000000,  -0.03393554687500000000000,  0.12255859375000000000000,  -0.10314941406250000000000,
 0.10693359375000000000000,  0.21472167968750000000000,  -0.23889160156250000000000,  -0.37060546875000000000000,  -0.04370117187500000000000,  0.03552246093750000000000,  -0.01782226562500000000000,  -0.26770019531250000000000,  -0.03906250000000000000000,  0.00122070312500000000000,
 0.08959960937500000000000,  0.00219726562500000000000,  -0.00769042968750000000000,  -0.12438964843750000000000,  -0.06164550781250000000000,  -0.11279296875000000000000,  0.11486816406250000000000,  -0.16687011718750000000000,  -0.06298828125000000000000,  -0.14477539062500000000000,
 0.15112304687500000000000,  0.10327148437500000000000,  0.01354980468750000000000,  -0.16467285156250000000000,  -0.25585937500000000000000,  -0.23437500000000000000000,  0.13562011718750000000000,  -0.16003417968750000000000,  -0.06127929687500000000000,  0.08898925781250000000000,
 0.29602050781250000000000,  0.14233398437500000000000,  -0.06018066406250000000000,  0.16125488281250000000000,  0.00598144531250000000000,  0.10034179687500000000000,  0.18261718750000000000000,  -0.19714355468750000000000,  0.12121582031250000000000,  -0.11596679687500000000000,
 0.06750488281250000000000,  0.32885742187500000000000,  -0.16821289062500000000000,  -0.23510742187500000000000,  0.02392578125000000000000,  0.13122558593750000000000,  0.10998535156250000000000,  -0.05737304687500000000000,  0.32373046875000000000000,  0.09655761718750000000000,
 0.05541992187500000000000,  0.22448730468750000000000,  -0.28100585937500000000000,  0.04821777343750000000000,  -0.16003417968750000000000,  -0.06713867187500000000000,  0.27990722656250000000000,  -0.07885742187500000000000,  0.07263183593750000000000,  -0.01940917968750000000000,
 -0.08081054687500000000000,  -0.24377441406250000000000,  -0.07397460937500000000000,  -0.20117187500000000000000,  0.08276367187500000000000,  0.06591796875000000000000,  0.03674316406250000000000,  0.24963378906250000000000,  -0.08312988281250000000000,  0.17382812500000000000000,
 -0.07495117187500000000000,  0.14208984375000000000000,  0.15551757812500000000000,  0.08435058593750000000000,  -0.17956542968750000000000,  0.00891113281250000000000,  -0.26489257812500000000000,  0.01770019531250000000000,  -0.00891113281250000000000,  0.22473144531250000000000,
 0.01550292968750000000000,  0.05993652343750000000000,  0.12719726562500000000000,  -0.27258300781250000000000,  0.07067871093750000000000,  -0.29309082031250000000000,  -0.02246093750000000000000,  -0.02246093750000000000000,  -0.04016113281250000000000,  -0.27502441406250000000000,
 0.06250000000000000000000,  -0.03515625000000000000000,  0.03417968750000000000000,  0.19165039062500000000000,  0.18310546875000000000000,  0.02026367187500000000000,  0.15283203125000000000000,  0.20788574218750000000000,  0.11804199218750000000000,  -0.18286132812500000000000,
 0.27099609375000000000000,  0.26220703125000000000000,  0.22570800781250000000000,  0.15258789062500000000000,  -0.24584960937500000000000,  -0.11083984375000000000000,  0.17663574218750000000000,  -0.23327636718750000000000,  -0.21667480468750000000000,  -0.03881835937500000000000,
 0.15808105468750000000000,  0.11987304687500000000000,  -0.16589355468750000000000,  -0.19335937500000000000000,  0.23937988281250000000000,  0.06506347656250000000000,  0.09667968750000000000000,  -0.21911621093750000000000,  0.34436035156250000000000,  -0.04370117187500000000000,
 -0.13879394531250000000000,  0.15014648437500000000000,  0.08679199218750000000000,  0.05297851562500000000000,  -0.01123046875000000000000,  -0.02185058593750000000000,  0.01953125000000000000000,  -0.19299316406250000000000,  0.14526367187500000000000,  -0.05822753906250000000000,
 -0.20239257812500000000000,  0.02966308593750000000000,  0.23632812500000000000000,  -0.13732910156250000000000,  0.38000488281250000000000,  0.13586425781250000000000,  -0.02185058593750000000000,  0.19445800781250000000000,  -0.14135742187500000000000,  -0.02160644531250000000000,
 0.21057128906250000000000,  0.13977050781250000000000,  -0.23107910156250000000000,  -0.10522460937500000000000,  -0.12194824218750000000000,  0.14831542968750000000000,  0.15832519531250000000000,  -0.14758300781250000000000,  -0.01660156250000000000000,  -0.00842285156250000000000,
 0.17248535156250000000000,  0.00854492187500000000000,  -0.25769042968750000000000,  -0.12158203125000000000000,  -0.01733398437500000000000,  0.23120117187500000000000,  0.12866210937500000000000,  0.03442382812500000000000,  -0.00036621093750000000000,  -0.08850097656250000000000,
 -0.10876464843750000000000,  0.19653320312500000000000,  0.20825195312500000000000,  0.13659667968750000000000,  -0.06323242187500000000000,  -0.02587890625000000000000,  0.07080078125000000000000,  0.11938476562500000000000,  0.15710449218750000000000,  -0.01660156250000000000000,
 -0.23229980468750000000000,  -0.07250976562500000000000,  0.07031250000000000000000,  -0.08190917968750000000000,  -0.20080566406250000000000,  0.00927734375000000000000,  0.00366210937500000000000,  0.15026855468750000000000,  0.08996582031250000000000,  0.36633300781250000000000,
 0.05627441406250000000000,  -0.28100585937500000000000,  0.12670898437500000000000,  -0.10473632812500000000000,  -0.04541015625000000000000,  0.12780761718750000000000,  0.13964843750000000000000,  -0.23596191406250000000000,  0.19018554687500000000000,  -0.23962402343750000000000,
 0.04821777343750000000000,  0.02734375000000000000000,  -0.17517089843750000000000,  0.18127441406250000000000,  0.08459472656250000000000,  -0.16076660156250000000000,  0.05017089843750000000000,  -0.06921386718750000000000,  0.02868652343750000000000,  0.08935546875000000000000,
 -0.08825683593750000000000,  -0.03564453125000000000000,  -0.01501464843750000000000,  -0.25451660156250000000000,  0.12353515625000000000000,  -0.06823730468750000000000,  0.00573730468750000000000,  -0.00122070312500000000000,  -0.00573730468750000000000,  -0.23571777343750000000000,
 0.11145019531250000000000,  0.11352539062500000000000,  -0.07849121093750000000000,  0.00756835937500000000000,  0.18518066406250000000000,  0.06127929687500000000000,  0.25170898437500000000000,  -0.17407226562500000000000,  0.11889648437500000000000,  -0.05139160156250000000000,
 -0.02917480468750000000000,  -0.22924804687500000000000,  -0.07299804687500000000000,  0.26721191406250000000000,  0.11108398437500000000000,  -0.23535156250000000000000,  -0.01672363281250000000000,  0.16955566406250000000000,  0.05871582031250000000000,  0.05615234375000000000000,
 -0.21215820312500000000000,  -0.23193359375000000000000,  -0.15039062500000000000000,  -0.21350097656250000000000,  -0.01611328125000000000000,  0.02026367187500000000000,  0.14685058593750000000000,  0.04235839843750000000000,  -0.15283203125000000000000,  0.09204101562500000000000,
 -0.17553710937500000000000,  0.24475097656250000000000,  0.33996582031250000000000,  -0.00292968750000000000000,  -0.24060058593750000000000,  -0.00354003906250000000000,  -0.36560058593750000000000,  -0.11547851562500000000000,  0.12414550781250000000000,  -0.05957031250000000000000,
 0.27050781250000000000000,  -0.23449707031250000000000,  0.01879882812500000000000,  -0.06213378906250000000000,  0.23181152343750000000000,  0.26281738281250000000000,  -0.22521972656250000000000,  0.01721191406250000000000,  -0.07263183593750000000000,  0.01904296875000000000000,
 -0.12670898437500000000000,  -0.01818847656250000000000,  0.12573242187500000000000,  0.03344726562500000000000,  0.06359863281250000000000,  0.13769531250000000000000,  0.01562500000000000000000,  0.16577148437500000000000,  0.12561035156250000000000,  0.19580078125000000000000,
 0.10571289062500000000000,  -0.10437011718750000000000,  -0.29602050781250000000000,  -0.12219238281250000000000,  -0.06286621093750000000000,  0.09545898437500000000000,  0.05126953125000000000000,  -0.01269531250000000000000,  0.00500488281250000000000,  -0.20056152343750000000000,
 -0.17419433593750000000000,  -0.12048339843750000000000,  0.22863769531250000000000,  -0.07019042968750000000000,  -0.13537597656250000000000,  0.05651855468750000000000,  -0.28515625000000000000000,  0.10632324218750000000000,  0.04150390625000000000000,  -0.07177734375000000000000,
 0.26550292968750000000000,  0.23535156250000000000000,  -0.07763671875000000000000,  -0.05346679687500000000000,  0.08361816406250000000000,  0.07836914062500000000000,  0.00695800781250000000000,  -0.02758789062500000000000,  0.04772949218750000000000,  -0.19946289062500000000000,
 0.09826660156250000000000,  -0.29418945312500000000000,  0.03466796875000000000000,  -0.00622558593750000000000,  0.08618164062500000000000,  -0.25817871093750000000000,  -0.01562500000000000000000,  0.07458496093750000000000,  -0.03259277343750000000000,  -0.08959960937500000000000,
 -0.11267089843750000000000,  0.21691894531250000000000,  -0.31530761718750000000000,  0.18347167968750000000000,  -0.36865234375000000000000,  -0.17761230468750000000000,  -0.10314941406250000000000,  0.21337890625000000000000,  -0.27661132812500000000000,  -0.14184570312500000000000,
 0.18066406250000000000000,  -0.20373535156250000000000,  -0.29211425781250000000000,  -0.07299804687500000000000,  0.02661132812500000000000,  -0.12768554687500000000000,  -0.02844238281250000000000,  -0.34741210937500000000000,  -0.18920898437500000000000,  0.12658691406250000000000,
 -0.05114746093750000000000,  -0.13012695312500000000000,  0.09228515625000000000000,  0.36425781250000000000000,  0.05554199218750000000000,  0.19226074218750000000000,  -0.01721191406250000000000,  -0.18566894531250000000000,  0.02038574218750000000000,  0.08056640625000000000000,
 -0.01196289062500000000000,  -0.04846191406250000000000,  -0.23046875000000000000000,  -0.23303222656250000000000,  -0.11218261718750000000000,  -0.17614746093750000000000,  -0.10180664062500000000000,  -0.17565917968750000000000,  -0.31567382812500000000000,  -0.34497070312500000000000,
 -0.23205566406250000000000,  0.05346679687500000000000,  -0.07446289062500000000000,  -0.11865234375000000000000,  0.02868652343750000000000,  -0.17309570312500000000000,  0.36376953125000000000000,  -0.09436035156250000000000,  -0.15686035156250000000000,  0.15332031250000000000000,
 -0.30578613281250000000000,  0.32006835937500000000000,  -0.19213867187500000000000,  0.02905273437500000000000,  0.10937500000000000000000,  0.02563476562500000000000,  0.00549316406250000000000,  0.09387207031250000000000,  -0.34753417968750000000000,  0.07690429687500000000000,
 0.05859375000000000000000,  -0.29064941406250000000000,  -0.14660644531250000000000,  -0.07629394531250000000000,  0.26818847656250000000000,  -0.18994140625000000000000,  0.03369140625000000000000,  0.11767578125000000000000,  -0.08288574218750000000000,  -0.01708984375000000000000,
 -0.25195312500000000000000,  -0.03381347656250000000000,  -0.10107421875000000000000,  0.15222167968750000000000,  -0.01831054687500000000000,  0.22717285156250000000000,  -0.01867675781250000000000,  -0.01806640625000000000000,  0.03784179687500000000000,  -0.11596679687500000000000,
 -0.31689453125000000000000,  -0.21386718750000000000000,  0.08471679687500000000000,  -0.05615234375000000000000,  0.14941406250000000000000,  -0.18395996093750000000000,  -0.04663085937500000000000,  0.24243164062500000000000,  0.08557128906250000000000,  0.30371093750000000000000,
 0.27746582031250000000000,  0.07116699218750000000000,  -0.12536621093750000000000,  0.00903320312500000000000,  -0.04101562500000000000000,  -0.23840332031250000000000,  0.20361328125000000000000,  0.06787109375000000000000,  0.22851562500000000000000,  -0.08178710937500000000000,
 -0.04626464843750000000000,  -0.28210449218750000000000,  0.26770019531250000000000,  0.20629882812500000000000,  -0.11547851562500000000000,  -0.05261230468750000000000,  -0.12182617187500000000000,  0.13269042968750000000000,  -0.19348144531250000000000,  0.11303710937500000000000,
 -0.01477050781250000000000,  -0.07653808593750000000000,  -0.03527832031250000000000,  -0.18908691406250000000000,  -0.20629882812500000000000,  0.16625976562500000000000,  0.07775878906250000000000,  0.21557617187500000000000,  -0.15222167968750000000000,  0.16857910156250000000000,
 -0.20458984375000000000000,  0.14196777343750000000000,  0.03662109375000000000000,  -0.06677246093750000000000,  0.15612792968750000000000,  -0.19738769531250000000000,  0.13769531250000000000000,  0.00000000000000000000000,  -0.01855468750000000000000,  -0.19482421875000000000000,
 -0.33691406250000000000000,  -0.01635742187500000000000,  -0.31384277343750000000000,  0.14929199218750000000000,  0.02941894531250000000000,  0.19677734375000000000000,  0.04333496093750000000000,  0.32910156250000000000000,  -0.04357910156250000000000,  0.25256347656250000000000,
 -0.09887695312500000000000,  -0.07519531250000000000000,  -0.05212402343750000000000,  -0.28137207031250000000000,  -0.00329589843750000000000,  0.08569335937500000000000,  -0.16247558593750000000000,  0.12194824218750000000000,  -0.07946777343750000000000,  -0.09301757812500000000000,
 -0.03015136718750000000000,  -0.04895019531250000000000,  -0.27319335937500000000000,  -0.24621582031250000000000,  -0.09082031250000000000000,  -0.19335937500000000000000,  0.06713867187500000000000,  -0.04858398437500000000000,  0.18322753906250000000000,  -0.22961425781250000000000,
 -0.17431640625000000000000,  0.06604003906250000000000,  -0.33068847656250000000000,  0.16186523437500000000000,  0.32177734375000000000000,  -0.00646972656250000000000,  -0.22680664062500000000000,  -0.14770507812500000000000,  0.07458496093750000000000,  0.28491210937500000000000,
 -0.11779785156250000000000,  -0.16186523437500000000000,  -0.16308593750000000000000,  0.16467285156250000000000,  0.17736816406250000000000,  0.11767578125000000000000,  -0.13769531250000000000000,  0.24633789062500000000000,  0.24426269531250000000000,  -0.00622558593750000000000};
#endif

