/*
<Lenet Neural Network High Level Synthesis Lenet>

MIT License

Copyright (c) 2020 Filipe Maciel Lins

Permission is hereby granted, free of charge, to any person obtaining a copy of this software
and associated documentation files (the "Software"), to deal in the Software without restriction,
including without limitation the rights to use, copy, modify, merge, publish, distribute, sublicense,
and/or sell copies of the Software, and to permit persons to whom the Software is furnished to do so,
subject to the following conditions: The above copyright notice and this permission notice shall be
included in all copies or substantial portions of the Software.

THE SOFTWARE IS PROVIDED "AS IS", WITHOUT WARRANTY OF ANY KIND, EXPRESS OR IMPLIED,INCLUDING
BUT NOT LIMITED TO THE WARRANTIES OF MERCHANTABILITY,FITNESS FOR A PARTICULAR PURPOSE AND
NONINFRINGEMENT. IN NO EVENT SHALL THE AUTHORS OR COPYRIGHT HOLDERS BE LIABLE FOR ANY CLAIM,
DAMAGES OR OTHER LIABILITY, WHETHER IN AN ACTION OF CONTRACT, TORT OR OTHERWISE, ARISING FROM,
OUT OF OR IN CONNECTION WITH THE SOFTWARE OR THE USE OR OTHER DEALINGS IN THE SOFTWARE.
*/

#ifndef WEIGHTS_CONV2_H
#define WEIGHTS_CONV2_H
#include "ap_fixed.h" 
#include "defines.h" 
float conv2_layer_bias[16] = { 0.05213241279125213623047,  0.01144908647984266281128,  -0.04068978130817413330078,  0.00960858352482318878174,  -0.03837484121322631835938,  -0.05796016380190849304199,  0.01048876903951168060303,  -0.00901629589498043060303,  0.02284977585077285766602,  -0.01147794909775257110596,  0.02317294850945472717285,  -0.01463097520172595977783,  -0.00057096005184575915337,  0.02672957815229892730713,  0.03972798585891723632812,  -0.04226762801408767700195};
float conv2_layer_weights[16][2][2][8] = { 0.00624159350991249084473,  -0.15881802141666412353516,  -0.13771989941596984863281,  -0.06790478527545928955078,  -0.11841057986021041870117,  0.11543134599924087524414,  0.00449813948944211006165,  -0.20711642503738403320312,  -0.09861687570810317993164,  0.14514200389385223388672,  0.17822392284870147705078,  -0.12175442278385162353516,  0.03250844776630401611328,  0.33892077207565307617188,  0.25308227539062500000000,  -0.20864680409431457519531,  -0.17039327323436737060547,  -0.10924085229635238647461,  0.01037310436367988586426,  0.21939533948898315429688,  -0.10659369081258773803711,  -0.15424022078514099121094,  -0.07982259988784790039062,  0.18031242489814758300781,  0.03964763134717941284180,  0.09826769679784774780273,  0.06182711198925971984863,  -0.02206048369407653808594,  0.11110480874776840209961,  0.04048809409141540527344,  -0.18441984057426452636719,  0.16820895671844482421875,  0.21062009036540985107422,  0.13597561419010162353516,  -0.14282712340354919433594,  0.17338408529758453369141,  -0.19779527187347412109375,  -0.06911811977624893188477,  -0.08004442602396011352539,  0.19216018915176391601562,  0.26882117986679077148438,  -0.12075994163751602172852,  -0.15320080518722534179688,  0.40642982721328735351562,  -0.06836507469415664672852,  -0.23227079212665557861328,  -0.06796357035636901855469,  0.25143900513648986816406,  -0.01715575158596038818359,  -0.13698571920394897460938,  0.13522097468376159667969,  0.15640343725681304931641,  0.14140023291110992431641,  -0.31148725748062133789062,  0.04201548174023628234863,  0.03544044867157936096191,  -0.03040327504277229309082,  -0.07114528119564056396484,  0.04576712846755981445312,  0.27324047684669494628906,  -0.40912130475044250488281,  -0.31669017672538757324219,  0.14694160223007202148438,  0.16057348251342773437500,  0.22776381671428680419922,  0.38371026515960693359375,  -0.22257044911384582519531,  0.21482321619987487792969,  0.09500596672296524047852,  -0.18096013367176055908203,  0.21570527553558349609375,  -0.17737852036952972412109,  -0.15698689222335815429688,  0.11548622697591781616211,  0.15981344878673553466797,  -0.23718410730361938476562,  0.17895852029323577880859,  0.11782484501600265502930,  -0.15803597867488861083984,  -0.20555536448955535888672,  -0.04008338972926139831543,  0.33937010169029235839844,  -0.03289766237139701843262,  0.26632681488990783691406,  -0.17316652834415435791016,  -0.07874093204736709594727,  -0.15348331630229949951172,  0.06699136644601821899414,  -0.24437820911407470703125,  0.04585508257150650024414,  0.14707171916961669921875,  -0.14360222220420837402344,  0.29293864965438842773438,  0.08578131347894668579102,  -0.13014568388462066650391,  0.18217432498931884765625,  -0.04631653428077697753906,  -0.20502115786075592041016,  0.14939282834529876708984,  -0.03363726660609245300293,  -0.32091560959815979003906,  -0.17987798154354095458984,  -0.12057076394557952880859,  -0.15988387167453765869141,  -0.02061185985803604125977,  0.16766789555549621582031,  -0.20862388610839843750000,  0.17770031094551086425781,  -0.05155983939766883850098,  0.18121738731861114501953,  -0.05002537742257118225098,  -0.20131942629814147949219,  0.15751920640468597412109,  0.00002615694393170997500,  0.03418180346488952636719,  0.13814222812652587890625,  -0.22681260108947753906250,  -0.26825231313705444335938,  0.07461228966712951660156,  -0.05287881568074226379395,  0.22239710390567779541016,  -0.10519091784954071044922,  -0.10282056033611297607422,  0.40540644526481628417969,  -0.03480399027466773986816,  0.06549261510372161865234,  -0.20282292366027832031250,  0.26008248329162597656250,  -0.08241567760705947875977,  0.24054893851280212402344,  0.21810726821422576904297,  -0.00610374798998236656189,  0.10831558704376220703125,  -0.05579068511724472045898,  -0.04594117030501365661621,  0.08893445134162902832031,  -0.31601399183273315429688,  -0.27504864335060119628906,  -0.08070302009582519531250,  -0.18686585128307342529297,  0.05664239451289176940918,  -0.03126344084739685058594,  -0.02113973349332809448242,  0.22334124147891998291016,  -0.25389471650123596191406,  0.02455049380660057067871,  0.02010794728994369506836,  0.18555736541748046875000,  -0.11203583329916000366211,  0.21019096672534942626953,  0.24495437741279602050781,  -0.04814237356185913085938,  -0.06837021559476852416992,  0.13958044350147247314453,  -0.07804746925830841064453,  0.27104300260543823242188,  0.01588827185332775115967,  0.00102196494117379188538,  0.14427106082439422607422,  0.02678252570331096649170,  -0.07294090837240219116211,  0.40046036243438720703125,  0.01978747360408306121826,  -0.13182191550731658935547,  0.44327265024185180664062,  0.28842547535896301269531,  0.13671934604644775390625,  -0.02141153812408447265625,  0.25813525915145874023438,  0.30443635582923889160156,  0.15581069886684417724609,  -0.09611446410417556762695,  0.45650762319564819335938,  0.25246325135231018066406,  0.13260599970817565917969,  -0.04958778992295265197754,  -0.09829178452491760253906,  -0.03314672783017158508301,  0.26971262693405151367188,  -0.37073192000389099121094,  0.21788272261619567871094,  0.25654622912406921386719,  0.00809927284717559814453,  0.17110066115856170654297,  0.38453331589698791503906,  0.19556953012943267822266,  -0.04591979458928108215332,  -0.33581647276878356933594,  0.18034778535366058349609,  0.18617250025272369384766,  0.18677653372287750244141,  -0.06411048769950866699219,  -0.21066719293594360351562,  -0.20408003032207489013672,  -0.21338802576065063476562,  -0.09004516154527664184570,  0.04496282339096069335938,  -0.14821225404739379882812,  0.20353317260742187500000,  -0.19361490011215209960938,  0.21479696035385131835938,  0.04755658656358718872070,  0.08207494765520095825195,  0.11690729111433029174805,  0.19021522998809814453125,  -0.21590048074722290039062,  -0.06858284026384353637695,  -0.08180615305900573730469,  -0.25443443655967712402344,  0.02533615380525588989258,  0.07758619636297225952148,  -0.20248289406299591064453,  0.09412535279989242553711,  -0.05227070301771163940430,  0.08903592824935913085938,  -0.04881114885210990905762,  -0.21876801550388336181641,  -0.20484738051891326904297,  0.15586309134960174560547,  -0.02267832867801189422607,  -0.12392327189445495605469,  0.16108933091163635253906,  -0.04400156065821647644043,  0.00866109505295753479004,  -0.23985400795936584472656,  0.02188630588352680206299,  -0.03484541177749633789062,  -0.13654273748397827148438,  0.07687515020370483398438,  -0.18355029821395874023438,  0.25154244899749755859375,  0.19369602203369140625000,  -0.09605143219232559204102,  0.10115641355514526367188,  0.24096779525279998779297,  -0.19998273253440856933594,  0.33677875995635986328125,  -0.19029144942760467529297,  -0.07251799851655960083008,  0.06948872655630111694336,  0.04794703423976898193359,  -0.13312084972858428955078,  -0.15648353099822998046875,  0.05030693486332893371582,  -0.15650451183319091796875,  0.27916717529296875000000,  -0.01295387372374534606934,  -0.14750778675079345703125,  -0.03495824337005615234375,  0.13815706968307495117188,  0.17247913777828216552734,  -0.00239774677902460098267,  0.30460190773010253906250,  0.28633114695549011230469,  0.28011795878410339355469,  -0.18170878291130065917969,  -0.10343771427869796752930,  -0.01239311229437589645386,  -0.03026595711708068847656,  0.24566404521465301513672,  0.12910412251949310302734,  -0.18387655913829803466797,  -0.21281038224697113037109,  -0.04548195749521255493164,  -0.21422857046127319335938,  0.27389529347419738769531,  0.03507111221551895141602,  0.00385527452453970909119,  0.08293696492910385131836,  -0.10183773934841156005859,  0.12275737524032592773438,  -0.09122031182050704956055,  -0.19219429790973663330078,  0.13519142568111419677734,  0.21277137100696563720703,  0.29819276928901672363281,  0.21260194480419158935547,  0.13940209150314331054688,  -0.29959589242935180664062,  0.00963917654007673263550,  -0.26179543137550354003906,  0.21894459426403045654297,  -0.02256116271018981933594,  0.19264091551303863525391,  -0.19811683893203735351562,  0.11319731175899505615234,  -0.25755456089973449707031,  -0.17884990572929382324219,  -0.09909644722938537597656,  0.07516936957836151123047,  0.15062625706195831298828,  -0.17251600325107574462891,  0.08615551143884658813477,  0.21654272079467773437500,  0.30572393536567687988281,  0.22831957042217254638672,  0.19577732682228088378906,  -0.04983156919479370117188,  -0.14732186496257781982422,  -0.29142269492149353027344,  0.16145427525043487548828,  0.35777866840362548828125,  0.03549192100763320922852,  -0.12003993988037109375000,  -0.05528602376580238342285,  -0.14936564862728118896484,  0.17377112805843353271484,  0.00160170719027519226074,  -0.16473759710788726806641,  -0.23037943243980407714844,  -0.10953328013420104980469,  0.16240738332271575927734,  -0.11642076820135116577148,  0.27942758798599243164062,  0.15361677110195159912109,  0.26409319043159484863281,  0.02175991423428058624268,  -0.11760950833559036254883,  -0.13757172226905822753906,  -0.13724347949028015136719,  0.03403226658701896667480,  0.13190190494060516357422,  0.00249612657353281974792,  -0.01461669802665710449219,  -0.03035843186080455780029,  -0.12733896076679229736328,  0.21024593710899353027344,  -0.00968489982187747955322,  0.22857953608036041259766,  -0.23397356271743774414062,  -0.11285728216171264648438,  -0.19074232876300811767578,  -0.14891795814037322998047,  -0.10571094602346420288086,  0.06775510311126708984375,  0.06994813680648803710938,  0.16734600067138671875000,  -0.22029656171798706054688,  -0.05918001383543014526367,  -0.16515666246414184570312,  0.14952942728996276855469,  -0.21460480988025665283203,  0.19318699836730957031250,  -0.04806660115718841552734,  -0.20886293053627014160156,  -0.20387333631515502929688,  -0.11256975680589675903320,  -0.14878833293914794921875,  0.05405279621481895446777,  -0.00613756757229566574097,  0.10184059292078018188477,  0.24359151721000671386719,  0.27119490504264831542969,  0.16416084766387939453125,  0.20488916337490081787109,  -0.02587938494980335235596,  -0.24250054359436035156250,  -0.04236842691898345947266,  0.26962414383888244628906,  -0.20783118903636932373047,  0.20859056711196899414062,  0.29183092713356018066406,  -0.06131558120250701904297,  0.14648896455764770507812,  0.12890157103538513183594,  -0.19961094856262207031250,  0.28454285860061645507812,  0.16053006052970886230469,  -0.13923177123069763183594,  -0.01961935125291347503662,  0.19361822307109832763672,  -0.06489767134189605712891,  -0.22346931695938110351562,  0.10962337255477905273438,  -0.05283559858798980712891,  0.07048358768224716186523,  0.18694438040256500244141,  0.33375290036201477050781,  0.22176596522331237792969,  0.21080297231674194335938,  0.11932285875082015991211,  -0.30000966787338256835938,  0.22774553298950195312500,  -0.01781137846410274505615,  0.22097437083721160888672,  0.13534027338027954101562,  -0.17468290030956268310547,  -0.24504250288009643554688,  0.03910265117883682250977,  -0.17229014635086059570312,  -0.24178051948547363281250,  -0.16092595458030700683594,  -0.01762433163821697235107,  -0.08523106575012207031250,  0.13054057955741882324219,  -0.21091331541538238525391,  0.11016922444105148315430,  -0.22188171744346618652344,  0.03775681927800178527832,  0.19355750083923339843750,  0.01937677152454853057861,  -0.04518688842654228210449,  -0.14164909720420837402344,  -0.14087900519371032714844,  -0.17341369390487670898438,  0.11726944893598556518555,  -0.02153177745640277862549,  -0.08180999755859375000000,  -0.06610338389873504638672,  -0.22827124595642089843750,  -0.07918643951416015625000,  0.05251798406243324279785,  -0.06026636436581611633301,  -0.12146862596273422241211,  -0.02278492413461208343506,  0.04532905295491218566895,  0.06280308961868286132812,  0.05481098964810371398926,  0.25572636723518371582031,  0.36531114578247070312500,  0.07328157126903533935547,  -0.30133566260337829589844,  -0.07673531025648117065430,  -0.21673631668090820312500,  0.05875548347830772399902,  0.25577715039253234863281,  0.01898805424571037292480,  0.42388346791267395019531,  -0.09383026510477066040039,  -0.25673931837081909179688,  0.14989100396633148193359,  0.05979228392243385314941,  0.25089985132217407226562,  0.14097961783409118652344,  -0.13184280693531036376953,  0.11161747574806213378906,  -0.14917707443237304687500,  0.06582522392272949218750,  -0.16021308302879333496094,  -0.20681948959827423095703,  0.30458855628967285156250,  0.08386278897523880004883,  -0.23730580508708953857422,  -0.08394459635019302368164,  -0.03616683185100555419922,  0.07988729327917098999023,  -0.32235923409461975097656,  -0.00219653965905308723450,  0.09557042270898818969727,  -0.04946750402450561523438,  0.06167641282081604003906,  0.04634505882859230041504,  -0.19821749627590179443359,  -0.08987668156623840332031,  -0.21986140310764312744141,  -0.22333215177059173583984,  -0.08377292007207870483398,  -0.19348613917827606201172,  0.08453595638275146484375,  0.13331809639930725097656,  0.15211734175682067871094,  -0.08958306163549423217773,  -0.08458771556615829467773,  0.18497872352600097656250,  0.14285826683044433593750,  0.17057542502880096435547,  -0.22505444288253784179688,  -0.24206292629241943359375,  0.33238583803176879882812,  0.18330228328704833984375,  0.21424520015716552734375,  0.11467152833938598632812,  -0.14371852576732635498047,  -0.10241768509149551391602,  -0.06656447798013687133789,  0.04434594884514808654785,  -0.16530402004718780517578,  0.07373160123825073242188,  0.07728826999664306640625,  0.13946664333343505859375,  -0.24704335629940032958984,  0.31579041481018066406250,  -0.13196542859077453613281,  -0.07296568155288696289062,  -0.06488114595413208007812,  -0.22155614197254180908203,  -0.18780809640884399414062,  -0.09718403220176696777344,  0.16289514303207397460938,  0.00305299484170973300934,  -0.19493484497070312500000,  -0.20052680373191833496094,  -0.10980443656444549560547,  -0.14053456485271453857422,  -0.10383930802345275878906,  -0.23418138921260833740234,  -0.14189247786998748779297,  0.37188062071800231933594,  0.22499465942382812500000,  -0.05711657553911209106445,  0.39175513386726379394531,  -0.01224129926413297653198,  -0.01563657633960247039795,  0.04233818873763084411621,  -0.12455447763204574584961,  0.34839582443237304687500,  -0.03388472646474838256836,  0.10395178198814392089844,  0.06992876529693603515625,  -0.05474090203642845153809,  0.20917825400829315185547,  -0.14218604564666748046875};
#endif

