/*
<Lenet Neural Network High Level Synthesis Lenet>

MIT License

Copyright (c) 2020 Filipe Maciel Lins

Permission is hereby granted, free of charge, to any person obtaining a copy of this software
and associated documentation files (the "Software"), to deal in the Software without restriction,
including without limitation the rights to use, copy, modify, merge, publish, distribute, sublicense,
and/or sell copies of the Software, and to permit persons to whom the Software is furnished to do so,
subject to the following conditions: The above copyright notice and this permission notice shall be
included in all copies or substantial portions of the Software.

THE SOFTWARE IS PROVIDED "AS IS", WITHOUT WARRANTY OF ANY KIND, EXPRESS OR IMPLIED,INCLUDING
BUT NOT LIMITED TO THE WARRANTIES OF MERCHANTABILITY,FITNESS FOR A PARTICULAR PURPOSE AND
NONINFRINGEMENT. IN NO EVENT SHALL THE AUTHORS OR COPYRIGHT HOLDERS BE LIABLE FOR ANY CLAIM,
DAMAGES OR OTHER LIABILITY, WHETHER IN AN ACTION OF CONTRACT, TORT OR OTHERWISE, ARISING FROM,
OUT OF OR IN CONNECTION WITH THE SOFTWARE OR THE USE OR OTHER DEALINGS IN THE SOFTWARE.
*/

#ifndef WEIGHTS_FC2_H
#define WEIGHTS_FC2_H

#include "ap_fixed.h" 
#include "defines.h" 

float fc2_layer_bias[84] = {0.00488758739084005355835, -0.00000104063258277165005, 0.01538559980690479278564, 0.00830294471234083175659, 0.00713842548429965972900, -0.01899485290050506591797, -0.00077051104744896292686, 0.01436393056064844131470, -0.00477756280452013015747, -0.00380430812947452068329, -0.00920324772596359252930, 0.00083606835687533020973, -0.01370444055646657943726, 0.01810850575566291809082, 0.00049558083992451429367, 0.00129256315995007753372, 0.02375229075551033020020, 0.00001346828139503486454, -0.00074690830660983920097, -0.01414415147155523300171, -0.00056563492398709058762, -0.00097910128533840179443, 0.00899531319737434387207, -0.00967645924538373947144, -0.00045538894482888281345, -0.00378059758804738521576, -0.00143828580621629953384, -0.00208006892353296279907, -0.00073543394682928919792, 0.00168655137531459331512, 0.01221721246838569641113, -0.00713853863999247550964, -0.03134882077574729919434, 0.02848086878657341003418, -0.00119826488662511110306, 0.01692458428442478179932, 0.00311470893211662769318, 0.00546640157699584960938, -0.01981818862259387969971, -0.00151401455514132976532, 0.00942621473222970962524, -0.01372015103697776794434, -0.00006923440378159284592, 0.01256872527301311492920, -0.00491980556398630142212, -0.00252774660475552082062, -0.00580716319382190704346, -0.00449289707466959953308, -0.00110268872231245040894, 0.00000000000000000000000, -0.01511822547763586044312, -0.00010400520113762468100, 0.00028274764190427958965, 0.00012006716133328154683, 0.00103680999018251895905, -0.00498211244121193885803, -0.00102604774292558431625, 0.00628729304298758506775, -0.01179427653551101684570, -0.01510504353791475296021, 0.00520923687145113945007, -0.00134136620908975601196, -0.00005427029464044608176, 0.00478708697482943534851, -0.00029057209030725061893, -0.01107900682836771011353, -0.00160433829296380281448, 0.00722708133980631828308, -0.02373890206217765808105, -0.00114844040945172309875, -0.00175692071206867694855, 0.00287248613312840461731, -0.01556116994470357894897, 0.01079850457608699798584, 0.02170968241989612579346, -0.00315627967938780784607, -0.00191443285439163446426, 0.00002382264756306540221, 0.00155933806672692298889, 0.00138512055855244398117, -0.00888409558683633804321, -0.00013316002150531858206, -0.00140168110374361276627, 0.01176485046744346618652};
float fc2_layer_weights[120][84] = { -0.08484230935573577880859,  0.09359218180179595947266,  -0.08901761472225189208984,  -0.06602264195680618286133,  0.11303126811981201171875,  0.14355228841304779052734,  -0.06583482027053833007812,  -0.03432150557637214660645,  0.10117854177951812744141,  -0.12224718928337097167969,  0.06617963314056396484375,  0.01728905923664569854736,  -0.12124910205602645874023,  -0.11992178857326507568359,  0.03781630098819732666016,  0.14229807257652282714844,  -0.02773289941251277923584,  0.13069383800029754638672,  -0.13069191575050354003906,  0.13148504495620727539062,  0.05269216001033782958984,  -0.02896055579185485839844,  -0.01800995506346225738525,  0.14681099355220794677734,  0.15047664940357208251953,  0.12065865099430084228516,  0.13049623370170593261719,  0.12511028349399566650391,  -0.04550716280937194824219,  0.13138915598392486572266,  0.10236812382936477661133,  -0.14621618390083312988281,  0.00128948129713535308838,  -0.03491622954607009887695,  0.14727790653705596923828,  -0.10793345421552658081055,  0.02535094507038593292236,  0.03697911649942398071289,  0.05537401512265205383301,  -0.10144454240798950195312,  0.03943524882197380065918,  -0.10031005740165710449219,  0.07859806716442108154297,  -0.04958728328347206115723,  0.11084070056676864624023,  0.09182681888341903686523,  -0.15642279386520385742188,  0.17045642435550689697266,  -0.12680259346961975097656,  -0.04030133783817291259766,  -0.01518690586090087890625,  -0.16724887490272521972656,  -0.06828993558883666992188,  0.07517005503177642822266,  0.16296280920505523681641,  -0.06254126131534576416016,  -0.10331092029809951782227,  -0.02428659982979297637939,  -0.01338288653641939163208,  -0.12089505791664123535156,  -0.06747241318225860595703,  0.01395975798368453979492,  0.03316649794578552246094,  0.04132804647088050842285,  -0.00120961840730160474777,  0.14911243319511413574219,  0.11417852342128753662109,  -0.04153338447213172912598,  0.16805572807788848876953,  0.08431963622570037841797,  -0.13752265274524688720703,  -0.05781861767172813415527,  0.08175259083509445190430,  0.13699302077293395996094,  0.05041622370481491088867,  0.04931643605232238769531,  -0.08813008666038513183594,  -0.01930318772792816162109,  0.03664904087781906127930,  0.10357871651649475097656,  -0.11893470585346221923828,  -0.09825690090656280517578,  -0.07883114367723464965820,  -0.05333758145570755004883,
 -0.14600840210914611816406,  -0.13569244742393493652344,  0.06777954846620559692383,  0.02353461086750030517578,  0.15467180311679840087891,  0.06028327718377113342285,  -0.12867709994316101074219,  -0.11536130309104919433594,  -0.11248500645160675048828,  -0.08851800858974456787109,  -0.02027820423245429992676,  0.11164912581443786621094,  -0.00192905706353485584259,  -0.16560828685760498046875,  -0.01350671891123056411743,  -0.10604988038539886474609,  0.11702916026115417480469,  -0.09139149636030197143555,  0.06892114132642745971680,  0.01458626333624124526978,  0.09317427873611450195312,  -0.13104702532291412353516,  -0.15922750532627105712891,  -0.02178824134171009063721,  0.01035903859883546829224,  -0.05900927633047103881836,  -0.08511736989021301269531,  -0.08994777500629425048828,  0.06455730646848678588867,  -0.08174175769090652465820,  0.06909506022930145263672,  -0.15508292615413665771484,  -0.05850962921977043151855,  -0.00762406038120388984680,  0.08940651267766952514648,  0.06898162513971328735352,  -0.14235310256481170654297,  0.00063807651167735457420,  -0.14398001134395599365234,  0.02561178430914878845215,  0.06606556475162506103516,  -0.09953084588050842285156,  -0.02330235205590724945068,  -0.13540570437908172607422,  -0.00383751327171921730042,  0.01425287313759326934814,  -0.21112555265426635742188,  -0.00982010830193758010864,  0.14316238462924957275391,  0.00021806359291076660156,  0.10476149618625640869141,  -0.06427425891160964965820,  -0.00651747267693281173706,  0.09182050824165344238281,  0.00041382614290341734886,  -0.10628334432840347290039,  0.16092982888221740722656,  0.07430179417133331298828,  0.05010545626282691955566,  -0.12129073590040206909180,  0.05733995884656906127930,  0.08537562936544418334961,  -0.02706531435251235961914,  -0.15666770935058593750000,  -0.03985030204057693481445,  -0.14152690768241882324219,  -0.16693884134292602539062,  -0.01792984269559383392334,  -0.10105524212121963500977,  -0.15043294429779052734375,  0.15844824910163879394531,  0.19037929177284240722656,  0.08361563086509704589844,  -0.11367008090019226074219,  0.17619666457176208496094,  -0.10171475261449813842773,  0.07005555182695388793945,  -0.11538446694612503051758,  0.11771056056022644042969,  0.10786413401365280151367,  0.05082125589251518249512,  -0.12207912653684616088867,  -0.05875252932310104370117,  -0.07242264598608016967773,
 0.08041132986545562744141,  0.08919514715671539306641,  -0.01070644706487655639648,  -0.16028717160224914550781,  -0.03802931681275367736816,  0.01002032682299613952637,  -0.13589830696582794189453,  0.01777784153819084167480,  -0.16460378468036651611328,  0.06017068773508071899414,  -0.13871370255947113037109,  -0.02581968717277050018311,  -0.00036247071693651378155,  -0.14152227342128753662109,  -0.17697855830192565917969,  0.13889078795909881591797,  0.03546630591154098510742,  -0.08163451403379440307617,  0.08259657770395278930664,  0.05899882689118385314941,  0.14014574885368347167969,  -0.00168087671045213937759,  -0.14501594007015228271484,  0.09254170209169387817383,  0.08840087056159973144531,  -0.03801190108060836791992,  -0.14784879982471466064453,  -0.16037301719188690185547,  -0.15722934901714324951172,  -0.08474343270063400268555,  0.13145913183689117431641,  0.03135915473103523254395,  0.00902266427874565124512,  0.08872285485267639160156,  0.10252253711223602294922,  -0.06351114809513092041016,  -0.00162290723528712987900,  0.13780146837234497070312,  -0.12306749075651168823242,  -0.03676651790738105773926,  0.12977372109889984130859,  -0.07147283852100372314453,  -0.09891287237405776977539,  0.08187297731637954711914,  -0.12078533321619033813477,  -0.03740328550338745117188,  -0.12457790970802307128906,  0.15356589853763580322266,  -0.00400736322626471519470,  0.00466312468051910400391,  0.00326046114787459373474,  -0.06595313549041748046875,  -0.02649393863976001739502,  -0.15975500643253326416016,  0.07769711315631866455078,  -0.15241627395153045654297,  0.10004796087741851806641,  -0.00952110718935728073120,  -0.08734960854053497314453,  -0.17244766652584075927734,  -0.04472345113754272460938,  0.13910390436649322509766,  0.07548062503337860107422,  0.15224739909172058105469,  0.05371777713298797607422,  0.16103425621986389160156,  0.11321725696325302124023,  -0.11468327045440673828125,  0.14930938184261322021484,  -0.04283891618251800537109,  -0.02033637650310993194580,  -0.05357865989208221435547,  0.07458417117595672607422,  -0.17392571270465850830078,  -0.08495151996612548828125,  -0.18741030991077423095703,  -0.14238959550857543945312,  0.04707919433712959289551,  0.04827678203582763671875,  -0.05065188184380531311035,  -0.18515370786190032958984,  -0.09983207285404205322266,  -0.00331185688264667987823,  -0.03896692767739295959473,
 -0.06556813418865203857422,  0.13446502387523651123047,  0.08389952033758163452148,  -0.10232806950807571411133,  -0.07279775291681289672852,  -0.00252064038068056106567,  -0.06185459345579147338867,  0.12508770823478698730469,  0.09092088043689727783203,  -0.04255256056785583496094,  0.14020287990570068359375,  0.04463253542780876159668,  0.05580033361911773681641,  -0.02586988359689712524414,  -0.17099750041961669921875,  -0.01239647436887025833130,  -0.12891624867916107177734,  -0.12234050780534744262695,  0.13768814504146575927734,  -0.14048223197460174560547,  -0.05413414910435676574707,  0.04994471743702888488770,  0.14123983681201934814453,  0.06725701689720153808594,  -0.05428868532180786132812,  -0.04130297899246215820312,  0.05954368785023689270020,  -0.06459542363882064819336,  0.02174173481762409210205,  -0.11463744938373565673828,  -0.03443455696105957031250,  -0.03830755501985549926758,  0.08107110112905502319336,  0.04471624270081520080566,  -0.14190329611301422119141,  -0.11215145140886306762695,  0.12770338356494903564453,  -0.12526716291904449462891,  0.19033029675483703613281,  -0.00171965628396719694138,  -0.00923667754977941513062,  -0.00188707746565341949463,  -0.04840067028999328613281,  -0.12257108092308044433594,  0.12020065635442733764648,  0.07993704825639724731445,  -0.08880192786455154418945,  -0.01457692030817270278931,  -0.06733740121126174926758,  0.14796169102191925048828,  0.13299986720085144042969,  -0.03339990228414535522461,  -0.11284315586090087890625,  0.08890925347805023193359,  -0.06195592135190963745117,  -0.15176118910312652587891,  0.05172556266188621520996,  0.02601941302418708801270,  -0.10596345365047454833984,  -0.00382435694336891174316,  0.02592583559453487396240,  0.14209529757499694824219,  0.12679263949394226074219,  0.17089799046516418457031,  -0.08446916937828063964844,  -0.01170522160828113555908,  0.06262920051813125610352,  -0.03632938489317893981934,  -0.15949599444866180419922,  -0.01244049984961748123169,  -0.09197531640529632568359,  -0.05189690366387367248535,  0.00855515990406274795532,  0.12055225670337677001953,  -0.14181010425090789794922,  -0.01165833510458469390869,  -0.04952521622180938720703,  0.09057182073593139648438,  0.05671140179038047790527,  0.16346469521522521972656,  0.07221537083387374877930,  -0.12885905802249908447266,  0.12053318321704864501953,  -0.15034388005733489990234,
 -0.06781030446290969848633,  -0.06722613424062728881836,  -0.02676704339683055877686,  -0.05603999271988868713379,  -0.06539018452167510986328,  0.10133907943964004516602,  -0.04142419248819351196289,  -0.13858632743358612060547,  0.13864114880561828613281,  0.03789208084344863891602,  -0.13747930526733398437500,  0.01838985271751880645752,  -0.10480053722858428955078,  0.00452751619741320610046,  0.00820439867675304412842,  0.06882096827030181884766,  -0.19273182749748229980469,  -0.02249118685722351074219,  -0.05293639004230499267578,  -0.03170236200094223022461,  -0.00860843807458877563477,  -0.04243885725736618041992,  -0.11296029388904571533203,  -0.02558488957583904266357,  0.15484370291233062744141,  0.08849475532770156860352,  -0.13905903697013854980469,  -0.12902006506919860839844,  0.11057998239994049072266,  -0.09633745998144149780273,  -0.16855874657630920410156,  0.14642566442489624023438,  -0.06975907832384109497070,  0.14563654363155364990234,  -0.13331086933612823486328,  -0.17312471568584442138672,  -0.14062017202377319335938,  -0.06508222222328186035156,  0.06730802357196807861328,  -0.06176883354783058166504,  -0.08347303420305252075195,  0.17980401217937469482422,  -0.04204382747411727905273,  -0.13757440447807312011719,  -0.06827174872159957885742,  0.11546754837036132812500,  0.13105788826942443847656,  -0.16329936683177947998047,  0.12647667527198791503906,  -0.03298078477382659912109,  -0.16531567275524139404297,  0.05485151708126068115234,  -0.16221015155315399169922,  -0.00319015304557979106903,  -0.09242649376392364501953,  0.07989431917667388916016,  0.07985039800405502319336,  -0.12170924991369247436523,  -0.14333604276180267333984,  0.09746631979942321777344,  0.04515599086880683898926,  -0.12522874772548675537109,  -0.13206696510314941406250,  -0.03820310533046722412109,  0.03501799330115318298340,  0.10695151239633560180664,  0.01055831275880336761475,  0.08245275169610977172852,  -0.03639834374189376831055,  0.00264451396651566028595,  0.01306254230439662933350,  0.02042401768267154693604,  0.06179943308234214782715,  -0.03351368010044097900391,  0.03025110065937042236328,  0.01321429107338190078735,  -0.14322990179061889648438,  -0.01559233851730823516846,  0.02649830840528011322021,  -0.03835304453969001770020,  0.04994501918554306030273,  0.01887886598706245422363,  0.03125097602605819702148,  -0.09551375359296798706055,
 -0.04318852350115776062012,  0.07085394114255905151367,  0.13725762069225311279297,  0.06256108731031417846680,  -0.04391606152057647705078,  0.14777149260044097900391,  0.02793532609939575195312,  -0.04377116262912750244141,  -0.09368941187858581542969,  -0.08537196367979049682617,  -0.14621590077877044677734,  -0.02566556818783283233643,  0.01823597401380538940430,  0.11174682527780532836914,  -0.05990652367472648620605,  -0.03628170862793922424316,  0.14426779747009277343750,  -0.01071963459253311157227,  0.01661071740090847015381,  0.11969887465238571166992,  -0.07347962260246276855469,  0.06907487660646438598633,  0.14794677495956420898438,  -0.10040105879306793212891,  -0.05605146661400794982910,  -0.09718269109725952148438,  0.00559816975146532058716,  -0.15634615719318389892578,  0.05978413298726081848145,  0.14106044173240661621094,  0.09413096308708190917969,  -0.11811029165983200073242,  0.03294283524155616760254,  -0.14705388247966766357422,  0.04869131371378898620605,  0.07908884435892105102539,  0.17260445654392242431641,  -0.02425779215991497039795,  0.05515546724200248718262,  0.14021834731101989746094,  -0.05678098276257514953613,  -0.05246545374393463134766,  -0.11073929071426391601562,  -0.02414807863533496856689,  -0.00448488350957632064819,  -0.16560468077659606933594,  -0.15718677639961242675781,  0.09955680370330810546875,  0.09271077066659927368164,  0.05982679128646850585938,  0.11784815788269042968750,  0.02280819416046142578125,  -0.04688134789466857910156,  -0.08006968349218368530273,  0.02010707184672355651855,  0.00248729274608194828033,  -0.11442863941192626953125,  0.10465372353792190551758,  -0.08990613371133804321289,  0.06331137567758560180664,  0.18647293746471405029297,  -0.14180257916450500488281,  -0.03512591496109962463379,  -0.12716081738471984863281,  0.06856042146682739257812,  0.15783867239952087402344,  -0.14501500129699707031250,  -0.03073170036077499389648,  0.01461782027035951614380,  0.04611517861485481262207,  -0.10807877033948898315430,  -0.03802213445305824279785,  0.18119180202484130859375,  0.09932553768157958984375,  -0.07593940198421478271484,  0.07533676922321319580078,  0.04645618796348571777344,  0.03832942247390747070312,  0.01430858857929706573486,  0.14951185882091522216797,  -0.00065316574182361364365,  0.01489000767469406127930,  0.07639537751674652099609,  -0.05681584030389785766602,
 -0.13715848326683044433594,  -0.02576831914484500885010,  0.09084206074476242065430,  -0.02944398857653141021729,  0.04534741491079330444336,  0.05830003693699836730957,  -0.10484061390161514282227,  0.01769634522497653961182,  -0.08031867444515228271484,  0.14187189936637878417969,  0.12607479095458984375000,  0.08351382613182067871094,  -0.02571983076632022857666,  -0.10436709970235824584961,  0.09305185079574584960938,  0.08599427342414855957031,  -0.08177611976861953735352,  0.10361929982900619506836,  0.03105930052697658538818,  -0.08875090628862380981445,  -0.16434845328330993652344,  -0.12635165452957153320312,  0.12027918547391891479492,  -0.06650215387344360351562,  -0.06942404061555862426758,  -0.01688749156892299652100,  0.07578655332326889038086,  -0.15811555087566375732422,  -0.04218326136469841003418,  0.15965662896633148193359,  0.03503144904971122741699,  -0.02331451885402202606201,  0.02773446775972843170166,  -0.02026613429188728332520,  0.12874656915664672851562,  0.03441505879163742065430,  -0.16500332951545715332031,  -0.09313604235649108886719,  0.00738170789554715156555,  0.17515121400356292724609,  -0.02618802152574062347412,  0.14176803827285766601562,  -0.10678794234991073608398,  -0.01873779296875000000000,  -0.10940373688936233520508,  0.14757904410362243652344,  -0.05556214228272438049316,  -0.08174969255924224853516,  0.04353971034288406372070,  -0.14421907067298889160156,  -0.08134991675615310668945,  0.12081448733806610107422,  0.07729969173669815063477,  -0.16523990035057067871094,  -0.04868070781230926513672,  0.07168328762054443359375,  -0.03342437744140625000000,  0.07278101146221160888672,  0.10455168038606643676758,  0.00928835570812225341797,  -0.14067590236663818359375,  -0.03145797178149223327637,  0.02554365247488021850586,  0.11932300031185150146484,  -0.00652526039630174636841,  0.11388148367404937744141,  -0.06591811776161193847656,  0.14855948090553283691406,  0.09429948031902313232422,  -0.06851763278245925903320,  0.13302543759346008300781,  -0.01901965960860252380371,  -0.16405762732028961181641,  -0.10784300416707992553711,  -0.10207828134298324584961,  -0.02771195396780967712402,  -0.10016319900751113891602,  0.11205585300922393798828,  -0.11436970531940460205078,  0.06185114383697509765625,  0.15885163843631744384766,  -0.09582000225782394409180,  0.08763289451599121093750,  -0.11742946505546569824219,
 0.10233037173748016357422,  0.09312438964843750000000,  0.09651912003755569458008,  0.14968499541282653808594,  0.02778125740587711334229,  -0.12887267768383026123047,  0.08827328681945800781250,  -0.16791103780269622802734,  0.16958031058311462402344,  0.15089178085327148437500,  0.10501316934823989868164,  0.03025549650192260742188,  0.00047783355694264173508,  0.03134429454803466796875,  0.08002959936857223510742,  -0.10923707485198974609375,  0.17999021708965301513672,  -0.14117218554019927978516,  -0.03263420984148979187012,  -0.13376373052597045898438,  -0.07473031431436538696289,  -0.03361498191952705383301,  -0.04483846947550773620605,  -0.08049844950437545776367,  -0.01226400025188922882080,  -0.16619816422462463378906,  0.00574854249134659767151,  0.13459810614585876464844,  0.12085555493831634521484,  -0.10817326605319976806641,  -0.14263136684894561767578,  0.16677200794219970703125,  -0.04574488848447799682617,  -0.18368138372898101806641,  -0.08115709573030471801758,  -0.04403591901063919067383,  0.12900264561176300048828,  0.08755886554718017578125,  0.01571939326822757720947,  0.11740319430828094482422,  0.06108739599585533142090,  0.11453302204608917236328,  -0.13624593615531921386719,  0.19170431792736053466797,  0.00210370309650897979736,  -0.11958365142345428466797,  0.02643440477550029754639,  0.12306358665227890014648,  0.02219515107572078704834,  -0.00519299507141113281250,  -0.05869677290320396423340,  0.06155805662274360656738,  0.17293202877044677734375,  0.08242312073707580566406,  -0.07517195492982864379883,  0.01937899552285671234131,  0.05768787488341331481934,  -0.04321714490652084350586,  -0.15043734014034271240234,  -0.07567779719829559326172,  -0.17218637466430664062500,  -0.06650897115468978881836,  -0.15553461015224456787109,  -0.09566470235586166381836,  0.01488718856126070022583,  -0.15311749279499053955078,  -0.04329486563801765441895,  0.09036948531866073608398,  0.00474559236317873001099,  -0.09043261408805847167969,  0.01349580660462379455566,  0.00440011639147996902466,  -0.17830868065357208251953,  0.00857492070645093917847,  0.09777502715587615966797,  -0.13675357401371002197266,  -0.10640520602464675903320,  0.15508784353733062744141,  0.00163077434990555047989,  0.02057622745633125305176,  0.00826416350901126861572,  -0.11977866291999816894531,  0.12834328413009643554688,  0.02003321424126625061035,
 0.16351698338985443115234,  0.07928608357906341552734,  0.00618528481572866439819,  -0.06458777189254760742188,  0.12421900033950805664062,  -0.10448720306158065795898,  0.03430756926536560058594,  0.17567613720893859863281,  0.08065745979547500610352,  0.11553177237510681152344,  -0.14320856332778930664062,  0.08281816542148590087891,  0.01717624254524707794189,  -0.00556353572756052017212,  0.03480533137917518615723,  0.13077661395072937011719,  0.15163381397724151611328,  -0.05426782369613647460938,  0.16562722623348236083984,  -0.08667997270822525024414,  -0.12314321845769882202148,  -0.12120401859283447265625,  0.13206803798675537109375,  0.08428932726383209228516,  0.05634977295994758605957,  0.16049987077713012695312,  -0.14824897050857543945312,  -0.14581751823425292968750,  0.06001304835081100463867,  0.08252843469381332397461,  -0.06061327829957008361816,  0.05381716415286064147949,  0.05002476274967193603516,  0.08766695111989974975586,  0.00244416273199021816254,  0.02138286270201206207275,  0.04935413599014282226562,  -0.14827810227870941162109,  0.01515446417033672332764,  -0.06419487297534942626953,  -0.06404054909944534301758,  0.11209967732429504394531,  -0.14367923140525817871094,  -0.03760490193963050842285,  -0.01561641786247491836548,  -0.09184675663709640502930,  0.00670825783163309097290,  0.14896543323993682861328,  0.06789192557334899902344,  -0.07253512740135192871094,  0.02235692925751209259033,  -0.04603965952992439270020,  0.12374198436737060546875,  -0.03833573684096336364746,  0.07474218308925628662109,  0.01261640898883342742920,  0.10551398247480392456055,  0.11618253588676452636719,  0.14496949315071105957031,  0.02793340012431144714355,  0.02254054695367813110352,  0.14935380220413208007812,  0.02940557338297367095947,  -0.12752060592174530029297,  -0.01267441362142562866211,  -0.00943475868552923202515,  0.10713116824626922607422,  0.11268803477287292480469,  -0.11408998072147369384766,  -0.12746326625347137451172,  0.10717680305242538452148,  -0.12167543172836303710938,  -0.16820728778839111328125,  0.08210101723670959472656,  -0.07844618707895278930664,  -0.10138894617557525634766,  -0.11250358819961547851562,  0.05883059650659561157227,  0.01603315956890583038330,  -0.03217564895749092102051,  -0.12708005309104919433594,  0.08206129819154739379883,  -0.08941458165645599365234,  -0.03494253009557723999023,
 0.04609620571136474609375,  -0.04226912930607795715332,  0.08283536881208419799805,  -0.13170596957206726074219,  0.04842197522521018981934,  0.10803183168172836303711,  0.05176367983222007751465,  0.04312006384134292602539,  -0.06254354864358901977539,  -0.16818268597126007080078,  0.15054406225681304931641,  -0.05514656007289886474609,  -0.15556210279464721679688,  -0.13488870859146118164062,  -0.18191593885421752929688,  0.05856579542160034179688,  -0.13524948060512542724609,  -0.07496315985918045043945,  -0.15787915885448455810547,  0.07048965245485305786133,  -0.15536697208881378173828,  0.14178179204463958740234,  0.16133569180965423583984,  0.15610381960868835449219,  0.02441799826920032501221,  -0.06598770618438720703125,  -0.00060464593116194009781,  0.11946658045053482055664,  -0.17365624010562896728516,  -0.03155233338475227355957,  0.19981575012207031250000,  -0.00866344384849071502686,  0.13592939078807830810547,  0.12931065261363983154297,  -0.16644139587879180908203,  0.01311922911554574966431,  -0.02958773262798786163330,  0.08865313977003097534180,  -0.10972797870635986328125,  -0.18217955529689788818359,  0.02059071697294712066650,  0.15755634009838104248047,  -0.00684093963354825973511,  -0.10337875783443450927734,  0.11067298799753189086914,  -0.07452224195003509521484,  -0.10364967584609985351562,  0.08267869055271148681641,  -0.08132459223270416259766,  -0.03042297065258026123047,  0.03361517563462257385254,  -0.10172269493341445922852,  -0.03190303966403007507324,  -0.16272979974746704101562,  0.15646141767501831054688,  -0.00034415058325976133347,  0.06027094274759292602539,  0.05830601230263710021973,  -0.05049153417348861694336,  -0.13916194438934326171875,  -0.07374785840511322021484,  0.15376667678356170654297,  -0.13471041619777679443359,  -0.15084850788116455078125,  0.12513777613639831542969,  0.00635769451037049293518,  -0.00712603237479925155640,  0.16865484416484832763672,  -0.14328302443027496337891,  -0.04909890145063400268555,  -0.09412083029747009277344,  -0.11324484646320343017578,  0.05655531212687492370605,  -0.03721208497881889343262,  0.14293356239795684814453,  -0.01562551967799663543701,  -0.01561472285538911819458,  -0.00200458499602973461151,  -0.14199122786521911621094,  -0.14350575208663940429688,  0.05469977855682373046875,  -0.15127916634082794189453,  -0.08649723231792449951172,  0.09056965261697769165039,
 -0.13669049739837646484375,  -0.07066006213426589965820,  0.00186550011858344078064,  -0.10546989738941192626953,  -0.10568454861640930175781,  -0.16692526638507843017578,  0.11349174380302429199219,  0.14330913126468658447266,  0.02196952700614929199219,  0.06845033168792724609375,  -0.16566208004951477050781,  -0.10862318426370620727539,  0.05669778957962989807129,  0.03760699182748794555664,  -0.08111143112182617187500,  0.02905452623963356018066,  -0.00045774126192554831505,  0.03522482514381408691406,  0.04595438763499259948730,  -0.02842173911631107330322,  -0.01836264692246913909912,  -0.02401483617722988128662,  -0.07197532802820205688477,  -0.13336353003978729248047,  0.04890222102403640747070,  0.03698730841279029846191,  0.00601174449548125267029,  -0.16381259262561798095703,  -0.16072991490364074707031,  0.13854008913040161132812,  -0.01903384923934936523438,  0.08870513737201690673828,  -0.01632803492248058319092,  0.09357094764709472656250,  -0.08071335405111312866211,  -0.07909722626209259033203,  0.02977897785604000091553,  0.13577657938003540039062,  0.05858849361538887023926,  0.14253710210323333740234,  0.09047430753707885742188,  -0.15699698030948638916016,  -0.03223789110779762268066,  0.04335762560367584228516,  -0.10666468739509582519531,  -0.03523731604218482971191,  0.03517235442996025085449,  0.01892652548849582672119,  -0.03638105839490890502930,  0.00100794434547424316406,  -0.14775770902633666992188,  -0.15195102989673614501953,  0.16932740807533264160156,  -0.10570057481527328491211,  -0.02986110933125019073486,  -0.16283296048641204833984,  -0.15098541975021362304688,  -0.00713865412399172782898,  0.13150301575660705566406,  -0.08302640169858932495117,  0.02402461133897304534912,  -0.16404496133327484130859,  0.06908450275659561157227,  -0.05047723650932312011719,  -0.00847582053393125534058,  0.02962813526391983032227,  -0.04644424840807914733887,  -0.13822479546070098876953,  -0.00485585769638419151306,  -0.02105208113789558410645,  -0.12452457100152969360352,  0.03808543458580970764160,  -0.03573588654398918151855,  0.11356290429830551147461,  -0.14882943034172058105469,  -0.01255652774125337600708,  0.00242360820993781089783,  -0.08513972908258438110352,  -0.01350796502083539962769,  0.11254011839628219604492,  -0.04790801182389259338379,  0.15831072628498077392578,  -0.00048206487554125487804,  0.08564426004886627197266,
 -0.00011596447438932955265,  0.12809710204601287841797,  0.06049472466111183166504,  -0.05294318869709968566895,  -0.09291026741266250610352,  -0.16919247806072235107422,  -0.11664672940969467163086,  -0.10612367838621139526367,  0.15274570882320404052734,  0.16931723058223724365234,  0.01892092823982238769531,  -0.12061856687068939208984,  0.08087458461523056030273,  -0.06753613054752349853516,  0.03087263368070125579834,  0.12602615356445312500000,  -0.04488247260451316833496,  -0.05815179646015167236328,  0.15632887184619903564453,  0.02799186110496520996094,  -0.03918275237083435058594,  -0.15078923106193542480469,  0.00904101692140102386475,  -0.10661429911851882934570,  0.08383832871913909912109,  -0.07396984100341796875000,  -0.06013130769133567810059,  -0.08216726034879684448242,  -0.02525572478771209716797,  -0.08506076782941818237305,  0.15561710298061370849609,  0.01791277527809143066406,  0.01136559247970581054688,  0.04341712221503257751465,  -0.05392993986606597900391,  0.00700153410434722900391,  -0.06063142418861389160156,  0.17119945585727691650391,  0.04965194687247276306152,  -0.01632178202271461486816,  0.10420663654804229736328,  -0.07653556764125823974609,  0.11234100162982940673828,  0.13471235334873199462891,  -0.09327716380357742309570,  0.15376226603984832763672,  -0.01238466799259185791016,  0.16610412299633026123047,  -0.11846307665109634399414,  -0.08552829176187515258789,  0.09213037788867950439453,  -0.15199594199657440185547,  -0.07083346694707870483398,  0.06072916090488433837891,  0.02562388777732849121094,  -0.14216588437557220458984,  -0.05162469297647476196289,  -0.02654395997524261474609,  0.00401982665061950683594,  -0.12936101853847503662109,  0.11248016357421875000000,  -0.17140184342861175537109,  -0.06342411786317825317383,  0.06757975369691848754883,  -0.03981135785579681396484,  0.12099044024944305419922,  -0.09431877732276916503906,  0.00795981474220752716064,  -0.07717855274677276611328,  -0.08715957403182983398438,  -0.12405465543270111083984,  -0.14644140005111694335938,  -0.08989183604717254638672,  0.13614323735237121582031,  0.04862817004323005676270,  0.14364399015903472900391,  0.13682179152965545654297,  0.16089890897274017333984,  -0.09954898059368133544922,  0.13828317821025848388672,  0.01858560554683208465576,  -0.15633481740951538085938,  -0.09569332748651504516602,  -0.11474478989839553833008,
 -0.05598571524024009704590,  -0.00684379041194915771484,  0.02398407086730003356934,  0.13613906502723693847656,  0.13349480926990509033203,  0.02841081656515598297119,  -0.10745544731616973876953,  -0.08853017538785934448242,  -0.16846603155136108398438,  0.00553793227300047874451,  -0.03225650265812873840332,  0.11494726687669754028320,  -0.11923675984144210815430,  -0.12166086584329605102539,  0.03694771230220794677734,  0.08672654628753662109375,  0.08072221279144287109375,  0.11374761164188385009766,  0.02643913030624389648438,  -0.07328806817531585693359,  -0.08653414994478225708008,  -0.02490488812327384948730,  -0.14974914491176605224609,  -0.01815619133412837982178,  0.01746812462806701660156,  0.16421575844287872314453,  0.08107775449752807617188,  -0.16367983818054199218750,  -0.03354534134268760681152,  -0.16895143687725067138672,  -0.09110773354768753051758,  -0.04558369889855384826660,  -0.09193605929613113403320,  -0.15741491317749023437500,  -0.13711740076541900634766,  -0.13578657805919647216797,  0.02535682544112205505371,  -0.00961462501436471939087,  0.16851368546485900878906,  0.10126637667417526245117,  0.08813165873289108276367,  -0.15124057233333587646484,  -0.13634052872657775878906,  -0.13732045888900756835938,  0.03479031473398208618164,  0.07124584913253784179688,  -0.08720588684082031250000,  0.14474537968635559082031,  -0.00428072642534971237183,  -0.14755982160568237304688,  0.05620083585381507873535,  0.09324717521667480468750,  -0.07787415385246276855469,  -0.04031592607498168945312,  0.15592689812183380126953,  0.14407545328140258789062,  -0.07612141221761703491211,  -0.09631378948688507080078,  0.08701653778553009033203,  0.09931564331054687500000,  0.16521507501602172851562,  -0.02965556271374225616455,  0.00067359209060668945312,  0.01225781813263893127441,  -0.04445584863424301147461,  0.14643353223800659179688,  -0.16421855986118316650391,  0.09982290863990783691406,  -0.14487645030021667480469,  -0.13973864912986755371094,  0.06396359950304031372070,  -0.15798938274383544921875,  -0.03168486058712005615234,  0.05937816202640533447266,  0.13048169016838073730469,  -0.16110661625862121582031,  0.14371013641357421875000,  0.10364006459712982177734,  0.02869223244488239288330,  0.02817988768219947814941,  -0.16906610131263732910156,  0.15977619588375091552734,  0.16051861643791198730469,  -0.08330099284648895263672,
 -0.08964855968952178955078,  -0.14600224792957305908203,  0.04729027301073074340820,  -0.09433492273092269897461,  0.05686544626951217651367,  0.14668901264667510986328,  -0.01548378448933362960815,  -0.09902035444974899291992,  0.14645433425903320312500,  -0.05369399115443229675293,  -0.09285631775856018066406,  0.04563004523515701293945,  -0.09692194312810897827148,  -0.12763133645057678222656,  -0.06245873495936393737793,  0.00519188446924090385437,  0.16452543437480926513672,  -0.02527907863259315490723,  0.11012907326221466064453,  -0.03844811394810676574707,  -0.11063957214355468750000,  0.05141334980726242065430,  -0.00696892663836479187012,  0.17009718716144561767578,  -0.09617056697607040405273,  0.14930121600627899169922,  -0.02187946997582912445068,  -0.12228796631097793579102,  -0.11107490211725234985352,  -0.02306093648076057434082,  0.06988927721977233886719,  -0.01847553998231887817383,  0.05369141697883605957031,  -0.16025099158287048339844,  0.10109049081802368164062,  0.01871423237025737762451,  -0.08680163323879241943359,  0.06596986949443817138672,  0.14970053732395172119141,  0.08960621803998947143555,  -0.11055626720190048217773,  0.17149469256401062011719,  -0.03484283015131950378418,  -0.00526065193116664886475,  0.20130679011344909667969,  -0.09978337585926055908203,  -0.01137139182537794113159,  0.07096024602651596069336,  -0.16531261801719665527344,  -0.04797400534152984619141,  0.14348013699054718017578,  -0.00626379624009132385254,  0.04209802672266960144043,  0.05640830472111701965332,  0.01502116955816745758057,  -0.05684835463762283325195,  0.00556940771639347076416,  0.01036909688264131546021,  0.11130291968584060668945,  0.03901851922273635864258,  -0.09765379130840301513672,  0.05447461456060409545898,  -0.12797799706459045410156,  -0.14427860081195831298828,  -0.00447538355365395545959,  0.07152385264635086059570,  0.02092245593667030334473,  -0.10559981316328048706055,  -0.12218538671731948852539,  -0.01105061080306768417358,  0.15764011442661285400391,  -0.14112851023674011230469,  0.04681144654750823974609,  -0.18532489240169525146484,  0.06628432869911193847656,  0.07762770354747772216797,  0.13143946230411529541016,  0.01248311065137386322021,  -0.10711941868066787719727,  0.05625475198030471801758,  0.14081534743309020996094,  0.08199167996644973754883,  0.02737269736826419830322,  -0.05845504626631736755371,
 -0.11196473985910415649414,  0.16166394948959350585938,  -0.09529708325862884521484,  -0.14401616156101226806641,  -0.12165956199169158935547,  0.09440771490335464477539,  0.06064152717590332031250,  0.08562701195478439331055,  0.07964760810136795043945,  -0.11731353402137756347656,  0.15274593234062194824219,  -0.02552254311740398406982,  -0.01156406849622726440430,  -0.06562921404838562011719,  0.14293375611305236816406,  -0.03372072055935859680176,  0.00254554115235805511475,  0.03327597677707672119141,  -0.03085124306380748748779,  0.00905751343816518783569,  0.05901579186320304870605,  -0.09442865848541259765625,  0.01646434701979160308838,  -0.17858430743217468261719,  -0.08893214911222457885742,  -0.03048264235258102416992,  0.07714358717203140258789,  0.05297232419252395629883,  0.03725257515907287597656,  -0.06224386021494865417480,  -0.03868065029382705688477,  -0.05837384238839149475098,  -0.16694988310337066650391,  -0.08209215104579925537109,  0.09001257270574569702148,  -0.08409763127565383911133,  -0.03531775996088981628418,  -0.14838378131389617919922,  0.05957804620265960693359,  -0.01350040268152952194214,  0.00460949679836630821228,  0.16123513877391815185547,  -0.04573090001940727233887,  -0.00523595651611685752869,  -0.18334074318408966064453,  -0.12474936991930007934570,  0.14346225559711456298828,  0.03168175369501113891602,  0.07951773703098297119141,  0.05867557227611541748047,  -0.02377054467797279357910,  -0.15259878337383270263672,  -0.10155424475669860839844,  -0.15914075076580047607422,  -0.09569490700960159301758,  0.12861654162406921386719,  0.06430923938751220703125,  -0.08466321974992752075195,  -0.06371207535266876220703,  -0.12523606419563293457031,  0.07362085580825805664062,  0.05289553105831146240234,  0.06042313948273658752441,  0.04153575003147125244141,  0.15830411016941070556641,  0.06562726944684982299805,  -0.16944578289985656738281,  -0.16288931667804718017578,  0.14118577539920806884766,  -0.00229617045260965824127,  0.15912637114524841308594,  -0.14371000230312347412109,  0.06487885862588882446289,  -0.11345884948968887329102,  0.00778094073757529258728,  -0.17185539007186889648438,  0.12184908986091613769531,  0.07134522497653961181641,  0.10995734483003616333008,  -0.05754570662975311279297,  0.15401864051818847656250,  0.01692455448210239410400,  -0.02382695302367210388184,  0.13854700326919555664062,
 0.08258287608623504638672,  0.01675530336797237396240,  0.07036404311656951904297,  0.15554654598236083984375,  0.00634127436205744743347,  -0.12846104800701141357422,  -0.09537652879953384399414,  -0.03901069611310958862305,  -0.05603590235114097595215,  -0.05967528373003005981445,  -0.16431345045566558837891,  0.08622071892023086547852,  -0.08413951098918914794922,  0.18324710428714752197266,  0.08089280128479003906250,  -0.13018274307250976562500,  -0.01045910455286502838135,  -0.04289704933762550354004,  -0.10429297387599945068359,  0.05062892660498619079590,  -0.08756995946168899536133,  -0.05167122930288314819336,  -0.14765167236328125000000,  0.02246645838022232055664,  -0.15806826949119567871094,  -0.14955779910087585449219,  0.05738282203674316406250,  -0.03176224231719970703125,  -0.07771065831184387207031,  0.12139574438333511352539,  -0.15362687408924102783203,  0.10645755380392074584961,  0.16506147384643554687500,  -0.07818681746721267700195,  -0.04220774024724960327148,  -0.16208475828170776367188,  0.00519883492961525917053,  0.18322320282459259033203,  -0.13463905453681945800781,  -0.10735204815864562988281,  -0.05882025137543678283691,  0.18439392745494842529297,  0.01214275043457746505737,  -0.08107875287532806396484,  0.00450231647118926048279,  0.05506241694092750549316,  -0.01944901049137115478516,  0.06397455185651779174805,  0.15184254944324493408203,  -0.05738734453916549682617,  -0.04999691620469093322754,  0.03988531231880187988281,  -0.08868493139743804931641,  -0.14299395680427551269531,  -0.07084961980581283569336,  -0.07533159106969833374023,  -0.15982930362224578857422,  -0.14526470005512237548828,  -0.18179073929786682128906,  -0.14085838198661804199219,  -0.05696840211749076843262,  -0.15443304181098937988281,  -0.11869119107723236083984,  -0.03163293376564979553223,  0.07010392844676971435547,  0.03497141227126121520996,  0.00808806437999010086060,  -0.14347423613071441650391,  0.06243883818387985229492,  -0.05044819042086601257324,  -0.04777618497610092163086,  0.06254927068948745727539,  -0.13895937800407409667969,  -0.01710826158523559570312,  0.03215532004833221435547,  0.08566585928201675415039,  0.09516567736864089965820,  -0.00516435923054814338684,  -0.02628252282738685607910,  -0.10969053953886032104492,  -0.04960475116968154907227,  -0.14856512844562530517578,  0.20391085743904113769531,  -0.03864605352282524108887,
 0.09181177616119384765625,  0.16717687249183654785156,  0.15256960690021514892578,  -0.11872367560863494873047,  -0.11531411111354827880859,  0.09096769243478775024414,  -0.04664168134331703186035,  0.14974294602870941162109,  0.06371305882930755615234,  0.08384218811988830566406,  -0.14817334711551666259766,  0.11800941824913024902344,  -0.07152260094881057739258,  0.04686297476291656494141,  0.11594723910093307495117,  0.01370500121265649795532,  -0.07047000527381896972656,  -0.03629548847675323486328,  0.11903307586908340454102,  -0.15562012791633605957031,  0.01211927551776170730591,  -0.04849423468112945556641,  0.12443496286869049072266,  0.03252016007900238037109,  -0.14242407679557800292969,  0.15100672841072082519531,  -0.10407103598117828369141,  -0.16986882686614990234375,  -0.12209787219762802124023,  -0.04012856259942054748535,  -0.04938527196645736694336,  -0.09705361723899841308594,  0.12594357132911682128906,  -0.05082824453711509704590,  -0.00547679373994469642639,  0.14117692410945892333984,  -0.10676755011081695556641,  -0.11080877482891082763672,  -0.17250235378742218017578,  -0.13123518228530883789062,  -0.08976091444492340087891,  0.09450419992208480834961,  -0.15046396851539611816406,  -0.03509993851184844970703,  -0.11448717117309570312500,  0.06487850099802017211914,  -0.15466603636741638183594,  -0.06591288000345230102539,  0.03044520318508148193359,  -0.08848857134580612182617,  -0.11015225946903228759766,  0.00314241438172757625580,  -0.16645206511020660400391,  -0.13574543595314025878906,  -0.05214522778987884521484,  -0.05372795090079307556152,  -0.01802167296409606933594,  -0.00846524629741907119751,  -0.11404875665903091430664,  0.10334107279777526855469,  -0.04414470121264457702637,  0.13916167616844177246094,  -0.10573524981737136840820,  -0.11682073026895523071289,  0.07453505694866180419922,  0.12262065708637237548828,  -0.11887638270854949951172,  -0.14149408042430877685547,  -0.11129552870988845825195,  0.13125990331172943115234,  -0.16641589999198913574219,  -0.07110957801342010498047,  -0.15890653431415557861328,  0.13288035988807678222656,  -0.12956222891807556152344,  -0.15853801369667053222656,  -0.09601288288831710815430,  -0.03782892972230911254883,  0.06399694830179214477539,  -0.07766789197921752929688,  -0.14330926537513732910156,  -0.00037154642632231116295,  -0.00785091333091259002686,  -0.14075429737567901611328,
 -0.12342305481433868408203,  -0.02653614617884159088135,  0.16558229923248291015625,  0.16179075837135314941406,  0.07821013778448104858398,  -0.01881863735616207122803,  -0.09073866158723831176758,  -0.14364300668239593505859,  0.08144626766443252563477,  -0.04662269726395606994629,  0.07211025059223175048828,  0.18860055506229400634766,  0.01273968163877725601196,  0.00183183280751109123230,  -0.05970087274909019470215,  0.19017051160335540771484,  -0.06612008064985275268555,  -0.03221516311168670654297,  0.00444220984354615211487,  -0.14619167149066925048828,  0.10995883494615554809570,  0.15500107407569885253906,  0.03199306502938270568848,  0.11136791110038757324219,  -0.11767487972974777221680,  -0.09151872247457504272461,  0.18599401414394378662109,  0.02197987958788871765137,  0.14793859422206878662109,  -0.00708733359351754188538,  0.01593214645981788635254,  0.07523953914642333984375,  -0.11073800921440124511719,  -0.07435912638902664184570,  0.12678572535514831542969,  -0.15541110932826995849609,  0.17046289145946502685547,  -0.09168873727321624755859,  0.13234129548072814941406,  -0.12446422874927520751953,  0.09369072318077087402344,  -0.12983037531375885009766,  -0.04946472123265266418457,  0.12321399897336959838867,  -0.15442802011966705322266,  -0.02950599417090415954590,  0.08926112204790115356445,  0.02219269610941410064697,  0.15428860485553741455078,  -0.08864562213420867919922,  -0.09113186597824096679688,  -0.14151410758495330810547,  0.13610945641994476318359,  0.05508686602115631103516,  0.11844623088836669921875,  0.10800164937973022460938,  -0.03144551813602447509766,  -0.16141732037067413330078,  -0.03666981682181358337402,  0.02394869178533554077148,  0.02536334842443466186523,  -0.10466552525758743286133,  0.11669779568910598754883,  0.10207658261060714721680,  -0.01381384581327438354492,  0.11273778229951858520508,  -0.08039660751819610595703,  0.01533587183803319931030,  -0.12741224467754364013672,  0.06548496335744857788086,  -0.13377046585083007812500,  -0.02826659381389617919922,  0.08696031570434570312500,  -0.12119064480066299438477,  -0.10144568234682083129883,  0.12329694628715515136719,  -0.08306334912776947021484,  0.08657879382371902465820,  -0.15051063895225524902344,  0.06401523947715759277344,  -0.01526214834302663803101,  -0.02610833942890167236328,  0.08662078529596328735352,  -0.09239120036363601684570,
 0.03481023386120796203613,  -0.16779817640781402587891,  -0.11544857174158096313477,  0.16172218322753906250000,  0.04592661187052726745605,  0.10345064848661422729492,  0.12597292661666870117188,  -0.15375699102878570556641,  -0.01833021640777587890625,  -0.04082737490534782409668,  -0.16397665441036224365234,  -0.00051298079779371619225,  0.07401631027460098266602,  -0.08235679566860198974609,  0.08139584958553314208984,  0.05592477321624755859375,  -0.18388815224170684814453,  -0.02560985088348388671875,  -0.16240991652011871337891,  -0.12705738842487335205078,  0.10000483691692352294922,  0.15009309351444244384766,  0.07030098140239715576172,  -0.04504157602787017822266,  -0.06948836147785186767578,  0.13433192670345306396484,  0.15631674230098724365234,  -0.12896494567394256591797,  0.05207182466983795166016,  -0.15939393639564514160156,  0.07510631531476974487305,  0.05667089670896530151367,  0.11924774199724197387695,  0.17838509380817413330078,  -0.01019221078604459762573,  -0.04164117574691772460938,  -0.10044275969266891479492,  -0.05536998435854911804199,  -0.13476148247718811035156,  -0.18923458456993103027344,  0.10071216523647308349609,  -0.08144289255142211914062,  0.00289518479257822036743,  0.05605174973607063293457,  0.14588180184364318847656,  -0.14749038219451904296875,  0.15156100690364837646484,  0.11543327569961547851562,  0.05581488832831382751465,  0.06516371667385101318359,  -0.03514241799712181091309,  -0.10849855095148086547852,  -0.13967636227607727050781,  -0.12146896868944168090820,  -0.13847029209136962890625,  -0.00725184101611375808716,  -0.13779427111148834228516,  -0.19826595485210418701172,  0.04571653157472610473633,  0.13993164896965026855469,  0.09863650053739547729492,  0.13096013665199279785156,  -0.03306775167584419250488,  -0.00845591071993112564087,  -0.05204334110021591186523,  -0.10897814482450485229492,  -0.01730105094611644744873,  0.03497625887393951416016,  -0.05897547304630279541016,  -0.11981919407844543457031,  0.13683348894119262695312,  0.09872581064701080322266,  -0.13923792541027069091797,  0.11692368239164352416992,  0.06309054791927337646484,  -0.09367555379867553710938,  0.07366079092025756835938,  0.07063057273626327514648,  -0.09460631757974624633789,  0.04211774468421936035156,  0.13906842470169067382812,  -0.14190621674060821533203,  0.08522593230009078979492,  0.16327591240406036376953,
 0.09191031754016876220703,  0.07504208385944366455078,  0.17451824247837066650391,  0.11549185961484909057617,  0.09543318301439285278320,  0.07846052944660186767578,  -0.14160481095314025878906,  0.06012976914644241333008,  -0.05856442451477050781250,  0.16819024085998535156250,  -0.14237388968467712402344,  0.04719771444797515869141,  0.09995183348655700683594,  -0.09447992593050003051758,  -0.04190400987863540649414,  0.06385719776153564453125,  0.17084006965160369873047,  0.02833557873964309692383,  -0.01159862894564867019653,  -0.09832187741994857788086,  -0.02663001418113708496094,  0.09269133210182189941406,  -0.05706156790256500244141,  0.01284931972622871398926,  -0.09754110872745513916016,  0.06312268972396850585938,  0.02875228598713874816895,  -0.13283002376556396484375,  -0.07820589095354080200195,  0.13273823261260986328125,  0.12865544855594635009766,  0.06655087321996688842773,  -0.15461386740207672119141,  -0.03326818346977233886719,  -0.04128759726881980895996,  -0.04681981354951858520508,  -0.13389879465103149414062,  0.08284880220890045166016,  -0.06363700330257415771484,  -0.01321477070450782775879,  0.05855974927544593811035,  -0.18953308463096618652344,  0.01629120483994483947754,  0.11118324100971221923828,  -0.06019160896539688110352,  -0.02322224155068397521973,  -0.07229207456111907958984,  0.09416168183088302612305,  0.10718815028667449951172,  -0.15595446527004241943359,  0.00361369689926505088806,  -0.15126706659793853759766,  0.09551674872636795043945,  -0.01597821339964866638184,  0.07702313363552093505859,  0.08721274882555007934570,  0.08796872198581695556641,  -0.05202193185687065124512,  -0.02759108506143093109131,  -0.13915087282657623291016,  -0.06107669323682785034180,  0.01523011550307273864746,  0.13096646964550018310547,  0.07310045510530471801758,  0.05052599683403968811035,  0.11819151788949966430664,  0.12118072807788848876953,  0.07020039856433868408203,  0.05801302567124366760254,  -0.16520933806896209716797,  0.11651471257209777832031,  0.18357869982719421386719,  -0.07835537195205688476562,  -0.11617182195186614990234,  -0.05509822443127632141113,  0.05321524292230606079102,  -0.14437472820281982421875,  -0.10671154409646987915039,  -0.00599409407004714012146,  0.03077348880469799041748,  0.04176750034093856811523,  -0.13375841081142425537109,  -0.11382827162742614746094,  0.16117656230926513671875,
 0.13472644984722137451172,  0.07079476863145828247070,  0.00184764794539660215378,  0.02889225818216800689697,  0.10694877803325653076172,  -0.07474108785390853881836,  0.06630752980709075927734,  -0.18689136207103729248047,  -0.05172163993120193481445,  -0.02021005935966968536377,  -0.12837667763233184814453,  0.18145141005516052246094,  -0.12462909519672393798828,  -0.10966434329748153686523,  -0.14236065745353698730469,  -0.11813864856958389282227,  -0.07007725536823272705078,  0.01445407234132289886475,  -0.15880878269672393798828,  -0.12039212137460708618164,  0.08823072910308837890625,  0.13925504684448242187500,  -0.03697830811142921447754,  -0.08701056241989135742188,  -0.09136929363012313842773,  -0.06232558563351631164551,  0.07873569428920745849609,  0.04875512048602104187012,  0.01215469744056463241577,  0.00607632473111152648926,  0.16394793987274169921875,  -0.11225870996713638305664,  0.12031934410333633422852,  0.13039261102676391601562,  -0.03668854758143424987793,  0.18914714455604553222656,  0.16950917243957519531250,  -0.11714283376932144165039,  0.03471376374363899230957,  -0.08090849965810775756836,  -0.07373292744159698486328,  -0.12905871868133544921875,  0.00655411090701818466187,  -0.07304469496011734008789,  0.04992689192295074462891,  0.03141179308295249938965,  -0.02673502080142498016357,  0.08351865410804748535156,  0.05251249670982360839844,  -0.13848075270652770996094,  0.02927144616842269897461,  0.00502135744318366050720,  -0.05362317338585853576660,  0.06221856921911239624023,  -0.04140754416584968566895,  0.03689379245042800903320,  0.05432429909706115722656,  -0.06721321493387222290039,  0.04631442204117774963379,  0.11243417859077453613281,  0.09938632696866989135742,  0.03506538644433021545410,  -0.00102939410135149955750,  0.16963049769401550292969,  -0.03911685571074485778809,  -0.07259359955787658691406,  0.01923312619328498840332,  0.01021313574165105819702,  0.05209397152066230773926,  0.04042747616767883300781,  -0.08900059759616851806641,  -0.15665160119533538818359,  0.00487394025549292564392,  0.04927823320031166076660,  -0.02113072574138641357422,  -0.19837498664855957031250,  -0.01695786416530609130859,  0.09049552679061889648438,  -0.08377273380756378173828,  -0.09164921194314956665039,  -0.04963330179452896118164,  -0.14591477811336517333984,  -0.11267559230327606201172,  -0.11578678339719772338867,
 0.12554952502250671386719,  -0.07896158844232559204102,  0.15925930440425872802734,  0.17031322419643402099609,  0.02891504578292369842529,  0.07095512747764587402344,  0.06478363275527954101562,  0.02512338384985923767090,  0.12731879949569702148438,  0.17157337069511413574219,  -0.00893608666956424713135,  0.03439710289239883422852,  0.11107339709997177124023,  -0.07718229293823242187500,  0.13078026473522186279297,  0.12910251319408416748047,  0.00728539796546101570129,  0.05361186340451240539551,  -0.00741920247673988342285,  0.14745545387268066406250,  -0.15803986787796020507812,  -0.02268002182245254516602,  0.03019916079938411712646,  -0.06559068709611892700195,  0.11573832482099533081055,  0.12298427522182464599609,  0.19644995033740997314453,  -0.15860171616077423095703,  -0.01980805210769176483154,  0.02917687408626079559326,  -0.15495797991752624511719,  -0.07954263687133789062500,  -0.08904599398374557495117,  0.16940203309059143066406,  -0.03341722115874290466309,  -0.10700364410877227783203,  0.16843038797378540039062,  -0.11544815450906753540039,  0.11495295912027359008789,  0.02667205780744552612305,  -0.16725362837314605712891,  0.14234396815299987792969,  -0.10418673604726791381836,  0.07944889366626739501953,  0.09126082062721252441406,  0.11952280253171920776367,  0.08924496173858642578125,  0.06152482330799102783203,  0.01575493998825550079346,  0.08340282738208770751953,  0.13687442243099212646484,  -0.15641002357006072998047,  0.16870795190334320068359,  -0.11395879834890365600586,  0.11381368339061737060547,  0.07447706162929534912109,  -0.17238655686378479003906,  0.07241746038198471069336,  -0.10821811854839324951172,  -0.13686110079288482666016,  -0.10776514559984207153320,  0.05446721240878105163574,  -0.00652988906949758529663,  0.14508782327175140380859,  0.12459145486354827880859,  -0.02626337669789791107178,  0.07384426891803741455078,  0.20356699824333190917969,  0.07342377305030822753906,  -0.15789671242237091064453,  -0.08307366818189620971680,  -0.09651474654674530029297,  -0.12453533709049224853516,  0.10765950381755828857422,  0.16359986364841461181641,  0.14366126060485839843750,  0.20008938014507293701172,  -0.15741458535194396972656,  0.00931646768003702163696,  0.08877158910036087036133,  0.14088156819343566894531,  -0.16885808110237121582031,  0.06681180745363235473633,  0.19481264054775238037109,
 0.05444673821330070495605,  -0.12480916827917098999023,  0.17431344091892242431641,  -0.08911447972059249877930,  0.09717890620231628417969,  -0.14111173152923583984375,  -0.02902241051197052001953,  0.16968345642089843750000,  -0.11668096482753753662109,  0.06737929582595825195312,  -0.06462016701698303222656,  -0.09483514726161956787109,  -0.05138507857918739318848,  -0.11180663108825683593750,  -0.07253412157297134399414,  -0.00144329504109919071198,  0.05980810895562171936035,  -0.07853691279888153076172,  -0.06732136011123657226562,  0.08867505192756652832031,  0.05001184716820716857910,  0.04872821271419525146484,  0.05811368301510810852051,  -0.15110808610916137695312,  -0.07435294985771179199219,  -0.15128271281719207763672,  0.06572802364826202392578,  -0.00644372217357158660889,  -0.04480879753828048706055,  -0.07573843002319335937500,  -0.12310132384300231933594,  -0.07677923142910003662109,  -0.08036937564611434936523,  0.13197618722915649414062,  -0.08810134977102279663086,  0.19885925948619842529297,  -0.14588229358196258544922,  -0.07771728187799453735352,  -0.00406541116535663604736,  -0.05571465194225311279297,  0.10580252110958099365234,  -0.08106391876935958862305,  0.09172423183917999267578,  0.14137905836105346679688,  0.09576926380395889282227,  -0.04761455580592155456543,  0.15991117060184478759766,  -0.05302591621875762939453,  -0.08525481820106506347656,  0.08991695940494537353516,  -0.07206999510526657104492,  0.00320539250969886779785,  0.00663823820650577545166,  -0.14742577075958251953125,  0.11833550781011581420898,  0.13953310251235961914062,  0.16063462197780609130859,  -0.04520699754357337951660,  0.12971718609333038330078,  0.12299907207489013671875,  -0.13862706720829010009766,  0.12712451815605163574219,  0.08650691807270050048828,  0.15171754360198974609375,  -0.08663491904735565185547,  0.06345143169164657592773,  0.03454213216900825500488,  0.01247763819992542266846,  -0.12128588557243347167969,  -0.03442000225186347961426,  -0.11554314941167831420898,  -0.07132167369127273559570,  0.07188887894153594970703,  -0.03121645748615264892578,  -0.07198594510555267333984,  0.01683957874774932861328,  -0.13975219428539276123047,  0.02813550829887390136719,  -0.17451542615890502929688,  0.12143529951572418212891,  -0.16626569628715515136719,  0.10857184231281280517578,  0.04604772105813026428223,  0.13507020473480224609375,
 -0.16405010223388671875000,  0.13496591150760650634766,  0.16045251488685607910156,  -0.08612112700939178466797,  -0.06448168307542800903320,  -0.04407777637243270874023,  -0.17125767469406127929688,  -0.02559763565659523010254,  -0.02423802576959133148193,  -0.08992005139589309692383,  -0.13194420933723449707031,  -0.06866810470819473266602,  -0.11357887089252471923828,  -0.11004172265529632568359,  0.00980246346443891525269,  -0.01071171648800373077393,  -0.08541049808263778686523,  0.16150815784931182861328,  -0.02404459193348884582520,  -0.06985654681921005249023,  -0.01816180162131786346436,  0.07846604287624359130859,  -0.04635582491755485534668,  0.10025497525930404663086,  -0.14739328622817993164062,  0.12305460870265960693359,  0.05816178768873214721680,  -0.06460776180028915405273,  0.02041925862431526184082,  -0.04408401995897293090820,  -0.13650885224342346191406,  -0.08037908375263214111328,  0.07183167338371276855469,  -0.13178007304668426513672,  -0.05277260392904281616211,  0.08819093555212020874023,  0.06398094445466995239258,  -0.14067068696022033691406,  -0.12223517894744873046875,  0.10560753941535949707031,  0.00996293034404516220093,  -0.02221746556460857391357,  -0.05041937530040740966797,  -0.13764181733131408691406,  0.01928868517279624938965,  0.10910563170909881591797,  -0.12803788483142852783203,  -0.11624661087989807128906,  -0.14579325914382934570312,  0.14779816567897796630859,  0.07575602829456329345703,  -0.10659745335578918457031,  0.08027506619691848754883,  -0.12849611043930053710938,  0.01558096893131732940674,  0.06898717582225799560547,  0.05946302786469459533691,  -0.16065415740013122558594,  0.02981622517108917236328,  0.10268338024616241455078,  0.07793935388326644897461,  0.00466724438592791557312,  -0.02664974331855773925781,  0.09997572749853134155273,  0.14860901236534118652344,  0.10349579900503158569336,  0.02366364002227783203125,  0.00311450171284377574921,  0.09943786263465881347656,  0.01045309659093618392944,  0.10960835218429565429688,  0.03566899523138999938965,  0.00866559706628322601318,  0.04116512089967727661133,  -0.04314506053924560546875,  -0.16416667401790618896484,  0.00560706295073032379150,  0.02926605381071567535400,  -0.11051573604345321655273,  -0.13233631849288940429688,  0.14252194762229919433594,  0.12102385610342025756836,  0.08750474452972412109375,  0.16805222630500793457031,
 -0.00961066503077745437622,  0.00254715303890407085419,  -0.04575560241937637329102,  0.10074199736118316650391,  0.11407086998224258422852,  0.02146104164421558380127,  -0.06726641952991485595703,  -0.05108220130205154418945,  -0.14860099554061889648438,  0.02743870951235294342041,  0.06054572016000747680664,  -0.05754666402935981750488,  0.18016128242015838623047,  -0.13226105272769927978516,  -0.02478173188865184783936,  0.02996117249131202697754,  -0.06527987122535705566406,  0.05857994034886360168457,  -0.11628316342830657958984,  -0.03160025179386138916016,  -0.09801597148180007934570,  0.06350167840719223022461,  -0.13025972247123718261719,  -0.15195158123970031738281,  -0.07137396186590194702148,  0.14461250603199005126953,  -0.09501159936189651489258,  -0.04012440145015716552734,  0.07143253833055496215820,  -0.00814880803227424621582,  0.11531166732311248779297,  0.07209479063749313354492,  0.07927235215902328491211,  0.09003361314535140991211,  -0.12868832051753997802734,  0.05937885493040084838867,  0.02973153255879878997803,  0.09187183529138565063477,  0.08558037877082824707031,  -0.15535502135753631591797,  0.11596385389566421508789,  -0.06366826593875885009766,  -0.05507045611739158630371,  -0.01754231937229633331299,  -0.03233948722481727600098,  -0.06781718879938125610352,  0.17121221125125885009766,  -0.10320423543453216552734,  0.00720355473458766937256,  -0.15774162113666534423828,  0.12950308620929718017578,  -0.02770627662539482116699,  0.15909034013748168945312,  -0.06356778740882873535156,  0.03916903585195541381836,  0.08587495237588882446289,  -0.04974739998579025268555,  -0.16272585093975067138672,  0.00116835441440343856812,  -0.06060070917010307312012,  -0.11807619035243988037109,  0.08074109256267547607422,  -0.12951125204563140869141,  -0.00063160306308418512344,  0.15415689349174499511719,  -0.07434236258268356323242,  0.10343623906373977661133,  -0.14588987827301025390625,  0.14397165179252624511719,  -0.17305091023445129394531,  0.13569229841232299804688,  -0.09636268019676208496094,  0.15837675333023071289062,  0.09209341555833816528320,  0.14829954504966735839844,  -0.16526600718498229980469,  0.07131555676460266113281,  -0.12757124006748199462891,  0.05399588495492935180664,  0.13575772941112518310547,  -0.16605837643146514892578,  -0.00271645328029990196228,  -0.07386507838964462280273,  0.02580662257969379425049,
 0.07196407765150070190430,  0.01232671365141868591309,  0.13520711660385131835938,  -0.08795057237148284912109,  -0.10344903916120529174805,  0.09492045640945434570312,  0.02933064103126525878906,  0.12712170183658599853516,  -0.15917545557022094726562,  0.08163429051637649536133,  -0.17210619151592254638672,  0.04801416024565696716309,  0.06825990229845046997070,  0.16952790319919586181641,  0.11680825799703598022461,  0.06486362963914871215820,  0.01298595964908599853516,  0.04506248980760574340820,  -0.04619001597166061401367,  0.07580064237117767333984,  -0.03401905298233032226562,  0.04951149970293045043945,  -0.10113783180713653564453,  0.14863865077495574951172,  -0.04992122948169708251953,  -0.10672603547573089599609,  0.01905949227511882781982,  -0.15826547145843505859375,  0.03118139877915382385254,  -0.04413414373993873596191,  0.13021412491798400878906,  0.03367422521114349365234,  0.05522611364722251892090,  0.00161641277372837066650,  -0.07940612733364105224609,  -0.03175015002489089965820,  0.03633833676576614379883,  -0.07497763633728027343750,  0.08945979923009872436523,  0.07074078172445297241211,  -0.08248378336429595947266,  -0.03573507070541381835938,  -0.04546036571264266967773,  0.08254835754632949829102,  -0.09816228598356246948242,  -0.06393823027610778808594,  0.13158111274242401123047,  -0.02821562252938747406006,  -0.17885786294937133789062,  -0.04920585453510284423828,  0.00449166446924209594727,  -0.09578117728233337402344,  0.13634480535984039306641,  0.07934533804655075073242,  -0.13357309997081756591797,  0.06064508110284805297852,  0.12002389132976531982422,  -0.06209365278482437133789,  0.05705525726079940795898,  -0.01356604974716901779175,  -0.04973213747143745422363,  0.04590544477105140686035,  -0.06036397814750671386719,  0.06685230135917663574219,  -0.09512589126825332641602,  0.19810444116592407226562,  0.04377597197890281677246,  -0.09388075768947601318359,  -0.11359030008316040039062,  -0.04264677688479423522949,  -0.06762110441923141479492,  0.12382818758487701416016,  0.02842414379119873046875,  0.01689734309911727905273,  -0.01483033224940299987793,  -0.00325213000178337097168,  0.02209201268851757049561,  0.05178235098719596862793,  0.06036624684929847717285,  0.02947262302041053771973,  0.04311471804976463317871,  -0.15720762312412261962891,  0.05726478993892669677734,  -0.11742534488439559936523,
 -0.16145889461040496826172,  0.05374200642108917236328,  -0.11725957691669464111328,  -0.16380555927753448486328,  0.11308555305004119873047,  0.12769727408885955810547,  -0.08183193206787109375000,  0.13475503027439117431641,  0.07116296142339706420898,  0.07647944241762161254883,  -0.01667531952261924743652,  -0.04057462513446807861328,  0.00735713215544819831848,  -0.03486623242497444152832,  -0.06747016310691833496094,  0.00726175727322697639465,  -0.18056897819042205810547,  0.01258451305329799652100,  0.09570003300905227661133,  0.03876955807209014892578,  -0.15190170705318450927734,  -0.10823374986648559570312,  -0.05553588643670082092285,  -0.08759133517742156982422,  -0.06878839433193206787109,  0.04226204007863998413086,  -0.09042422473430633544922,  0.11555604636669158935547,  -0.01156532857567071914673,  0.02388355322182178497314,  -0.15181890130043029785156,  0.16401025652885437011719,  -0.08679089695215225219727,  0.16198384761810302734375,  -0.08893197774887084960938,  -0.05526464805006980895996,  -0.16705857217311859130859,  -0.08738910406827926635742,  -0.06552037596702575683594,  -0.04186866059899330139160,  -0.11588241904973983764648,  0.15217243134975433349609,  -0.10491791367530822753906,  0.20364569127559661865234,  0.03581329062581062316895,  -0.00005511058770935051143,  0.03887940570712089538574,  -0.15158106386661529541016,  -0.07480266690254211425781,  0.01368781924247741699219,  -0.08088514208793640136719,  -0.06603333353996276855469,  -0.11577271670103073120117,  -0.07339560985565185546875,  0.16828504204750061035156,  -0.11170584708452224731445,  0.13960917294025421142578,  -0.04143359884619712829590,  -0.02789652161300182342529,  -0.00757678737863898277283,  0.09379037469625473022461,  0.02818140015006065368652,  -0.11153957992792129516602,  0.13542979955673217773438,  -0.06901215761899948120117,  0.16207300126552581787109,  -0.13971725106239318847656,  0.17847947776317596435547,  -0.04379650577902793884277,  0.17434167861938476562500,  -0.10757768154144287109375,  0.03996834531426429748535,  0.18584914505481719970703,  0.08586677908897399902344,  -0.05257913842797279357910,  -0.18593776226043701171875,  -0.16755819320678710937500,  0.10824895650148391723633,  0.14171336591243743896484,  0.15093615651130676269531,  -0.04989593848586082458496,  -0.12680569291114807128906,  0.07137760519981384277344,  -0.16543111205101013183594,
 -0.09163089096546173095703,  0.05318123474717140197754,  -0.03253875672817230224609,  0.14069673418998718261719,  0.13915887475013732910156,  0.17707169055938720703125,  -0.03658623248338699340820,  -0.00149424897972494363785,  -0.17470632493495941162109,  0.18778358399868011474609,  0.16234427690505981445312,  0.04545992612838745117188,  0.02050875127315521240234,  0.15785838663578033447266,  0.07443966716527938842773,  0.02805663831532001495361,  0.01950208283960819244385,  -0.15423688292503356933594,  0.15254847705364227294922,  -0.06633084267377853393555,  -0.04154378175735473632812,  -0.01126493979245424270630,  0.15397994220256805419922,  -0.16823498904705047607422,  -0.15270863473415374755859,  0.09793226420879364013672,  -0.13416691124439239501953,  -0.13375194370746612548828,  0.02156650647521018981934,  -0.02029127255082130432129,  -0.00304009369574487209320,  0.17891122400760650634766,  -0.01677528768777847290039,  0.08262263983488082885742,  -0.02213151194155216217041,  0.13293747603893280029297,  0.00274083809927105903625,  0.03517102077603340148926,  0.14967297017574310302734,  0.04398591443896293640137,  0.02320264093577861785889,  0.12711794674396514892578,  0.09632831066846847534180,  -0.10902083665132522583008,  -0.16429944336414337158203,  0.09121882915496826171875,  0.14264702796936035156250,  0.15273426473140716552734,  0.15002638101577758789062,  -0.06953416019678115844727,  -0.07502689212560653686523,  -0.16018994152545928955078,  -0.04077772423624992370605,  0.05163310840725898742676,  -0.12344568967819213867188,  0.12746845185756683349609,  0.14006322622299194335938,  -0.19664727151393890380859,  -0.14177756011486053466797,  0.01403964404016733169556,  -0.15219320356845855712891,  0.01277654338628053665161,  0.15308849513530731201172,  -0.10961774736642837524414,  -0.05842200294137001037598,  -0.01890863850712776184082,  0.00049072183901444077492,  0.04906114935874938964844,  -0.10904856771230697631836,  -0.14174862205982208251953,  -0.13855999708175659179688,  0.08324483036994934082031,  0.08266922831535339355469,  0.13899059593677520751953,  0.14137287437915802001953,  -0.10269223153591156005859,  -0.11645282804965972900391,  0.05534752085804939270020,  0.09313657134771347045898,  -0.15623110532760620117188,  -0.16537725925445556640625,  0.11618439853191375732422,  0.13685278594493865966797,  0.06611377745866775512695,
 -0.08347696065902709960938,  -0.05129868537187576293945,  -0.01940894871950149536133,  0.06414712965488433837891,  -0.14257508516311645507812,  -0.03022533096373081207275,  0.02569884993135929107666,  -0.11370727419853210449219,  0.07778463512659072875977,  0.15356110036373138427734,  -0.10486318916082382202148,  0.10276846587657928466797,  0.01758168078958988189697,  0.03605793416500091552734,  0.09625910222530364990234,  0.14675261080265045166016,  0.04937981814146041870117,  -0.07779055833816528320312,  -0.04641733691096305847168,  -0.00452625751495361328125,  -0.07214724272489547729492,  -0.12320882827043533325195,  -0.14789743721485137939453,  -0.10728278756141662597656,  0.06674036383628845214844,  0.11396376043558120727539,  -0.02759217098355293273926,  0.09580317884683609008789,  -0.05414154380559921264648,  -0.14210590720176696777344,  0.03534865751862525939941,  0.08037482947111129760742,  0.06305705010890960693359,  -0.00010575014312053099275,  0.07605119794607162475586,  0.05352712050080299377441,  0.07366279512643814086914,  0.01993975043296813964844,  0.06389255076646804809570,  -0.04432952404022216796875,  -0.00030075656832195818424,  -0.01690363883972167968750,  -0.05899695307016372680664,  -0.01617141254246234893799,  -0.12156037986278533935547,  -0.01529200188815593719482,  -0.15828390419483184814453,  -0.04810783639550209045410,  -0.08423919975757598876953,  0.02806334197521209716797,  -0.01527525205165147781372,  0.00380473374389111995697,  -0.10662043839693069458008,  -0.09741541743278503417969,  -0.13215433061122894287109,  -0.00121498585212975740433,  -0.16618655622005462646484,  0.15482571721076965332031,  0.16207972168922424316406,  -0.00405342224985361099243,  -0.01529120840132236480713,  0.13470967113971710205078,  -0.12192757427692413330078,  0.14221890270709991455078,  0.00696736248210072517395,  -0.01616111956536769866943,  0.08351397514343261718750,  -0.03354850411415100097656,  0.04005727916955947875977,  -0.15820375084877014160156,  -0.10663793981075286865234,  0.03097311779856681823730,  -0.11583349108695983886719,  0.06359989941120147705078,  0.10823035240173339843750,  -0.00544784450903534889221,  -0.00949398986995220184326,  0.04985742270946502685547,  0.04680829495191574096680,  0.09654092788696289062500,  -0.03164649382233619689941,  -0.15746784210205078125000,  -0.02558235265314579010010,  0.05811550468206405639648,
 0.09006121009588241577148,  -0.09065034240484237670898,  -0.05424049124121665954590,  0.16304917633533477783203,  -0.08831216394901275634766,  -0.17136436700820922851562,  0.06089011952280998229980,  0.12593564391136169433594,  -0.10934045165777206420898,  0.09122246503829956054688,  0.11745408177375793457031,  0.09649501740932464599609,  0.01177443750202655792236,  0.16051405668258666992188,  -0.11608027666807174682617,  0.10065187513828277587891,  -0.06831499934196472167969,  0.04306721314787864685059,  0.08698355406522750854492,  -0.02170690894126892089844,  -0.05185860395431518554688,  -0.04977826029062271118164,  0.05060501024127006530762,  0.02620618604123592376709,  -0.06437327712774276733398,  0.12932465970516204833984,  -0.12353491038084030151367,  -0.12669624388217926025391,  -0.01888457499444484710693,  0.07569340616464614868164,  0.11721850931644439697266,  -0.09780376404523849487305,  -0.18379405140876770019531,  0.04068749397993087768555,  -0.13988405466079711914062,  0.00799687486141920089722,  0.15829171240329742431641,  0.11794394999742507934570,  0.00916912406682968139648,  0.11681496351957321166992,  -0.14564085006713867187500,  -0.08812034130096435546875,  -0.04868074133992195129395,  -0.04618791490793228149414,  -0.17152640223503112792969,  -0.01019250601530075073242,  0.12457655370235443115234,  0.01680786348879337310791,  -0.07441898435354232788086,  -0.09103522449731826782227,  -0.05642377212643623352051,  0.09310556948184967041016,  0.11277137696743011474609,  -0.12845890223979949951172,  -0.08100816607475280761719,  0.09447289258241653442383,  0.01096930913627147674561,  0.17836362123489379882812,  0.03098099306225776672363,  0.08797071129083633422852,  0.10198227316141128540039,  -0.08112024515867233276367,  -0.07348552346229553222656,  -0.17376612126827239990234,  -0.12888354063034057617188,  -0.15785446763038635253906,  0.04852426424622535705566,  -0.01133720111101865768433,  -0.03526946529746055603027,  0.03733428567647933959961,  -0.01800340972840785980225,  -0.09947549551725387573242,  0.17958375811576843261719,  0.11002392321825027465820,  0.02178971841931343078613,  -0.01623529195785522460938,  -0.11013551056385040283203,  0.04731269553303718566895,  -0.10761554539203643798828,  -0.05419477820396423339844,  -0.03843119367957115173340,  0.07921172678470611572266,  0.11759996414184570312500,  0.15105265378952026367188,
 -0.06777465343475341796875,  -0.10432601720094680786133,  0.09690746665000915527344,  0.03455978631973266601562,  -0.01848801970481872558594,  -0.05833508819341659545898,  -0.02456827647984027862549,  -0.03755610436201095581055,  -0.01482375245541334152222,  -0.16965162754058837890625,  -0.05223688483238220214844,  -0.02251224219799041748047,  -0.15776872634887695312500,  -0.01183095946907997131348,  -0.01217412110418081283569,  0.04194878041744232177734,  0.08679515123367309570312,  0.10778494179248809814453,  -0.15709815919399261474609,  0.00960685685276985168457,  0.04470403492450714111328,  -0.10176370292901992797852,  0.02576683461666107177734,  -0.17044806480407714843750,  0.02905142307281494140625,  -0.05568623542785644531250,  -0.11354999989271163940430,  -0.05241304636001586914062,  -0.03404610231518745422363,  0.01386627275496721267700,  0.11923613399267196655273,  -0.07319273054599761962891,  -0.12335734814405441284180,  0.16579015552997589111328,  -0.06376349180936813354492,  -0.08581647276878356933594,  -0.13276351988315582275391,  -0.05257604643702507019043,  0.13474959135055541992188,  0.07553795725107192993164,  0.00755919516086578369141,  -0.12278630584478378295898,  0.05921497195959091186523,  0.13875210285186767578125,  0.12345792353153228759766,  -0.02363346517086029052734,  -0.06063789874315261840820,  -0.09767377376556396484375,  -0.05445653945207595825195,  -0.09376653283834457397461,  -0.00298681226558983325958,  -0.12081808596849441528320,  -0.08256053179502487182617,  0.02015884034335613250732,  0.11245679110288619995117,  -0.12016066908836364746094,  -0.14904275536537170410156,  0.14942450821399688720703,  -0.05868109688162803649902,  -0.02221804298460483551025,  0.14435881376266479492188,  -0.01709165982902050018311,  0.14064903557300567626953,  0.11394110321998596191406,  0.03162248432636260986328,  -0.05216329917311668395996,  -0.00069002632517367601395,  -0.02000586129724979400635,  0.15538977086544036865234,  -0.14921551942825317382812,  -0.06234389543533325195312,  0.04964993894100189208984,  -0.08543926477432250976562,  0.05195183679461479187012,  0.03940977156162261962891,  -0.05164378508925437927246,  0.15190380811691284179688,  -0.06441791355609893798828,  0.07537787407636642456055,  0.10342232882976531982422,  0.09783790260553359985352,  0.07012581080198287963867,  -0.14519059658050537109375,  -0.04895299300551414489746,
 -0.03237760066986083984375,  -0.13839475810527801513672,  0.04716264083981513977051,  0.06773146241903305053711,  0.07990889251232147216797,  0.10984877496957778930664,  -0.15709109604358673095703,  0.06824339926242828369141,  -0.09840346127748489379883,  -0.07125245779752731323242,  0.10761578381061553955078,  -0.15196289122104644775391,  -0.13783232867717742919922,  -0.11442857980728149414062,  -0.15812063217163085937500,  0.14928357303142547607422,  -0.08529701083898544311523,  -0.01414348185062408447266,  0.00038827490061521530151,  -0.08408696204423904418945,  0.13633175194263458251953,  -0.16388022899627685546875,  0.01330208405852317810059,  0.09102016687393188476562,  -0.04107943177223205566406,  0.02681338228285312652588,  0.07660047709941864013672,  -0.10462705790996551513672,  -0.02791883237659931182861,  0.13480977714061737060547,  0.08032289147377014160156,  -0.02273946814239025115967,  0.09790448844432830810547,  -0.15495271980762481689453,  0.13536113500595092773438,  0.07259450852870941162109,  0.12295386195182800292969,  -0.13857555389404296875000,  -0.14802284538745880126953,  -0.13617174327373504638672,  0.07216861844062805175781,  0.04254591092467308044434,  -0.03750657290220260620117,  0.07123883068561553955078,  -0.07797525078058242797852,  -0.04023649543523788452148,  -0.02147944830358028411865,  -0.09611687809228897094727,  0.06592609733343124389648,  -0.03793838620185852050781,  0.14155769348144531250000,  0.13206326961517333984375,  -0.05582018569111824035645,  0.06754334270954132080078,  -0.10507164895534515380859,  0.06321205943822860717773,  0.00717871915549039840698,  0.10720225423574447631836,  -0.10998374223709106445312,  0.07058172672986984252930,  -0.00503269024193286895752,  0.16496507823467254638672,  -0.02130299806594848632812,  -0.00750307086855173110962,  0.09042274206876754760742,  0.16373464465141296386719,  0.16400928795337677001953,  0.08206119388341903686523,  0.08716592937707901000977,  0.16923314332962036132812,  0.10705083608627319335938,  0.00873909611254930496216,  0.04498470202088356018066,  0.15468837320804595947266,  -0.00212912471033632755280,  0.03055320307612419128418,  0.05684310942888259887695,  -0.13894529640674591064453,  0.04966368898749351501465,  -0.10440515726804733276367,  -0.09383762627840042114258,  -0.15850567817687988281250,  -0.02153787761926651000977,  -0.11092398315668106079102,
 0.06486923247575759887695,  0.04019968211650848388672,  -0.10045941174030303955078,  -0.13029460608959197998047,  -0.07028045505285263061523,  0.03048450127243995666504,  -0.16885624825954437255859,  0.02379211410880088806152,  -0.09903432428836822509766,  0.06142111867666244506836,  0.04881994426250457763672,  -0.00271795829758048057556,  -0.00170479773078113794327,  0.03142775595188140869141,  0.11606960743665695190430,  0.16671848297119140625000,  -0.14223574101924896240234,  -0.17060017585754394531250,  0.08579277992248535156250,  0.05620206892490386962891,  -0.07158971577882766723633,  0.11539222300052642822266,  -0.14135229587554931640625,  0.03978077694773674011230,  0.12437435984611511230469,  -0.02548057585954666137695,  0.12391106039285659790039,  -0.17120583355426788330078,  0.05836904421448707580566,  0.12166211009025573730469,  -0.14013835787773132324219,  -0.08659792691469192504883,  0.14271856844425201416016,  0.10604368150234222412109,  -0.01822281815111637115479,  0.03478364273905754089355,  0.02340315841138362884521,  -0.03380745276808738708496,  -0.02507160604000091552734,  -0.10551521182060241699219,  -0.01934643276035785675049,  0.06789198517799377441406,  -0.01131334248930215835571,  0.05089138075709342956543,  -0.15363208949565887451172,  -0.14993737637996673583984,  -0.11017754673957824707031,  0.02652136795222759246826,  0.08677952736616134643555,  -0.01935994625091552734375,  0.06505376100540161132812,  -0.03368058428168296813965,  -0.16344165802001953125000,  -0.13051465153694152832031,  0.08911716192960739135742,  -0.16589489579200744628906,  0.15588146448135375976562,  -0.07203602790832519531250,  0.14508634805679321289062,  -0.05139079689979553222656,  -0.05705029144883155822754,  0.04448718577623367309570,  0.11276417970657348632812,  0.06048500910401344299316,  0.11936943233013153076172,  -0.15060836076736450195312,  0.08149717748165130615234,  -0.00399479549378156661987,  -0.04523480683565139770508,  -0.03237074241042137145996,  0.04821265861392021179199,  0.08230982720851898193359,  -0.05017343536019325256348,  0.17071118950843811035156,  -0.02709450572729110717773,  0.07110923528671264648438,  -0.07603877782821655273438,  0.08888834714889526367188,  0.03495667129755020141602,  0.02961738966405391693115,  0.12228202074766159057617,  0.02744528651237487792969,  -0.15897545218467712402344,  -0.13511207699775695800781,
 -0.00611318927258253097534,  -0.00999976787716150283813,  -0.03904314711689949035645,  -0.08388748019933700561523,  0.16299983859062194824219,  -0.06157210469245910644531,  -0.09668909013271331787109,  0.04938917607069015502930,  -0.09666583687067031860352,  0.07955890893936157226562,  0.09340755641460418701172,  0.14776228368282318115234,  -0.09038016200065612792969,  -0.05777304992079734802246,  0.12089741230010986328125,  0.08812306821346282958984,  0.06409567594528198242188,  -0.03194260597229003906250,  -0.07158312946557998657227,  -0.04077904671430587768555,  0.06742369383573532104492,  -0.13064572215080261230469,  -0.03771696612238883972168,  0.07455769926309585571289,  -0.12569123506546020507812,  0.01782429963350296020508,  -0.04043565690517425537109,  -0.00009897664858726784587,  0.17056648433208465576172,  0.05208749324083328247070,  -0.12220109254121780395508,  -0.05570077896118164062500,  -0.16944909095764160156250,  -0.14773467183113098144531,  -0.01508986484259366989136,  -0.03374984860420227050781,  0.09355706721544265747070,  0.11646336317062377929688,  0.06517092883586883544922,  0.17677412927150726318359,  0.14245605468750000000000,  0.04233052581548690795898,  0.16001385450363159179688,  0.05950013548135757446289,  -0.14818751811981201171875,  -0.02639792487025260925293,  -0.05112724751234054565430,  0.15342257916927337646484,  -0.18355502188205718994141,  -0.12958064675331115722656,  -0.10654565691947937011719,  -0.11309631913900375366211,  0.16026701033115386962891,  -0.15603040158748626708984,  -0.13346672058105468750000,  0.15285059809684753417969,  0.01180626917630434036255,  0.16417391598224639892578,  -0.04489454627037048339844,  0.14452208578586578369141,  -0.09902253746986389160156,  0.01138865575194358825684,  -0.00774197420105338096619,  0.09699475765228271484375,  -0.08530928194522857666016,  0.05553115904331207275391,  -0.14147892594337463378906,  -0.00441827159374952316284,  0.03998930752277374267578,  -0.14264313876628875732422,  -0.01334206480532884597778,  0.08078021556138992309570,  0.01045576576143503189087,  -0.10496419668197631835938,  0.19134674966335296630859,  0.17224375903606414794922,  -0.06471299380064010620117,  -0.05160556361079216003418,  0.05562438070774078369141,  0.12211238592863082885742,  -0.09055816382169723510742,  -0.02123810909688472747803,  -0.01265925541520118713379,  0.13300347328186035156250,
 0.14613841474056243896484,  -0.15017287433147430419922,  -0.03309160098433494567871,  -0.06464358419179916381836,  -0.09260196983814239501953,  -0.05533799901604652404785,  0.02125824615359306335449,  0.04583178833127021789551,  -0.03312409669160842895508,  0.05085631832480430603027,  -0.17287626862525939941406,  0.00829501822590827941895,  -0.13431310653686523437500,  0.07098629325628280639648,  0.02791058830916881561279,  0.07293100655078887939453,  -0.06021821498870849609375,  0.16901956498622894287109,  0.07769569009542465209961,  -0.19197647273540496826172,  0.15831966698169708251953,  -0.00256742676720023155212,  -0.12471999973058700561523,  0.01986557058990001678467,  -0.05118961632251739501953,  0.05532062798738479614258,  -0.14360496401786804199219,  -0.06865178048610687255859,  -0.13172614574432373046875,  0.17017117142677307128906,  0.07743194699287414550781,  0.01257369294762611389160,  0.10363996028900146484375,  -0.10330112278461456298828,  -0.15503193438053131103516,  -0.08483602851629257202148,  0.13117595016956329345703,  0.06668544560670852661133,  -0.16543839871883392333984,  0.08373122662305831909180,  0.09105548262596130371094,  0.05861182138323783874512,  0.03991551324725151062012,  0.10326729714870452880859,  -0.12357563525438308715820,  0.12558591365814208984375,  -0.10640358924865722656250,  -0.02092071250081062316895,  0.00382846780121326446533,  -0.14331196248531341552734,  0.06539340317249298095703,  0.16004320979118347167969,  -0.14258430898189544677734,  0.05969502776861190795898,  0.13404592871665954589844,  -0.04080568999052047729492,  -0.01721058599650859832764,  -0.09270694851875305175781,  0.13080921769142150878906,  -0.13679370284080505371094,  -0.09036409109830856323242,  -0.12758262455463409423828,  -0.09672088176012039184570,  -0.08799808472394943237305,  0.03675594180822372436523,  -0.01749501191079616546631,  0.04806206375360488891602,  -0.03391177952289581298828,  0.04659136012196540832520,  0.03715567663311958312988,  0.15344281494617462158203,  0.04270062223076820373535,  -0.06094794347882270812988,  -0.11446880549192428588867,  -0.12037967145442962646484,  -0.10083185136318206787109,  0.13191492855548858642578,  0.09942689538002014160156,  -0.05183778330683708190918,  0.03226270899176597595215,  0.05680567398667335510254,  -0.14888650178909301757812,  0.19037763774394989013672,  0.13011254370212554931641,
 -0.04548610374331474304199,  -0.05903772264719009399414,  -0.00445178989320993423462,  0.13654994964599609375000,  -0.05956697091460227966309,  -0.15266776084899902343750,  -0.12780746817588806152344,  0.02659190259873867034912,  0.08074908703565597534180,  0.09639779478311538696289,  0.13053168356418609619141,  -0.11626817286014556884766,  0.08472072333097457885742,  0.12193892896175384521484,  0.04327250272035598754883,  0.03084002248942852020264,  -0.11282157152891159057617,  -0.01246963441371917724609,  0.03516482934355735778809,  -0.16911415755748748779297,  0.08564916253089904785156,  0.15014098584651947021484,  0.13338339328765869140625,  -0.16414305567741394042969,  -0.13869369029998779296875,  0.06775139272212982177734,  0.14918234944343566894531,  -0.04506246745586395263672,  -0.10121736675500869750977,  0.14451262354850769042969,  -0.04022361338138580322266,  0.16977217793464660644531,  -0.12930852174758911132812,  0.04051100462675094604492,  0.07487574219703674316406,  0.02520977333188056945801,  -0.04443261772394180297852,  0.02602041326463222503662,  -0.01254194229841232299805,  0.03892227262258529663086,  -0.16523176431655883789062,  0.13662526011466979980469,  -0.15549917519092559814453,  -0.00104153936263173818588,  -0.07951451092958450317383,  0.14409568905830383300781,  -0.11147031933069229125977,  0.02802306227385997772217,  0.16803424060344696044922,  -0.12536664307117462158203,  0.08429745584726333618164,  0.07437021285295486450195,  0.01094637531787157058716,  -0.06094774231314659118652,  -0.08647588640451431274414,  0.00826204847544431686401,  -0.10442846268415451049805,  -0.11576484143733978271484,  0.07142111659049987792969,  -0.00648523448035120964050,  -0.10321024805307388305664,  0.09947982430458068847656,  0.07733833789825439453125,  -0.01202224567532539367676,  -0.09452080726623535156250,  0.11847986280918121337891,  -0.10257156938314437866211,  0.11623910814523696899414,  -0.13406756520271301269531,  -0.03812922537326812744141,  -0.02765726670622825622559,  -0.01542276609688997268677,  -0.13217350840568542480469,  0.06594482064247131347656,  -0.13257122039794921875000,  -0.03161333128809928894043,  -0.09049601852893829345703,  -0.16428020596504211425781,  -0.09361815452575683593750,  0.03250958025455474853516,  -0.08363085985183715820312,  -0.07694793492555618286133,  -0.03269741684198379516602,  0.15012787282466888427734,
 -0.07355153560638427734375,  -0.03783694654703140258789,  0.13805870711803436279297,  0.06988090276718139648438,  0.16580939292907714843750,  -0.10104226320981979370117,  0.14352566003799438476562,  0.14853882789611816406250,  0.00316400430165231227875,  -0.13076034188270568847656,  0.07645712047815322875977,  -0.10726022720336914062500,  -0.18317914009094238281250,  -0.01219953410327434539795,  0.13015274703502655029297,  -0.15369115769863128662109,  -0.15369315445423126220703,  -0.03562450408935546875000,  -0.10240931063890457153320,  -0.10862282663583755493164,  -0.07066164910793304443359,  -0.11821191012859344482422,  -0.13731461763381958007812,  -0.03355615958571434020996,  -0.12004545331001281738281,  -0.02325511910021305084229,  0.00344192446209490299225,  0.09957323968410491943359,  -0.09544122964143753051758,  0.01856244169175624847412,  0.11297338455915451049805,  0.09801507741212844848633,  -0.07476883381605148315430,  0.18614485859870910644531,  0.08326814323663711547852,  0.09919874370098114013672,  -0.14849267899990081787109,  0.05898789316415786743164,  -0.07669086754322052001953,  0.10458758473396301269531,  -0.11774999648332595825195,  0.11747208982706069946289,  0.11821845173835754394531,  -0.14360894262790679931641,  0.02467581070959568023682,  -0.15519201755523681640625,  -0.04408160969614982604980,  0.03765984997153282165527,  -0.05779290571808815002441,  -0.16915301978588104248047,  0.15605583786964416503906,  0.05609759688377380371094,  0.10055230557918548583984,  -0.15084879100322723388672,  -0.05735558643937110900879,  -0.11202479153871536254883,  0.02973085828125476837158,  0.02450313605368137359619,  0.13882093131542205810547,  -0.04087271541357040405273,  -0.08307920396327972412109,  0.00122199626639485359192,  0.14286471903324127197266,  -0.14445315301418304443359,  -0.15902711451053619384766,  -0.05060603097081184387207,  0.10650262981653213500977,  0.02437981031835079193115,  0.07282812148332595825195,  -0.07106381654739379882812,  -0.03231493383646011352539,  -0.10181681066751480102539,  -0.01791643723845481872559,  0.09961870312690734863281,  0.04158904403448104858398,  0.12307679653167724609375,  -0.14869929850101470947266,  0.15912558138370513916016,  -0.01041087321937084197998,  0.09729665517807006835938,  0.14140665531158447265625,  0.00615653814747929573059,  0.15681308507919311523438,  0.13131494820117950439453,
 0.14470721781253814697266,  -0.15325574576854705810547,  0.02139775268733501434326,  0.07654633373022079467773,  0.03840098157525062561035,  -0.08594784140586853027344,  0.08845427632331848144531,  0.11201817542314529418945,  -0.07524831593036651611328,  0.03529018908739089965820,  0.04914447665214538574219,  -0.07792025059461593627930,  0.06272397935390472412109,  0.07861169427633285522461,  -0.09422881901264190673828,  0.13457702100276947021484,  0.16595733165740966796875,  0.04229423403739929199219,  -0.01865491643548011779785,  0.00944809149950742721558,  0.06879873573780059814453,  0.08125266432762145996094,  -0.09059465676546096801758,  0.05533539131283760070801,  -0.15260946750640869140625,  0.01966161653399467468262,  -0.02018451504409313201904,  0.15295493602752685546875,  0.13618277013301849365234,  0.05476590991020202636719,  -0.08045198768377304077148,  -0.09831167012453079223633,  0.07762765884399414062500,  -0.04864089190959930419922,  -0.08081042766571044921875,  0.02915860526263713836670,  0.14164388179779052734375,  -0.11168854683637619018555,  -0.02650268375873565673828,  0.06067495793104171752930,  0.08268024772405624389648,  -0.08675852417945861816406,  -0.06562445312738418579102,  -0.05323084816336631774902,  -0.09674932062625885009766,  0.11033591628074645996094,  0.03618306666612625122070,  -0.15470625460147857666016,  -0.04608653113245964050293,  0.10880284011363983154297,  -0.06187285110354423522949,  0.05367615446448326110840,  0.00412232894450426101685,  -0.09861512482166290283203,  -0.02812962234020233154297,  0.06332430988550186157227,  0.16913433372974395751953,  0.01637478917837142944336,  0.05939415842294692993164,  0.08300551772117614746094,  -0.05931935459375381469727,  -0.13107454776763916015625,  0.09508844465017318725586,  0.09426470845937728881836,  -0.03920612856745719909668,  -0.00918772537261247634888,  -0.06027683243155479431152,  0.14528372883796691894531,  -0.05002582073211669921875,  0.08578307926654815673828,  -0.16696642339229583740234,  0.00072673422982916235924,  0.05772514268755912780762,  -0.16332617402076721191406,  -0.15588714182376861572266,  -0.16140332818031311035156,  0.00010221202683169394732,  0.08673205971717834472656,  -0.06740691512823104858398,  0.00987656507641077041626,  -0.09294360131025314331055,  -0.15985673666000366210938,  -0.07186450809240341186523,  0.06634289026260375976562,
 0.02674730867147445678711,  0.17100317776203155517578,  -0.02232724986970424652100,  0.02363448031246662139893,  0.03224435448646545410156,  -0.09694187343120574951172,  0.10362701863050460815430,  -0.04016093164682388305664,  -0.10746040940284729003906,  -0.00893451087176799774170,  0.15130437910556793212891,  -0.10103093087673187255859,  -0.13430425524711608886719,  0.12114226073026657104492,  0.02894624695181846618652,  -0.05741105601191520690918,  0.11693526059389114379883,  -0.12399539351463317871094,  -0.17002406716346740722656,  0.19051650166511535644531,  0.13959798216819763183594,  -0.03147994354367256164551,  -0.07169510424137115478516,  -0.02743084542453289031982,  0.13336814939975738525391,  -0.11261434853076934814453,  -0.14286971092224121093750,  0.11039269715547561645508,  0.05491229146718978881836,  0.04935612529516220092773,  -0.18674658238887786865234,  -0.00479821022599935531616,  -0.04764458909630775451660,  0.12084008008241653442383,  0.00895351357758045196533,  -0.13719420135021209716797,  -0.04614704102277755737305,  0.18680997192859649658203,  0.06013513356447219848633,  0.15882715582847595214844,  0.10954128205776214599609,  0.19123126566410064697266,  0.11151731014251708984375,  0.15300279855728149414062,  0.01196192763745784759521,  0.03061172366142272949219,  0.14714911580085754394531,  -0.14020988345146179199219,  0.04745302721858024597168,  -0.16776853799819946289062,  0.00466223247349262237549,  -0.10325581580400466918945,  -0.10799889266490936279297,  -0.14936541020870208740234,  -0.00423036236315965652466,  0.14904180169105529785156,  0.03459351509809494018555,  -0.16279336810111999511719,  0.16040296852588653564453,  -0.13327158987522125244141,  -0.12485601007938385009766,  -0.08263701945543289184570,  -0.00259539391845464706421,  0.02117962576448917388916,  0.09693136811256408691406,  0.12925857305526733398438,  -0.15503574907779693603516,  0.14315347373485565185547,  0.02721183001995086669922,  -0.08371432870626449584961,  -0.06548236310482025146484,  0.19427520036697387695312,  0.13851375877857208251953,  -0.16262488067150115966797,  0.03180470690131187438965,  0.11796379089355468750000,  0.02251145988702774047852,  0.08809751272201538085938,  -0.09270235896110534667969,  -0.09490282088518142700195,  -0.01799763739109039306641,  -0.04763800278306007385254,  -0.14609557390213012695312,  -0.03839777037501335144043,
 0.10521264374256134033203,  -0.03962524235248565673828,  0.08035467565059661865234,  0.05115878582000732421875,  -0.09882231801748275756836,  -0.05024066939949989318848,  0.10550313442945480346680,  0.15112201869487762451172,  -0.11121676117181777954102,  0.06539870053529739379883,  -0.10164062678813934326172,  -0.00374733563512563705444,  0.09806574136018753051758,  -0.06622115522623062133789,  0.16196864843368530273438,  -0.17263391613960266113281,  0.04314633458852767944336,  0.16504837572574615478516,  0.00494141830131411552429,  -0.16468827426433563232422,  -0.01191861554980278015137,  -0.15049232542514801025391,  0.08699181675910949707031,  -0.04329945147037506103516,  0.11085810512304306030273,  0.12246878445148468017578,  -0.16329248249530792236328,  0.12649604678153991699219,  0.12025450915098190307617,  0.04181952774524688720703,  0.08741182833909988403320,  -0.08808223158121109008789,  -0.05389095842838287353516,  -0.13211172819137573242188,  0.01931691542267799377441,  -0.12225120514631271362305,  -0.01745276898145675659180,  0.09145823866128921508789,  0.12132441252470016479492,  0.13842333853244781494141,  -0.13863389194011688232422,  0.07508938759565353393555,  0.00179870764259248971939,  -0.15109880268573760986328,  0.16896051168441772460938,  -0.13711214065551757812500,  0.11023599654436111450195,  0.11481605470180511474609,  0.15778081119060516357422,  -0.11770880222320556640625,  0.02225496247410774230957,  0.09902264177799224853516,  0.12731680274009704589844,  -0.06567885726690292358398,  -0.08049964904785156250000,  -0.12934681773185729980469,  0.12035378813743591308594,  -0.06977255642414093017578,  0.03899116814136505126953,  -0.09724261611700057983398,  0.02138432860374450683594,  -0.14086104929447174072266,  -0.03075629286468029022217,  -0.04208796843886375427246,  -0.07094311714172363281250,  0.10560287535190582275391,  -0.04290079697966575622559,  0.10826667398214340209961,  -0.00031508083338849246502,  0.13666266202926635742188,  -0.15556515753269195556641,  0.15209379792213439941406,  0.07624965161085128784180,  -0.03634469583630561828613,  0.03254551067948341369629,  -0.11319608986377716064453,  -0.17688450217247009277344,  0.10900279134511947631836,  -0.13300812244415283203125,  -0.10590673238039016723633,  -0.03372507169842720031738,  0.04682548344135284423828,  -0.08994999527931213378906,  -0.00031139436759985983372,
