/*
<Lenet Neural Network High Level Synthesis Lenet>

MIT License

Copyright (c) 2020 Filipe Maciel Lins

Permission is hereby granted, free of charge, to any person obtaining a copy of this software
and associated documentation files (the "Software"), to deal in the Software without restriction,
including without limitation the rights to use, copy, modify, merge, publish, distribute, sublicense,
and/or sell copies of the Software, and to permit persons to whom the Software is furnished to do so,
subject to the following conditions: The above copyright notice and this permission notice shall be
included in all copies or substantial portions of the Software.

THE SOFTWARE IS PROVIDED "AS IS", WITHOUT WARRANTY OF ANY KIND, EXPRESS OR IMPLIED,INCLUDING
BUT NOT LIMITED TO THE WARRANTIES OF MERCHANTABILITY,FITNESS FOR A PARTICULAR PURPOSE AND
NONINFRINGEMENT. IN NO EVENT SHALL THE AUTHORS OR COPYRIGHT HOLDERS BE LIABLE FOR ANY CLAIM,
DAMAGES OR OTHER LIABILITY, WHETHER IN AN ACTION OF CONTRACT, TORT OR OTHERWISE, ARISING FROM,
OUT OF OR IN CONNECTION WITH THE SOFTWARE OR THE USE OR OTHER DEALINGS IN THE SOFTWARE.
*/

#ifndef WEIGHTS_CONV2_H
#define WEIGHTS_CONV2_H
#include "ap_fixed.h" 
#include "defines.h" 
float24_t conv2_layer_bias[16] = { 0.07812500000000000000000,  0.03125000000000000000000,  0.00781250000000000000000,  0.02343750000000000000000,  0.02343750000000000000000,  0.00781250000000000000000,  0.00781250000000000000000,  0.01562500000000000000000,  0.02343750000000000000000,  0.00781250000000000000000,  0.00781250000000000000000,  0.03906250000000000000000,  0.00781250000000000000000,  0.04687500000000000000000,  0.03906250000000000000000,  0.01562500000000000000000};
float24_t conv2_layer_weights[16][2][2][8] = { 0.25427246093750000000000,  0.28027343750000000000000,  -0.22241210937500000000000,  -0.00476074218750000000000,  0.19396972656250000000000,  0.03173828125000000000000,  -0.26269531250000000000000,  0.00891113281250000000000,  -0.32678222656250000000000,  0.04357910156250000000000,  0.32275390625000000000000,  0.02868652343750000000000,  0.08605957031250000000000,  -0.28051757812500000000000,  -0.07495117187500000000000,  0.23437500000000000000000,  -0.09777832031250000000000,  0.07031250000000000000000,  -0.44641113281250000000000,  -0.29296875000000000000000,  -0.00048828125000000000000,  0.22741699218750000000000,  -0.25561523437500000000000,  -0.04626464843750000000000,  0.20556640625000000000000,  0.54077148437500000000000,  -0.06030273437500000000000,  0.06518554687500000000000,  -0.37768554687500000000000,  0.01184082031250000000000,  -0.23156738281250000000000,  -0.04321289062500000000000,  0.53540039062500000000000,  0.04235839843750000000000,  -0.02038574218750000000000,  0.34179687500000000000000,  -0.16625976562500000000000,  -0.47167968750000000000000,  -0.24157714843750000000000,  -0.02050781250000000000000,  -0.47778320312500000000000,  -0.02221679687500000000000,  -0.06579589843750000000000,  0.17395019531250000000000,  -0.01757812500000000000000,  0.13818359375000000000000,  0.18872070312500000000000,  -0.17944335937500000000000,  -0.07043457031250000000000,  0.23461914062500000000000,  0.11315917968750000000000,  0.00317382812500000000000,  -0.16735839843750000000000,  0.33898925781250000000000,  0.27941894531250000000000,  -0.11608886718750000000000,  0.21740722656250000000000,  -0.04614257812500000000000,  -0.14709472656250000000000,  0.17089843750000000000000,  -0.01416015625000000000000,  0.45727539062500000000000,  -0.04919433593750000000000,  0.10168457031250000000000,  0.13439941406250000000000,  0.27661132812500000000000,  -0.22399902343750000000000,  0.27075195312500000000000,  0.14416503906250000000000,  0.15515136718750000000000,  -0.27746582031250000000000,  0.08288574218750000000000,  -0.30078125000000000000000,  0.10021972656250000000000,  -0.26025390625000000000000,  0.36755371093750000000000,  0.19030761718750000000000,  -0.24621582031250000000000,  0.01696777343750000000000,  -0.16345214843750000000000,  0.17517089843750000000000,  -0.20202636718750000000000,  -0.05334472656250000000000,  -0.28015136718750000000000,  -0.33679199218750000000000,  0.43518066406250000000000,  0.29345703125000000000000,  0.25561523437500000000000,  0.45666503906250000000000,  -0.17749023437500000000000,  0.19982910156250000000000,  -0.28222656250000000000000,  0.14392089843750000000000,  0.04858398437500000000000,  0.14477539062500000000000,  -0.24670410156250000000000,  0.28540039062500000000000,  0.15100097656250000000000,  0.07653808593750000000000,  0.44653320312500000000000,  -0.19458007812500000000000,  -0.07067871093750000000000,  0.31506347656250000000000,  -0.03125000000000000000000,  0.43481445312500000000000,  -0.32556152343750000000000,  -0.38024902343750000000000,  0.51220703125000000000000,  -0.05297851562500000000000,  0.48364257812500000000000,  -0.24536132812500000000000,  -0.07568359375000000000000,  -0.49450683593750000000000,  -0.03649902343750000000000,  0.10229492187500000000000,  0.44824218750000000000000,  -0.27380371093750000000000,  -0.12475585937500000000000,  0.21459960937500000000000,  -0.17895507812500000000000,  -0.01318359375000000000000,  0.16540527343750000000000,  -0.36315917968750000000000,  -0.41381835937500000000000,  0.23022460937500000000000,  -0.05505371093750000000000,  0.08398437500000000000000,  -0.21557617187500000000000,  -0.14343261718750000000000,  -0.44482421875000000000000,  -0.13293457031250000000000,  0.16601562500000000000000,  0.21472167968750000000000,  0.11889648437500000000000,  -0.15490722656250000000000,  0.21166992187500000000000,  0.30712890625000000000000,  -0.05627441406250000000000,  -0.09216308593750000000000,  0.30529785156250000000000,  0.41345214843750000000000,  -0.06542968750000000000000,  -0.06042480468750000000000,  0.11572265625000000000000,  -0.16333007812500000000000,  -0.15307617187500000000000,  -0.01745605468750000000000,  0.16918945312500000000000,  0.10852050781250000000000,  0.41748046875000000000000,  0.01196289062500000000000,  -0.55957031250000000000000,  0.58251953125000000000000,  -0.07080078125000000000000,  0.06799316406250000000000,  -0.31384277343750000000000,  -0.33532714843750000000000,  -0.18859863281250000000000,  0.35607910156250000000000,  -0.20251464843750000000000,  0.01623535156250000000000,  0.38732910156250000000000,  0.52478027343750000000000,  0.49597167968750000000000,  -0.26354980468750000000000,  -0.06713867187500000000000,  -0.16088867187500000000000,  0.05053710937500000000000,  -0.25439453125000000000000,  0.28479003906250000000000,  0.27404785156250000000000,  0.17944335937500000000000,  -0.21350097656250000000000,  0.44787597656250000000000,  -0.22961425781250000000000,  0.49414062500000000000000,  -0.33605957031250000000000,  0.04260253906250000000000,  -0.04846191406250000000000,  -0.11096191406250000000000,  0.12231445312500000000000,  -0.30786132812500000000000,  0.32617187500000000000000,  0.26708984375000000000000,  0.00427246093750000000000,  0.28112792968750000000000,  -0.25329589843750000000000,  -0.15893554687500000000000,  0.13732910156250000000000,  -0.19592285156250000000000,  -0.19897460937500000000000,  -0.45141601562500000000000,  0.19958496093750000000000,  0.20397949218750000000000,  0.19067382812500000000000,  0.43469238281250000000000,  0.20959472656250000000000,  -0.45568847656250000000000,  0.35754394531250000000000,  0.08898925781250000000000,  0.39685058593750000000000,  -0.07885742187500000000000,  -0.13098144531250000000000,  0.05358886718750000000000,  0.19689941406250000000000,  -0.57580566406250000000000,  0.53698730468750000000000,  -0.45751953125000000000000,  -0.15881347656250000000000,  -0.02673339843750000000000,  0.26513671875000000000000,  -0.37780761718750000000000,  0.00170898437500000000000,  -0.23474121093750000000000,  0.23449707031250000000000,  0.45458984375000000000000,  -0.02551269531250000000000,  -0.18029785156250000000000,  0.23779296875000000000000,  -0.08654785156250000000000,  -0.40661621093750000000000,  0.46704101562500000000000,  -0.14160156250000000000000,  -0.22631835937500000000000,  -0.38122558593750000000000,  -0.54895019531250000000000,  0.02368164062500000000000,  -0.00170898437500000000000,  0.47778320312500000000000,  0.18945312500000000000000,  -0.27270507812500000000000,  0.46569824218750000000000,  -0.38244628906250000000000,  -0.25097656250000000000000,  -0.25793457031250000000000,  0.01660156250000000000000,  0.46191406250000000000000,  -0.05590820312500000000000,  0.18591308593750000000000,  0.33996582031250000000000,  -0.38391113281250000000000,  0.35229492187500000000000,  0.12341308593750000000000,  -0.20471191406250000000000,  0.11645507812500000000000,  -0.04956054687500000000000,  0.25402832031250000000000,  0.23620605468750000000000,  0.46508789062500000000000,  -0.09509277343750000000000,  0.23583984375000000000000,  -0.23034667968750000000000,  0.02746582031250000000000,  0.09082031250000000000000,  0.17834472656250000000000,  -0.12145996093750000000000,  -0.22656250000000000000000,  0.21459960937500000000000,  -0.14819335937500000000000,  -0.07592773437500000000000,  -0.28930664062500000000000,  0.42871093750000000000000,  -0.38793945312500000000000,  0.48095703125000000000000,  -0.20776367187500000000000,  -0.00671386718750000000000,  -0.56201171875000000000000,  0.13989257812500000000000,  0.04602050781250000000000,  -0.08666992187500000000000,  -0.11828613281250000000000,  -0.15478515625000000000000,  -0.05639648437500000000000,  0.36035156250000000000000,  0.05200195312500000000000,  0.18017578125000000000000,  0.23168945312500000000000,  0.52331542968750000000000,  0.18920898437500000000000,  0.08557128906250000000000,  0.30957031250000000000000,  0.10937500000000000000000,  0.39367675781250000000000,  0.04528808593750000000000,  0.17407226562500000000000,  0.16918945312500000000000,  -0.40319824218750000000000,  -0.06201171875000000000000,  -0.12927246093750000000000,  0.44555664062500000000000,  0.05737304687500000000000,  -0.27941894531250000000000,  -0.04821777343750000000000,  -0.30334472656250000000000,  -0.07043457031250000000000,  0.24597167968750000000000,  0.32604980468750000000000,  0.40832519531250000000000,  0.01416015625000000000000,  0.41271972656250000000000,  0.34533691406250000000000,  0.36657714843750000000000,  0.11560058593750000000000,  0.35839843750000000000000,  0.51367187500000000000000,  -0.14038085937500000000000,  0.14123535156250000000000,  -0.10729980468750000000000,  -0.39306640625000000000000,  0.39172363281250000000000,  -0.49963378906250000000000,  -0.29504394531250000000000,  0.22668457031250000000000,  -0.37280273437500000000000,  -0.28039550781250000000000,  0.29956054687500000000000,  0.46606445312500000000000,  0.15344238281250000000000,  -0.30236816406250000000000,  -0.01245117187500000000000,  0.49401855468750000000000,  -0.13830566406250000000000,  0.25280761718750000000000,  0.34301757812500000000000,  0.35034179687500000000000,  -0.06237792968750000000000,  0.21276855468750000000000,  0.35839843750000000000000,  -0.33056640625000000000000,  -0.05371093750000000000000,  -0.18688964843750000000000,  0.37255859375000000000000,  0.40209960937500000000000,  -0.16577148437500000000000,  -0.05505371093750000000000,  0.10693359375000000000000,  0.17443847656250000000000,  0.16308593750000000000000,  -0.22033691406250000000000,  -0.22216796875000000000000,  0.12707519531250000000000,  0.19860839843750000000000,  -0.03002929687500000000000,  -0.09399414062500000000000,  0.01062011718750000000000,  0.11535644531250000000000,  -0.02331542968750000000000,  0.17297363281250000000000,  0.44482421875000000000000,  -0.16650390625000000000000,  0.39611816406250000000000,  -0.19921875000000000000000,  0.39941406250000000000000,  -0.53869628906250000000000,  -0.07360839843750000000000,  -0.00415039062500000000000,  0.14685058593750000000000,  0.03198242187500000000000,  -0.54870605468750000000000,  0.04699707031250000000000,  0.36120605468750000000000,  -0.39599609375000000000000,  0.32263183593750000000000,  0.23620605468750000000000,  0.04077148437500000000000,  -0.19470214843750000000000,  0.19409179687500000000000,  0.46337890625000000000000,  -0.13818359375000000000000,  -0.21289062500000000000000,  0.49707031250000000000000,  0.03894042968750000000000,  0.02075195312500000000000,  -0.00354003906250000000000,  -0.01867675781250000000000,  -0.25988769531250000000000,  -0.01025390625000000000000,  0.54089355468750000000000,  -0.21374511718750000000000,  -0.08264160156250000000000,  -0.50988769531250000000000,  -0.21496582031250000000000,  -0.10791015625000000000000,  0.28076171875000000000000,  -0.03039550781250000000000,  -0.22058105468750000000000,  0.22314453125000000000000,  -0.22570800781250000000000,  0.36511230468750000000000,  0.18212890625000000000000,  0.24499511718750000000000,  -0.29211425781250000000000,  0.01892089843750000000000,  -0.22363281250000000000000,  -0.01965332031250000000000,  -0.14514160156250000000000,  -0.27746582031250000000000,  -0.02502441406250000000000,  0.38598632812500000000000,  0.26831054687500000000000,  -0.06945800781250000000000,  0.58300781250000000000000,  0.08215332031250000000000,  -0.03137207031250000000000,  0.39697265625000000000000,  -0.35913085937500000000000,  0.44897460937500000000000,  0.01171875000000000000000,  0.09240722656250000000000,  0.06628417968750000000000,  -0.12463378906250000000000,  -0.34912109375000000000000,  -0.15563964843750000000000,  0.29040527343750000000000,  0.03393554687500000000000,  -0.24340820312500000000000,  -0.10131835937500000000000,  0.13439941406250000000000,  0.02893066406250000000000,  -0.08801269531250000000000,  0.26049804687500000000000,  0.44152832031250000000000,  -0.50061035156250000000000,  -0.11206054687500000000000,  0.22497558593750000000000,  -0.18188476562500000000000,  -0.39135742187500000000000,  -0.17578125000000000000000,  0.15771484375000000000000,  -0.52954101562500000000000,  -0.36364746093750000000000,  0.07556152343750000000000,  -0.03784179687500000000000,  -0.27319335937500000000000,  0.47973632812500000000000,  -0.53027343750000000000000,  0.11914062500000000000000,  0.25988769531250000000000,  -0.00378417968750000000000,  0.41406250000000000000000,  -0.04357910156250000000000,  -0.10888671875000000000000,  -0.27746582031250000000000,  0.35839843750000000000000,  0.19238281250000000000000,  -0.12609863281250000000000,  -0.08911132812500000000000,  0.17553710937500000000000,  0.12817382812500000000000,  0.07495117187500000000000,  0.56774902343750000000000,  -0.01013183593750000000000,  0.28723144531250000000000,  0.24353027343750000000000,  -0.18334960937500000000000,  -0.28588867187500000000000,  0.35510253906250000000000,  -0.17358398437500000000000,  -0.06677246093750000000000,  -0.18920898437500000000000,  0.59753417968750000000000,  0.01171875000000000000000,  0.29553222656250000000000,  -0.12329101562500000000000,  -0.29858398437500000000000,  -0.40832519531250000000000,  -0.35131835937500000000000,  0.42687988281250000000000,  -0.14880371093750000000000,  0.11791992187500000000000,  -0.38964843750000000000000,  -0.15393066406250000000000,  -0.02355957031250000000000,  0.30822753906250000000000,  -0.30078125000000000000000,  0.05151367187500000000000,  -0.51000976562500000000000,  -0.20324707031250000000000,  0.19104003906250000000000,  0.17150878906250000000000,  0.17724609375000000000000,  -0.06335449218750000000000,  -0.50964355468750000000000,  0.07495117187500000000000,  -0.21557617187500000000000,  -0.55065917968750000000000,  -0.36010742187500000000000,  -0.10986328125000000000000,  0.35522460937500000000000,  0.42077636718750000000000,  0.01416015625000000000000,  -0.23864746093750000000000,  -0.04162597656250000000000,  -0.28027343750000000000000,  0.25781250000000000000000,  0.46313476562500000000000,  0.45349121093750000000000,  0.12255859375000000000000,  0.14904785156250000000000,  0.55053710937500000000000,  0.08386230468750000000000,  0.27124023437500000000000,  0.17565917968750000000000,  0.40856933593750000000000,  0.11218261718750000000000,  0.13037109375000000000000,  -0.02551269531250000000000,  0.10937500000000000000000,  -0.11669921875000000000000,  -0.30627441406250000000000,  -0.09802246093750000000000,  -0.15917968750000000000000};
#endif

