/*
<Lenet Neural Network High Level Synthesis Lenet>

MIT License

Copyright (c) 2020 Filipe Maciel Lins

Permission is hereby granted, free of charge, to any person obtaining a copy of this software
and associated documentation files (the "Software"), to deal in the Software without restriction,
including without limitation the rights to use, copy, modify, merge, publish, distribute, sublicense,
and/or sell copies of the Software, and to permit persons to whom the Software is furnished to do so,
subject to the following conditions: The above copyright notice and this permission notice shall be
included in all copies or substantial portions of the Software.

THE SOFTWARE IS PROVIDED "AS IS", WITHOUT WARRANTY OF ANY KIND, EXPRESS OR IMPLIED,INCLUDING
BUT NOT LIMITED TO THE WARRANTIES OF MERCHANTABILITY,FITNESS FOR A PARTICULAR PURPOSE AND
NONINFRINGEMENT. IN NO EVENT SHALL THE AUTHORS OR COPYRIGHT HOLDERS BE LIABLE FOR ANY CLAIM,
DAMAGES OR OTHER LIABILITY, WHETHER IN AN ACTION OF CONTRACT, TORT OR OTHERWISE, ARISING FROM,
OUT OF OR IN CONNECTION WITH THE SOFTWARE OR THE USE OR OTHER DEALINGS IN THE SOFTWARE.
*/

#ifndef WEIGHTS_FC1_H
#define WEIGHTS_FC1_H
#include "ap_fixed.h" 
#include "defines.h" 
float24_t fc1_layer_bias[120] = { -0.00781250000000000000000,  0.00781250000000000000000,  -0.00781250000000000000000,  0.01562500000000000000000,  0.01562500000000000000000,  0.00781250000000000000000,  -0.00781250000000000000000,  0.00000000000000000000000,  -0.00781250000000000000000,  0.00000000000000000000000,  0.00781250000000000000000,  -0.00781250000000000000000,  0.01562500000000000000000,  0.02343750000000000000000,  0.00000000000000000000000,  0.02343750000000000000000,  0.00781250000000000000000,  0.00781250000000000000000,  0.00000000000000000000000,  0.00781250000000000000000,  0.01562500000000000000000,  0.01562500000000000000000,  0.01562500000000000000000,  0.00000000000000000000000,  0.00781250000000000000000,  -0.00781250000000000000000,  -0.00781250000000000000000,  0.00000000000000000000000,  0.00781250000000000000000,  -0.00781250000000000000000,  0.00000000000000000000000,  0.01562500000000000000000,  0.00000000000000000000000,  0.01562500000000000000000,  0.01562500000000000000000,  0.00000000000000000000000,  0.00000000000000000000000,  0.00781250000000000000000,  -0.00781250000000000000000,  -0.00781250000000000000000,  0.00781250000000000000000,  0.00781250000000000000000,  0.00781250000000000000000,  0.00000000000000000000000,  0.00000000000000000000000,  0.01562500000000000000000,  0.01562500000000000000000,  0.00781250000000000000000,  0.01562500000000000000000,  0.00781250000000000000000,  0.01562500000000000000000,  -0.00781250000000000000000,  0.00000000000000000000000,  0.00000000000000000000000,  0.01562500000000000000000,  0.01562500000000000000000,  0.00781250000000000000000,  0.01562500000000000000000,  0.00781250000000000000000,  0.03125000000000000000000,  0.00781250000000000000000,  0.00781250000000000000000,  -0.00781250000000000000000,  0.00000000000000000000000,  0.01562500000000000000000,  0.01562500000000000000000,  0.00000000000000000000000,  0.01562500000000000000000,  0.01562500000000000000000,  0.00781250000000000000000,  0.01562500000000000000000,  0.00000000000000000000000,  0.01562500000000000000000,  0.00781250000000000000000,  0.00781250000000000000000,  0.01562500000000000000000,  0.00000000000000000000000,  0.00781250000000000000000,  0.00000000000000000000000,  0.00000000000000000000000,  0.00781250000000000000000,  0.00000000000000000000000,  0.00781250000000000000000,  0.01562500000000000000000,  0.00781250000000000000000,  0.00000000000000000000000,  0.01562500000000000000000,  0.00000000000000000000000,  0.00000000000000000000000,  0.00000000000000000000000,  0.01562500000000000000000,  0.01562500000000000000000,  0.00000000000000000000000,  -0.00781250000000000000000,  -0.00781250000000000000000,  0.00781250000000000000000,  -0.00781250000000000000000,  0.00000000000000000000000,  0.00781250000000000000000,  -0.00781250000000000000000,  -0.00781250000000000000000,  0.00000000000000000000000,  -0.00781250000000000000000,  0.00781250000000000000000,  0.01562500000000000000000,  0.02343750000000000000000,  0.00000000000000000000000,  0.00000000000000000000000,  0.01562500000000000000000,  0.00781250000000000000000,  0.01562500000000000000000,  0.02343750000000000000000,  0.00781250000000000000000,  0.01562500000000000000000,  0.00000000000000000000000,  0.00781250000000000000000,  -0.00781250000000000000000,  0.02343750000000000000000,  0.00781250000000000000000,  0.00000000000000000000000};
float24_t fc1_layer_weights[576][120] = { -0.13159179687500000000000,  0.07336425781250000000000,  0.00000000000000000000000,  0.09558105468750000000000,  0.05139160156250000000000,  -0.03454589843750000000000,  -0.07324218750000000000000,  -0.04797363281250000000000,  -0.03552246093750000000000,  0.00097656250000000000000,  0.03344726562500000000000,  0.02014160156250000000000,  0.09375000000000000000000,  -0.04772949218750000000000,  0.01818847656250000000000,  -0.01330566406250000000000,  0.09509277343750000000000,  0.07934570312500000000000,  0.00854492187500000000000,  -0.02868652343750000000000,  -0.04357910156250000000000,  0.08349609375000000000000,  -0.02673339843750000000000,  -0.06579589843750000000000,  0.07165527343750000000000,  -0.11938476562500000000000,  -0.03662109375000000000000,  -0.01928710937500000000000,  0.04907226562500000000000,  0.05981445312500000000000,  0.07775878906250000000000,  -0.06591796875000000000000,  -0.00939941406250000000000,  -0.05358886718750000000000,  -0.01843261718750000000000,  0.04943847656250000000000,  0.11022949218750000000000,  0.13354492187500000000000,  -0.02343750000000000000000,  -0.06884765625000000000000,  0.08630371093750000000000,  -0.10375976562500000000000,  0.08471679687500000000000,  -0.00891113281250000000000,  0.00512695312500000000000,  -0.01770019531250000000000,  0.01940917968750000000000,  -0.02587890625000000000000,  0.05944824218750000000000,  0.01269531250000000000000,  0.04614257812500000000000,  -0.00549316406250000000000,  -0.03417968750000000000000,  -0.10778808593750000000000,  0.00646972656250000000000,  0.10571289062500000000000,  -0.00683593750000000000000,  0.12866210937500000000000,  0.14025878906250000000000,  0.09533691406250000000000,  -0.00720214843750000000000,  -0.08825683593750000000000,  -0.09436035156250000000000,  0.00256347656250000000000,  0.12487792968750000000000,  -0.04406738281250000000000,  0.02551269531250000000000,  0.07092285156250000000000,  -0.02600097656250000000000,  0.07189941406250000000000,  -0.03100585937500000000000,  0.02136230468750000000000,  0.11047363281250000000000,  -0.00830078125000000000000,  0.07751464843750000000000,  0.12707519531250000000000,  -0.02819824218750000000000,  -0.01232910156250000000000,  0.01354980468750000000000,  -0.06811523437500000000000,  0.08959960937500000000000,  0.03259277343750000000000,  0.04089355468750000000000,  -0.01562500000000000000000,  0.01513671875000000000000,  0.01586914062500000000000,  -0.05908203125000000000000,  0.09362792968750000000000,  0.03552246093750000000000,  0.01477050781250000000000,  0.10693359375000000000000,  -0.04187011718750000000000,  -0.09814453125000000000000,  -0.08312988281250000000000,  0.04418945312500000000000,  0.05981445312500000000000,  -0.01586914062500000000000,  0.12707519531250000000000,  0.08728027343750000000000,  -0.06848144531250000000000,  -0.06616210937500000000000,  0.09985351562500000000000,  0.05810546875000000000000,  -0.02893066406250000000000,  0.02722167968750000000000,  0.09399414062500000000000,  -0.06384277343750000000000,  0.08374023437500000000000,  -0.06689453125000000000000,  0.04296875000000000000000,  0.07043457031250000000000,  0.11425781250000000000000,  -0.00744628906250000000000,  0.10925292968750000000000,  0.03930664062500000000000,  -0.03295898437500000000000,  0.06835937500000000000000,  0.00366210937500000000000,  0.01599121093750000000000,  -0.02368164062500000000000,
 0.04199218750000000000000,  0.06933593750000000000000,  0.01599121093750000000000,  -0.04650878906250000000000,  -0.00708007812500000000000,  0.07299804687500000000000,  0.01647949218750000000000,  0.01025390625000000000000,  0.05590820312500000000000,  -0.00390625000000000000000,  0.09326171875000000000000,  -0.06518554687500000000000,  0.01000976562500000000000,  0.04150390625000000000000,  0.02026367187500000000000,  0.01403808593750000000000,  0.12402343750000000000000,  -0.04406738281250000000000,  -0.04882812500000000000000,  0.03564453125000000000000,  0.03820800781250000000000,  -0.06530761718750000000000,  -0.05395507812500000000000,  0.02770996093750000000000,  0.09997558593750000000000,  0.07385253906250000000000,  0.04260253906250000000000,  0.09008789062500000000000,  0.08557128906250000000000,  -0.02612304687500000000000,  -0.09265136718750000000000,  0.03759765625000000000000,  -0.12890625000000000000000,  0.04333496093750000000000,  0.07360839843750000000000,  0.07971191406250000000000,  0.00195312500000000000000,  0.05041503906250000000000,  0.00537109375000000000000,  -0.11462402343750000000000,  0.06457519531250000000000,  0.08251953125000000000000,  -0.12207031250000000000000,  -0.10205078125000000000000,  0.04565429687500000000000,  0.05078125000000000000000,  0.14367675781250000000000,  0.02539062500000000000000,  -0.02343750000000000000000,  0.02648925781250000000000,  -0.08984375000000000000000,  -0.11962890625000000000000,  0.02709960937500000000000,  0.13635253906250000000000,  0.09082031250000000000000,  0.02026367187500000000000,  0.01513671875000000000000,  0.00769042968750000000000,  0.04431152343750000000000,  0.01586914062500000000000,  0.08068847656250000000000,  0.03308105468750000000000,  0.09729003906250000000000,  0.03466796875000000000000,  0.01647949218750000000000,  -0.06835937500000000000000,  0.05102539062500000000000,  0.05017089843750000000000,  0.01574707031250000000000,  -0.05761718750000000000000,  0.01525878906250000000000,  0.04638671875000000000000,  -0.00341796875000000000000,  0.06640625000000000000000,  -0.00622558593750000000000,  -0.09423828125000000000000,  0.00268554687500000000000,  0.01916503906250000000000,  0.01074218750000000000000,  0.05468750000000000000000,  0.01086425781250000000000,  -0.02954101562500000000000,  -0.02612304687500000000000,  0.05139160156250000000000,  -0.01525878906250000000000,  -0.07189941406250000000000,  0.01208496093750000000000,  -0.08496093750000000000000,  0.05249023437500000000000,  0.09008789062500000000000,  -0.02355957031250000000000,  0.11914062500000000000000,  -0.07861328125000000000000,  -0.04321289062500000000000,  0.03186035156250000000000,  0.02758789062500000000000,  -0.06811523437500000000000,  0.00732421875000000000000,  0.04272460937500000000000,  -0.00512695312500000000000,  -0.00830078125000000000000,  0.00109863281250000000000,  0.08203125000000000000000,  0.03173828125000000000000,  0.00134277343750000000000,  0.08618164062500000000000,  0.03369140625000000000000,  0.00659179687500000000000,  0.04638671875000000000000,  0.00354003906250000000000,  0.05969238281250000000000,  0.03234863281250000000000,  0.04260253906250000000000,  -0.09777832031250000000000,  -0.02966308593750000000000,  -0.01245117187500000000000,  0.02673339843750000000000,  0.02575683593750000000000,  -0.03295898437500000000000,  -0.06970214843750000000000,
 0.07116699218750000000000,  -0.08142089843750000000000,  -0.00463867187500000000000,  0.02026367187500000000000,  -0.05712890625000000000000,  0.09509277343750000000000,  -0.04028320312500000000000,  -0.00476074218750000000000,  -0.00146484375000000000000,  0.07702636718750000000000,  0.07348632812500000000000,  -0.07360839843750000000000,  0.02758789062500000000000,  0.00097656250000000000000,  0.01025390625000000000000,  -0.04882812500000000000000,  -0.07690429687500000000000,  0.02441406250000000000000,  0.03942871093750000000000,  -0.10290527343750000000000,  -0.04162597656250000000000,  0.11352539062500000000000,  0.03784179687500000000000,  0.08178710937500000000000,  -0.02246093750000000000000,  0.04553222656250000000000,  0.03210449218750000000000,  0.04553222656250000000000,  -0.00415039062500000000000,  -0.02380371093750000000000,  -0.00170898437500000000000,  0.09729003906250000000000,  -0.12109375000000000000000,  0.08325195312500000000000,  0.02343750000000000000000,  -0.07250976562500000000000,  0.06567382812500000000000,  -0.02246093750000000000000,  0.00134277343750000000000,  0.02331542968750000000000,  -0.07019042968750000000000,  -0.06372070312500000000000,  -0.00573730468750000000000,  -0.00500488281250000000000,  -0.02197265625000000000000,  -0.04321289062500000000000,  0.08630371093750000000000,  0.05761718750000000000000,  0.04296875000000000000000,  -0.08044433593750000000000,  -0.00976562500000000000000,  -0.03442382812500000000000,  0.09094238281250000000000,  0.11242675781250000000000,  0.08898925781250000000000,  0.00891113281250000000000,  0.02038574218750000000000,  0.05017089843750000000000,  0.07067871093750000000000,  0.14453125000000000000000,  -0.01721191406250000000000,  -0.04187011718750000000000,  -0.01916503906250000000000,  -0.03906250000000000000000,  0.05993652343750000000000,  0.11962890625000000000000,  0.02185058593750000000000,  -0.08166503906250000000000,  -0.01000976562500000000000,  0.03857421875000000000000,  0.05578613281250000000000,  -0.08374023437500000000000,  -0.01745605468750000000000,  -0.05102539062500000000000,  -0.09399414062500000000000,  0.09020996093750000000000,  0.05505371093750000000000,  0.08337402343750000000000,  0.01367187500000000000000,  0.00463867187500000000000,  0.02856445312500000000000,  0.05383300781250000000000,  0.03771972656250000000000,  -0.08361816406250000000000,  0.04309082031250000000000,  0.04431152343750000000000,  -0.02941894531250000000000,  -0.06555175781250000000000,  -0.01708984375000000000000,  0.11730957031250000000000,  -0.00634765625000000000000,  -0.00463867187500000000000,  -0.02246093750000000000000,  -0.09008789062500000000000,  0.08642578125000000000000,  0.06311035156250000000000,  0.03686523437500000000000,  -0.08923339843750000000000,  0.03295898437500000000000,  0.08227539062500000000000,  -0.08837890625000000000000,  -0.07299804687500000000000,  -0.00195312500000000000000,  0.05712890625000000000000,  0.08227539062500000000000,  0.10571289062500000000000,  0.00170898437500000000000,  -0.00122070312500000000000,  0.07116699218750000000000,  0.05993652343750000000000,  -0.10058593750000000000000,  -0.06054687500000000000000,  0.01379394531250000000000,  0.00463867187500000000000,  -0.07458496093750000000000,  0.10351562500000000000000,  -0.00292968750000000000000,  -0.03662109375000000000000,  -0.00488281250000000000000,  0.01770019531250000000000,
 -0.05126953125000000000000,  0.01000976562500000000000,  0.08679199218750000000000,  0.07629394531250000000000,  0.01184082031250000000000,  0.07336425781250000000000,  0.10791015625000000000000,  -0.01440429687500000000000,  -0.05407714843750000000000,  -0.02294921875000000000000,  -0.04565429687500000000000,  -0.01525878906250000000000,  0.09167480468750000000000,  -0.03723144531250000000000,  0.05212402343750000000000,  0.13610839843750000000000,  -0.00085449218750000000000,  -0.11462402343750000000000,  -0.02026367187500000000000,  0.01843261718750000000000,  -0.00170898437500000000000,  -0.04223632812500000000000,  0.14404296875000000000000,  0.08666992187500000000000,  0.00964355468750000000000,  -0.04528808593750000000000,  -0.00170898437500000000000,  0.06494140625000000000000,  0.06140136718750000000000,  0.01440429687500000000000,  0.06848144531250000000000,  -0.04333496093750000000000,  -0.03820800781250000000000,  0.03308105468750000000000,  0.10498046875000000000000,  -0.01574707031250000000000,  0.01257324218750000000000,  -0.07714843750000000000000,  -0.06201171875000000000000,  0.01794433593750000000000,  0.10485839843750000000000,  0.06445312500000000000000,  0.01574707031250000000000,  0.10388183593750000000000,  -0.03173828125000000000000,  -0.05065917968750000000000,  0.00048828125000000000000,  0.02575683593750000000000,  -0.04748535156250000000000,  0.04711914062500000000000,  0.03503417968750000000000,  -0.08593750000000000000000,  0.02795410156250000000000,  0.14721679687500000000000,  -0.03906250000000000000000,  0.08056640625000000000000,  -0.00683593750000000000000,  0.02526855468750000000000,  0.06103515625000000000000,  0.15356445312500000000000,  0.09313964843750000000000,  0.05554199218750000000000,  -0.04431152343750000000000,  -0.08178710937500000000000,  -0.08679199218750000000000,  0.08007812500000000000000,  -0.00524902343750000000000,  0.03479003906250000000000,  -0.01525878906250000000000,  0.03723144531250000000000,  0.09472656250000000000000,  0.03027343750000000000000,  0.05749511718750000000000,  0.02246093750000000000000,  0.00378417968750000000000,  0.01123046875000000000000,  -0.02209472656250000000000,  0.04968261718750000000000,  0.04431152343750000000000,  -0.05175781250000000000000,  0.00366210937500000000000,  -0.07458496093750000000000,  -0.03466796875000000000000,  0.04907226562500000000000,  0.01367187500000000000000,  0.03759765625000000000000,  0.01684570312500000000000,  0.09228515625000000000000,  -0.06213378906250000000000,  0.06420898437500000000000,  -0.00390625000000000000000,  -0.01025390625000000000000,  0.05187988281250000000000,  0.03747558593750000000000,  0.00854492187500000000000,  0.03686523437500000000000,  0.09252929687500000000000,  -0.03710937500000000000000,  0.02331542968750000000000,  0.04077148437500000000000,  0.02160644531250000000000,  -0.02062988281250000000000,  -0.05212402343750000000000,  0.03588867187500000000000,  0.10412597656250000000000,  0.14184570312500000000000,  0.02734375000000000000000,  0.00634765625000000000000,  -0.04040527343750000000000,  -0.11022949218750000000000,  0.07031250000000000000000,  0.00561523437500000000000,  0.02563476562500000000000,  0.03967285156250000000000,  0.02185058593750000000000,  -0.03369140625000000000000,  0.05456542968750000000000,  0.00366210937500000000000,  0.00817871093750000000000,  -0.08068847656250000000000,
 -0.02478027343750000000000,  -0.01489257812500000000000,  0.00305175781250000000000,  -0.03942871093750000000000,  0.09204101562500000000000,  -0.04785156250000000000000,  -0.07287597656250000000000,  -0.01452636718750000000000,  -0.04797363281250000000000,  -0.10314941406250000000000,  0.11584472656250000000000,  -0.00085449218750000000000,  -0.04260253906250000000000,  0.08081054687500000000000,  0.13244628906250000000000,  0.04553222656250000000000,  -0.05444335937500000000000,  -0.00231933593750000000000,  -0.04028320312500000000000,  -0.02416992187500000000000,  0.02038574218750000000000,  0.08984375000000000000000,  0.15075683593750000000000,  0.05151367187500000000000,  0.02722167968750000000000,  -0.01538085937500000000000,  0.04248046875000000000000,  -0.07165527343750000000000,  -0.07788085937500000000000,  -0.00512695312500000000000,  -0.04724121093750000000000,  0.01696777343750000000000,  -0.12390136718750000000000,  0.06213378906250000000000,  -0.00793457031250000000000,  0.11315917968750000000000,  -0.02246093750000000000000,  -0.04309082031250000000000,  -0.13793945312500000000000,  0.10217285156250000000000,  -0.08386230468750000000000,  0.03125000000000000000000,  0.01501464843750000000000,  -0.08288574218750000000000,  -0.04577636718750000000000,  0.07580566406250000000000,  0.04333496093750000000000,  0.01489257812500000000000,  -0.08471679687500000000000,  -0.02099609375000000000000,  -0.03857421875000000000000,  -0.09106445312500000000000,  0.05395507812500000000000,  0.02124023437500000000000,  -0.04284667968750000000000,  0.10571289062500000000000,  0.03979492187500000000000,  -0.10656738281250000000000,  0.07348632812500000000000,  0.13183593750000000000000,  -0.07934570312500000000000,  0.06481933593750000000000,  -0.04406738281250000000000,  -0.03625488281250000000000,  -0.10400390625000000000000,  0.12341308593750000000000,  -0.02880859375000000000000,  -0.02575683593750000000000,  -0.04455566406250000000000,  -0.08850097656250000000000,  -0.09338378906250000000000,  -0.11669921875000000000000,  -0.01574707031250000000000,  0.01123046875000000000000,  -0.01037597656250000000000,  0.00781250000000000000000,  -0.08593750000000000000000,  0.03259277343750000000000,  -0.07470703125000000000000,  -0.02502441406250000000000,  -0.02685546875000000000000,  -0.07604980468750000000000,  -0.02600097656250000000000,  0.04992675781250000000000,  0.04589843750000000000000,  0.09057617187500000000000,  -0.06042480468750000000000,  0.10852050781250000000000,  -0.03100585937500000000000,  -0.02880859375000000000000,  -0.00549316406250000000000,  -0.05712890625000000000000,  0.08007812500000000000000,  0.07873535156250000000000,  0.01660156250000000000000,  -0.01965332031250000000000,  0.00158691406250000000000,  -0.08557128906250000000000,  0.04150390625000000000000,  0.08691406250000000000000,  -0.00036621093750000000000,  0.11474609375000000000000,  0.01647949218750000000000,  0.08251953125000000000000,  0.09545898437500000000000,  0.08288574218750000000000,  -0.01647949218750000000000,  0.09033203125000000000000,  0.02673339843750000000000,  -0.12829589843750000000000,  0.13171386718750000000000,  0.03613281250000000000000,  0.02722167968750000000000,  0.00024414062500000000000,  0.10559082031250000000000,  0.02392578125000000000000,  -0.10449218750000000000000,  -0.05432128906250000000000,  -0.03625488281250000000000,  0.08032226562500000000000,
 0.02734375000000000000000,  -0.02612304687500000000000,  -0.06811523437500000000000,  -0.00366210937500000000000,  -0.01208496093750000000000,  0.03173828125000000000000,  0.04663085937500000000000,  0.01696777343750000000000,  -0.04235839843750000000000,  0.04772949218750000000000,  0.01184082031250000000000,  -0.01013183593750000000000,  0.07861328125000000000000,  0.10119628906250000000000,  0.04479980468750000000000,  -0.05358886718750000000000,  -0.08874511718750000000000,  0.05529785156250000000000,  0.08532714843750000000000,  0.05810546875000000000000,  -0.03015136718750000000000,  0.03027343750000000000000,  0.06213378906250000000000,  -0.08618164062500000000000,  -0.08068847656250000000000,  0.02172851562500000000000,  -0.04101562500000000000000,  -0.11022949218750000000000,  -0.05444335937500000000000,  -0.00317382812500000000000,  -0.07824707031250000000000,  0.00463867187500000000000,  0.07128906250000000000000,  0.02539062500000000000000,  -0.02551269531250000000000,  0.00378417968750000000000,  0.08105468750000000000000,  -0.02490234375000000000000,  0.05615234375000000000000,  -0.00012207031250000000000,  0.02868652343750000000000,  -0.01379394531250000000000,  0.03613281250000000000000,  0.01281738281250000000000,  0.04321289062500000000000,  0.06579589843750000000000,  0.02661132812500000000000,  0.11657714843750000000000,  -0.00109863281250000000000,  -0.02685546875000000000000,  -0.01977539062500000000000,  -0.06127929687500000000000,  -0.01135253906250000000000,  -0.01721191406250000000000,  0.00817871093750000000000,  -0.00744628906250000000000,  0.02001953125000000000000,  -0.08349609375000000000000,  0.03234863281250000000000,  -0.02917480468750000000000,  0.03247070312500000000000,  0.09033203125000000000000,  0.04187011718750000000000,  -0.06372070312500000000000,  -0.02734375000000000000000,  -0.04394531250000000000000,  0.06030273437500000000000,  -0.01599121093750000000000,  0.08679199218750000000000,  0.04760742187500000000000,  0.07714843750000000000000,  0.05578613281250000000000,  -0.04089355468750000000000,  -0.02978515625000000000000,  0.02685546875000000000000,  -0.03491210937500000000000,  0.09179687500000000000000,  -0.04711914062500000000000,  0.03222656250000000000000,  -0.03967285156250000000000,  0.06591796875000000000000,  0.03857421875000000000000,  -0.06335449218750000000000,  0.05590820312500000000000,  -0.01562500000000000000000,  -0.00280761718750000000000,  -0.00671386718750000000000,  0.00476074218750000000000,  0.02770996093750000000000,  -0.02111816406250000000000,  0.01818847656250000000000,  0.03027343750000000000000,  -0.11999511718750000000000,  0.10498046875000000000000,  -0.02148437500000000000000,  0.04980468750000000000000,  0.00720214843750000000000,  -0.06066894531250000000000,  -0.02441406250000000000000,  -0.03820800781250000000000,  -0.08361816406250000000000,  0.01391601562500000000000,  -0.03845214843750000000000,  -0.05627441406250000000000,  0.00952148437500000000000,  -0.01135253906250000000000,  0.00427246093750000000000,  -0.04272460937500000000000,  0.06408691406250000000000,  0.11218261718750000000000,  -0.05688476562500000000000,  0.06213378906250000000000,  -0.02465820312500000000000,  -0.01489257812500000000000,  -0.05114746093750000000000,  0.06958007812500000000000,  0.02453613281250000000000,  0.06298828125000000000000,  -0.03613281250000000000000,  0.01782226562500000000000,
 -0.01831054687500000000000,  0.06457519531250000000000,  -0.03723144531250000000000,  0.06213378906250000000000,  -0.06188964843750000000000,  0.10595703125000000000000,  0.02917480468750000000000,  0.05847167968750000000000,  -0.07104492187500000000000,  0.01660156250000000000000,  0.09619140625000000000000,  -0.05114746093750000000000,  0.04809570312500000000000,  -0.05834960937500000000000,  0.01049804687500000000000,  -0.10681152343750000000000,  0.02307128906250000000000,  -0.00158691406250000000000,  -0.03723144531250000000000,  0.02905273437500000000000,  0.05908203125000000000000,  0.01586914062500000000000,  -0.02062988281250000000000,  0.10424804687500000000000,  -0.06396484375000000000000,  0.02783203125000000000000,  0.02966308593750000000000,  -0.09179687500000000000000,  -0.02221679687500000000000,  0.01330566406250000000000,  -0.12500000000000000000000,  0.10083007812500000000000,  -0.09338378906250000000000,  0.06506347656250000000000,  -0.05285644531250000000000,  -0.00317382812500000000000,  -0.08264160156250000000000,  0.01074218750000000000000,  0.07043457031250000000000,  0.09863281250000000000000,  -0.09826660156250000000000,  0.10046386718750000000000,  0.03344726562500000000000,  0.04003906250000000000000,  0.02246093750000000000000,  0.05310058593750000000000,  0.03210449218750000000000,  -0.07727050781250000000000,  -0.05322265625000000000000,  0.00122070312500000000000,  -0.05529785156250000000000,  -0.03503417968750000000000,  0.02478027343750000000000,  0.02624511718750000000000,  -0.05822753906250000000000,  0.09521484375000000000000,  -0.03149414062500000000000,  0.04113769531250000000000,  0.04724121093750000000000,  -0.05981445312500000000000,  0.02539062500000000000000,  -0.08166503906250000000000,  0.03027343750000000000000,  -0.04528808593750000000000,  0.03381347656250000000000,  0.01208496093750000000000,  0.04394531250000000000000,  0.03649902343750000000000,  0.01049804687500000000000,  -0.07666015625000000000000,  0.05993652343750000000000,  -0.03625488281250000000000,  -0.10913085937500000000000,  0.10510253906250000000000,  -0.11364746093750000000000,  -0.05969238281250000000000,  0.06433105468750000000000,  -0.02429199218750000000000,  -0.09863281250000000000000,  0.04064941406250000000000,  0.02770996093750000000000,  0.04589843750000000000000,  0.05480957031250000000000,  0.05895996093750000000000,  0.03283691406250000000000,  0.01684570312500000000000,  -0.04187011718750000000000,  0.11499023437500000000000,  0.00610351562500000000000,  0.06787109375000000000000,  0.00732421875000000000000,  0.11181640625000000000000,  -0.03295898437500000000000,  0.12622070312500000000000,  -0.07470703125000000000000,  -0.03771972656250000000000,  -0.07177734375000000000000,  0.01367187500000000000000,  0.03930664062500000000000,  -0.03027343750000000000000,  0.02160644531250000000000,  0.02441406250000000000000,  -0.04614257812500000000000,  0.01611328125000000000000,  -0.01745605468750000000000,  -0.05029296875000000000000,  0.03002929687500000000000,  0.00854492187500000000000,  0.02197265625000000000000,  0.00537109375000000000000,  0.05590820312500000000000,  0.00866699218750000000000,  -0.06848144531250000000000,  -0.06945800781250000000000,  0.07421875000000000000000,  -0.01721191406250000000000,  -0.03686523437500000000000,  -0.03186035156250000000000,  -0.03637695312500000000000,  -0.11035156250000000000000,
 -0.00915527343750000000000,  0.00512695312500000000000,  -0.02868652343750000000000,  -0.06347656250000000000000,  -0.06250000000000000000000,  -0.06054687500000000000000,  0.07092285156250000000000,  0.12658691406250000000000,  -0.03332519531250000000000,  0.12670898437500000000000,  -0.09204101562500000000000,  0.06396484375000000000000,  0.05700683593750000000000,  0.06689453125000000000000,  0.04431152343750000000000,  0.05456542968750000000000,  -0.03979492187500000000000,  0.09741210937500000000000,  -0.02685546875000000000000,  -0.10449218750000000000000,  -0.12268066406250000000000,  0.00354003906250000000000,  0.01525878906250000000000,  -0.13916015625000000000000,  -0.07678222656250000000000,  -0.03662109375000000000000,  -0.09350585937500000000000,  0.03503417968750000000000,  -0.04577636718750000000000,  0.00207519531250000000000,  0.09826660156250000000000,  -0.02807617187500000000000,  0.06689453125000000000000,  -0.04882812500000000000000,  0.01538085937500000000000,  -0.06152343750000000000000,  0.03161621093750000000000,  -0.00878906250000000000000,  0.05639648437500000000000,  0.00207519531250000000000,  -0.00024414062500000000000,  -0.00793457031250000000000,  0.01733398437500000000000,  0.02868652343750000000000,  -0.06872558593750000000000,  0.03735351562500000000000,  0.07385253906250000000000,  -0.04370117187500000000000,  -0.06701660156250000000000,  -0.00659179687500000000000,  -0.01318359375000000000000,  0.06372070312500000000000,  -0.00183105468750000000000,  0.00952148437500000000000,  -0.09533691406250000000000,  0.06970214843750000000000,  -0.09216308593750000000000,  0.01794433593750000000000,  -0.06982421875000000000000,  0.09484863281250000000000,  0.08825683593750000000000,  0.04968261718750000000000,  0.03796386718750000000000,  -0.02807617187500000000000,  0.04150390625000000000000,  0.11572265625000000000000,  0.02587890625000000000000,  0.01635742187500000000000,  0.10095214843750000000000,  -0.04345703125000000000000,  0.02319335937500000000000,  0.05798339843750000000000,  0.12304687500000000000000,  -0.02758789062500000000000,  0.01721191406250000000000,  0.04504394531250000000000,  -0.05505371093750000000000,  -0.06457519531250000000000,  -0.06567382812500000000000,  0.12268066406250000000000,  -0.00988769531250000000000,  0.07446289062500000000000,  -0.03601074218750000000000,  -0.08447265625000000000000,  -0.05603027343750000000000,  0.06262207031250000000000,  0.02648925781250000000000,  0.05468750000000000000000,  0.00561523437500000000000,  0.01184082031250000000000,  -0.03149414062500000000000,  0.07019042968750000000000,  -0.06311035156250000000000,  0.04711914062500000000000,  -0.09387207031250000000000,  -0.03442382812500000000000,  -0.12487792968750000000000,  -0.03308105468750000000000,  -0.05383300781250000000000,  0.03735351562500000000000,  -0.01416015625000000000000,  0.07470703125000000000000,  -0.01123046875000000000000,  -0.01953125000000000000000,  0.08654785156250000000000,  0.06848144531250000000000,  0.01892089843750000000000,  -0.04443359375000000000000,  0.07861328125000000000000,  -0.06372070312500000000000,  -0.03466796875000000000000,  0.02795410156250000000000,  0.06787109375000000000000,  -0.10302734375000000000000,  0.08044433593750000000000,  -0.10205078125000000000000,  -0.01123046875000000000000,  0.03283691406250000000000,  -0.00854492187500000000000,  -0.06970214843750000000000,
 -0.06347656250000000000000,  0.00695800781250000000000,  0.04748535156250000000000,  0.00610351562500000000000,  -0.14001464843750000000000,  0.04638671875000000000000,  -0.09619140625000000000000,  -0.00988769531250000000000,  0.08325195312500000000000,  -0.02392578125000000000000,  0.01123046875000000000000,  0.02673339843750000000000,  0.09973144531250000000000,  -0.00427246093750000000000,  -0.01416015625000000000000,  -0.04394531250000000000000,  0.03735351562500000000000,  -0.06774902343750000000000,  -0.00500488281250000000000,  0.08288574218750000000000,  0.01757812500000000000000,  0.07214355468750000000000,  0.11218261718750000000000,  0.00634765625000000000000,  0.11682128906250000000000,  0.05065917968750000000000,  0.10424804687500000000000,  -0.01843261718750000000000,  -0.06787109375000000000000,  -0.06823730468750000000000,  -0.05004882812500000000000,  -0.06066894531250000000000,  0.01904296875000000000000,  0.07092285156250000000000,  -0.00878906250000000000000,  -0.01135253906250000000000,  0.01135253906250000000000,  0.06555175781250000000000,  0.01257324218750000000000,  0.02490234375000000000000,  -0.02136230468750000000000,  0.03833007812500000000000,  0.00305175781250000000000,  -0.07165527343750000000000,  0.01013183593750000000000,  0.02014160156250000000000,  0.06250000000000000000000,  0.04260253906250000000000,  0.04577636718750000000000,  -0.04150390625000000000000,  0.01452636718750000000000,  -0.09521484375000000000000,  0.08190917968750000000000,  0.06848144531250000000000,  -0.00927734375000000000000,  0.05175781250000000000000,  0.00341796875000000000000,  0.10058593750000000000000,  -0.00732421875000000000000,  0.05578613281250000000000,  0.01647949218750000000000,  0.11682128906250000000000,  -0.03271484375000000000000,  -0.03381347656250000000000,  -0.03247070312500000000000,  0.04724121093750000000000,  -0.02062988281250000000000,  -0.06347656250000000000000,  -0.03405761718750000000000,  0.10375976562500000000000,  -0.01147460937500000000000,  0.06848144531250000000000,  0.00085449218750000000000,  -0.06481933593750000000000,  0.12158203125000000000000,  0.00195312500000000000000,  0.04077148437500000000000,  -0.05761718750000000000000,  -0.08935546875000000000000,  -0.11328125000000000000000,  -0.02429199218750000000000,  -0.02893066406250000000000,  0.00585937500000000000000,  -0.04736328125000000000000,  0.05139160156250000000000,  0.05981445312500000000000,  -0.07519531250000000000000,  -0.02770996093750000000000,  0.14416503906250000000000,  0.00720214843750000000000,  0.03430175781250000000000,  0.03295898437500000000000,  -0.04162597656250000000000,  0.02819824218750000000000,  0.05920410156250000000000,  0.01940917968750000000000,  -0.04931640625000000000000,  -0.11584472656250000000000,  -0.07617187500000000000000,  -0.03491210937500000000000,  -0.00085449218750000000000,  -0.00122070312500000000000,  0.04138183593750000000000,  0.02465820312500000000000,  0.02941894531250000000000,  0.01269531250000000000000,  0.03552246093750000000000,  -0.01196289062500000000000,  0.02270507812500000000000,  0.10522460937500000000000,  0.02209472656250000000000,  0.04553222656250000000000,  0.01831054687500000000000,  0.09606933593750000000000,  0.01342773437500000000000,  -0.05639648437500000000000,  0.03759765625000000000000,  0.09399414062500000000000,  0.00024414062500000000000,  -0.00170898437500000000000,
 -0.05603027343750000000000,  -0.02746582031250000000000,  -0.03564453125000000000000,  -0.03344726562500000000000,  -0.08874511718750000000000,  0.04272460937500000000000,  0.07543945312500000000000,  -0.00671386718750000000000,  0.02038574218750000000000,  0.04260253906250000000000,  0.08398437500000000000000,  0.04980468750000000000000,  -0.09924316406250000000000,  -0.09411621093750000000000,  -0.01928710937500000000000,  0.05004882812500000000000,  0.07312011718750000000000,  0.08947753906250000000000,  -0.03771972656250000000000,  0.07617187500000000000000,  -0.01684570312500000000000,  0.02099609375000000000000,  -0.01245117187500000000000,  -0.03881835937500000000000,  0.00390625000000000000000,  0.01464843750000000000000,  0.00341796875000000000000,  0.05969238281250000000000,  -0.06799316406250000000000,  0.05957031250000000000000,  -0.02355957031250000000000,  0.08959960937500000000000,  0.02563476562500000000000,  0.00146484375000000000000,  -0.06005859375000000000000,  -0.01000976562500000000000,  0.04516601562500000000000,  0.06640625000000000000000,  -0.10302734375000000000000,  -0.09753417968750000000000,  0.09375000000000000000000,  0.02087402343750000000000,  -0.08715820312500000000000,  0.03564453125000000000000,  -0.11779785156250000000000,  -0.09387207031250000000000,  -0.03259277343750000000000,  0.05114746093750000000000,  0.06066894531250000000000,  0.09094238281250000000000,  -0.02587890625000000000000,  -0.00793457031250000000000,  0.04699707031250000000000,  0.03149414062500000000000,  0.06469726562500000000000,  0.07324218750000000000000,  0.00524902343750000000000,  -0.11511230468750000000000,  -0.05822753906250000000000,  0.06127929687500000000000,  -0.01599121093750000000000,  0.01086425781250000000000,  -0.02575683593750000000000,  -0.08947753906250000000000,  0.08337402343750000000000,  -0.10510253906250000000000,  -0.07006835937500000000000,  0.03417968750000000000000,  -0.03332519531250000000000,  0.06530761718750000000000,  0.00634765625000000000000,  0.01635742187500000000000,  -0.02404785156250000000000,  0.02673339843750000000000,  -0.04589843750000000000000,  -0.00500488281250000000000,  0.02136230468750000000000,  -0.00927734375000000000000,  0.08715820312500000000000,  0.03308105468750000000000,  0.01440429687500000000000,  0.06835937500000000000000,  0.07739257812500000000000,  -0.01354980468750000000000,  0.00622558593750000000000,  -0.05981445312500000000000,  0.00939941406250000000000,  -0.05004882812500000000000,  -0.01037597656250000000000,  0.11889648437500000000000,  0.06225585937500000000000,  -0.03918457031250000000000,  -0.11486816406250000000000,  -0.06018066406250000000000,  0.04284667968750000000000,  -0.04101562500000000000000,  0.08605957031250000000000,  0.04040527343750000000000,  -0.02856445312500000000000,  0.02526855468750000000000,  -0.12841796875000000000000,  0.00122070312500000000000,  0.11755371093750000000000,  0.04260253906250000000000,  -0.05395507812500000000000,  -0.08044433593750000000000,  -0.00927734375000000000000,  0.05566406250000000000000,  0.06689453125000000000000,  -0.02294921875000000000000,  0.04333496093750000000000,  0.10266113281250000000000,  0.08239746093750000000000,  -0.08215332031250000000000,  -0.06042480468750000000000,  -0.13598632812500000000000,  0.09765625000000000000000,  0.11999511718750000000000,  -0.01416015625000000000000,  0.03906250000000000000000,
 0.09106445312500000000000,  0.03344726562500000000000,  -0.03295898437500000000000,  -0.01477050781250000000000,  0.07080078125000000000000,  0.02539062500000000000000,  -0.02600097656250000000000,  -0.11804199218750000000000,  -0.05908203125000000000000,  0.10485839843750000000000,  0.00891113281250000000000,  -0.05822753906250000000000,  -0.03527832031250000000000,  -0.06103515625000000000000,  0.02966308593750000000000,  0.04589843750000000000000,  -0.06335449218750000000000,  -0.04016113281250000000000,  0.02539062500000000000000,  0.04931640625000000000000,  0.01989746093750000000000,  -0.00256347656250000000000,  -0.00561523437500000000000,  0.05151367187500000000000,  0.05981445312500000000000,  0.04028320312500000000000,  -0.03515625000000000000000,  -0.05004882812500000000000,  -0.05004882812500000000000,  0.00744628906250000000000,  0.00793457031250000000000,  -0.03674316406250000000000,  0.04162597656250000000000,  0.02062988281250000000000,  0.01733398437500000000000,  -0.05541992187500000000000,  0.01904296875000000000000,  0.07568359375000000000000,  -0.03906250000000000000000,  -0.06030273437500000000000,  0.00268554687500000000000,  0.03588867187500000000000,  -0.04516601562500000000000,  -0.01477050781250000000000,  -0.11535644531250000000000,  0.12097167968750000000000,  0.05017089843750000000000,  0.01733398437500000000000,  -0.02087402343750000000000,  -0.00866699218750000000000,  -0.03649902343750000000000,  -0.05139160156250000000000,  0.03869628906250000000000,  -0.06030273437500000000000,  -0.03991699218750000000000,  0.02355957031250000000000,  0.12011718750000000000000,  -0.10644531250000000000000,  -0.05065917968750000000000,  -0.06921386718750000000000,  0.00939941406250000000000,  -0.08947753906250000000000,  -0.04760742187500000000000,  -0.00805664062500000000000,  0.02343750000000000000000,  0.04418945312500000000000,  0.07824707031250000000000,  -0.01562500000000000000000,  -0.04602050781250000000000,  0.04650878906250000000000,  0.03698730468750000000000,  0.12524414062500000000000,  -0.09887695312500000000000,  -0.10656738281250000000000,  0.00695800781250000000000,  -0.04052734375000000000000,  0.04711914062500000000000,  -0.03576660156250000000000,  0.08740234375000000000000,  0.12695312500000000000000,  -0.03405761718750000000000,  0.00097656250000000000000,  -0.05126953125000000000000,  -0.08093261718750000000000,  -0.00622558593750000000000,  -0.03710937500000000000000,  0.04711914062500000000000,  -0.03625488281250000000000,  -0.03222656250000000000000,  -0.03442382812500000000000,  0.08886718750000000000000,  -0.00964355468750000000000,  0.10766601562500000000000,  -0.02172851562500000000000,  -0.05615234375000000000000,  0.04736328125000000000000,  -0.07482910156250000000000,  -0.00500488281250000000000,  0.10595703125000000000000,  -0.03173828125000000000000,  0.03356933593750000000000,  -0.01208496093750000000000,  -0.12377929687500000000000,  -0.02221679687500000000000,  -0.03784179687500000000000,  0.06750488281250000000000,  -0.10302734375000000000000,  0.01806640625000000000000,  0.04760742187500000000000,  -0.00939941406250000000000,  -0.03625488281250000000000,  -0.09301757812500000000000,  -0.08105468750000000000000,  0.13000488281250000000000,  0.00756835937500000000000,  0.04296875000000000000000,  0.09143066406250000000000,  -0.02185058593750000000000,  -0.07458496093750000000000,  0.12023925781250000000000,
 -0.01049804687500000000000,  0.08215332031250000000000,  0.09887695312500000000000,  -0.10607910156250000000000,  0.05029296875000000000000,  0.06054687500000000000000,  -0.11779785156250000000000,  -0.05285644531250000000000,  0.07543945312500000000000,  0.10314941406250000000000,  -0.00683593750000000000000,  -0.12268066406250000000000,  -0.06701660156250000000000,  0.04882812500000000000000,  -0.03234863281250000000000,  0.09887695312500000000000,  0.04138183593750000000000,  0.04077148437500000000000,  0.08813476562500000000000,  0.05541992187500000000000,  0.02246093750000000000000,  -0.04431152343750000000000,  0.05908203125000000000000,  -0.00231933593750000000000,  -0.00500488281250000000000,  -0.00292968750000000000000,  0.04907226562500000000000,  -0.02380371093750000000000,  -0.00915527343750000000000,  0.05078125000000000000000,  -0.06762695312500000000000,  -0.01940917968750000000000,  -0.07397460937500000000000,  -0.04028320312500000000000,  0.11547851562500000000000,  -0.03186035156250000000000,  0.06286621093750000000000,  0.11535644531250000000000,  0.07397460937500000000000,  -0.07385253906250000000000,  0.06970214843750000000000,  0.02136230468750000000000,  -0.03356933593750000000000,  -0.06335449218750000000000,  -0.06872558593750000000000,  0.12170410156250000000000,  -0.00036621093750000000000,  -0.01208496093750000000000,  -0.01013183593750000000000,  0.01452636718750000000000,  -0.00781250000000000000000,  0.02160644531250000000000,  -0.00659179687500000000000,  0.03564453125000000000000,  0.09143066406250000000000,  -0.07165527343750000000000,  -0.07885742187500000000000,  -0.07031250000000000000000,  -0.03820800781250000000000,  0.00793457031250000000000,  0.02209472656250000000000,  -0.02783203125000000000000,  -0.01428222656250000000000,  -0.00769042968750000000000,  -0.04174804687500000000000,  -0.02404785156250000000000,  -0.10961914062500000000000,  -0.05541992187500000000000,  -0.08178710937500000000000,  -0.01782226562500000000000,  0.02209472656250000000000,  -0.06213378906250000000000,  0.06933593750000000000000,  -0.03552246093750000000000,  0.00378417968750000000000,  0.01269531250000000000000,  -0.07324218750000000000000,  -0.11694335937500000000000,  0.08166503906250000000000,  0.05920410156250000000000,  -0.02661132812500000000000,  -0.04040527343750000000000,  -0.05480957031250000000000,  0.02172851562500000000000,  -0.02246093750000000000000,  0.00659179687500000000000,  -0.12072753906250000000000,  -0.03039550781250000000000,  -0.03137207031250000000000,  0.10632324218750000000000,  0.03076171875000000000000,  -0.02111816406250000000000,  0.12573242187500000000000,  0.01159667968750000000000,  -0.11474609375000000000000,  0.00842285156250000000000,  -0.09094238281250000000000,  -0.06738281250000000000000,  0.01391601562500000000000,  0.02282714843750000000000,  -0.11267089843750000000000,  -0.09436035156250000000000,  0.04650878906250000000000,  0.09118652343750000000000,  0.03259277343750000000000,  0.02404785156250000000000,  -0.12829589843750000000000,  -0.03515625000000000000000,  -0.02563476562500000000000,  0.04357910156250000000000,  -0.03491210937500000000000,  0.03161621093750000000000,  -0.09020996093750000000000,  0.06799316406250000000000,  0.05126953125000000000000,  -0.07653808593750000000000,  -0.05346679687500000000000,  -0.00805664062500000000000,  0.06164550781250000000000,  0.05895996093750000000000,
 0.07629394531250000000000,  0.03967285156250000000000,  0.09753417968750000000000,  -0.02551269531250000000000,  0.00329589843750000000000,  0.12268066406250000000000,  -0.02038574218750000000000,  0.00305175781250000000000,  -0.06005859375000000000000,  0.02148437500000000000000,  -0.01867675781250000000000,  0.03125000000000000000000,  0.02087402343750000000000,  0.00061035156250000000000,  -0.06713867187500000000000,  -0.05957031250000000000000,  0.05932617187500000000000,  0.04907226562500000000000,  -0.02233886718750000000000,  -0.11987304687500000000000,  0.01318359375000000000000,  0.12927246093750000000000,  0.04089355468750000000000,  0.01831054687500000000000,  0.03100585937500000000000,  -0.01879882812500000000000,  0.02880859375000000000000,  -0.01391601562500000000000,  -0.07458496093750000000000,  -0.00476074218750000000000,  -0.02893066406250000000000,  -0.00024414062500000000000,  -0.08361816406250000000000,  0.00622558593750000000000,  0.04748535156250000000000,  0.03088378906250000000000,  0.02990722656250000000000,  0.05810546875000000000000,  0.04309082031250000000000,  -0.05627441406250000000000,  0.08532714843750000000000,  -0.00561523437500000000000,  0.01208496093750000000000,  0.04248046875000000000000,  0.02600097656250000000000,  0.13671875000000000000000,  0.11364746093750000000000,  0.05187988281250000000000,  0.11230468750000000000000,  0.07421875000000000000000,  0.03417968750000000000000,  0.05419921875000000000000,  0.07043457031250000000000,  0.07849121093750000000000,  0.01660156250000000000000,  0.08447265625000000000000,  0.03662109375000000000000,  0.08618164062500000000000,  -0.05285644531250000000000,  0.02539062500000000000000,  -0.03125000000000000000000,  -0.05078125000000000000000,  0.03540039062500000000000,  -0.04785156250000000000000,  0.03759765625000000000000,  0.01477050781250000000000,  -0.02783203125000000000000,  0.01293945312500000000000,  0.03356933593750000000000,  -0.00695800781250000000000,  -0.10766601562500000000000,  0.08068847656250000000000,  0.03930664062500000000000,  -0.02050781250000000000000,  0.10034179687500000000000,  -0.02502441406250000000000,  -0.05053710937500000000000,  0.08325195312500000000000,  0.00854492187500000000000,  -0.02905273437500000000000,  0.06726074218750000000000,  0.00378417968750000000000,  0.10083007812500000000000,  -0.07568359375000000000000,  0.03869628906250000000000,  0.00671386718750000000000,  0.01513671875000000000000,  -0.10681152343750000000000,  0.00976562500000000000000,  0.04858398437500000000000,  -0.01110839843750000000000,  -0.07202148437500000000000,  -0.06921386718750000000000,  -0.08789062500000000000000,  0.06225585937500000000000,  -0.01306152343750000000000,  0.01208496093750000000000,  -0.01489257812500000000000,  -0.01062011718750000000000,  -0.13134765625000000000000,  -0.05285644531250000000000,  0.04675292968750000000000,  0.11401367187500000000000,  0.00268554687500000000000,  0.04675292968750000000000,  -0.03308105468750000000000,  0.00024414062500000000000,  0.07067871093750000000000,  -0.06567382812500000000000,  -0.01892089843750000000000,  0.00756835937500000000000,  0.00061035156250000000000,  -0.01037597656250000000000,  0.07373046875000000000000,  0.01770019531250000000000,  -0.09191894531250000000000,  -0.07458496093750000000000,  0.05676269531250000000000,  -0.04357910156250000000000,  0.08386230468750000000000,
 -0.08874511718750000000000,  -0.03417968750000000000000,  0.00280761718750000000000,  -0.06372070312500000000000,  -0.09997558593750000000000,  0.02624511718750000000000,  -0.05456542968750000000000,  -0.08288574218750000000000,  -0.11059570312500000000000,  0.04907226562500000000000,  -0.02502441406250000000000,  -0.01611328125000000000000,  -0.01525878906250000000000,  -0.06494140625000000000000,  0.04711914062500000000000,  0.04528808593750000000000,  0.07373046875000000000000,  -0.00756835937500000000000,  0.07385253906250000000000,  -0.02185058593750000000000,  0.01782226562500000000000,  -0.00537109375000000000000,  0.08569335937500000000000,  -0.04797363281250000000000,  -0.05822753906250000000000,  0.08740234375000000000000,  -0.09118652343750000000000,  0.01696777343750000000000,  -0.00939941406250000000000,  -0.11059570312500000000000,  -0.03735351562500000000000,  0.07336425781250000000000,  -0.04199218750000000000000,  0.01025390625000000000000,  0.06286621093750000000000,  0.00341796875000000000000,  -0.00158691406250000000000,  0.03125000000000000000000,  -0.00463867187500000000000,  -0.09887695312500000000000,  -0.00476074218750000000000,  -0.09326171875000000000000,  0.03186035156250000000000,  -0.05029296875000000000000,  0.03247070312500000000000,  -0.05175781250000000000000,  0.13134765625000000000000,  0.08239746093750000000000,  -0.01928710937500000000000,  0.07128906250000000000000,  0.05249023437500000000000,  0.05017089843750000000000,  -0.02551269531250000000000,  0.09985351562500000000000,  -0.00488281250000000000000,  -0.05456542968750000000000,  0.09350585937500000000000,  -0.08288574218750000000000,  0.00878906250000000000000,  0.02636718750000000000000,  -0.00219726562500000000000,  0.03515625000000000000000,  -0.00073242187500000000000,  0.01879882812500000000000,  0.06152343750000000000000,  0.00195312500000000000000,  -0.00134277343750000000000,  0.05957031250000000000000,  -0.05957031250000000000000,  0.06677246093750000000000,  0.00231933593750000000000,  0.01574707031250000000000,  0.03784179687500000000000,  -0.10192871093750000000000,  0.07434082031250000000000,  -0.04541015625000000000000,  -0.13500976562500000000000,  -0.10510253906250000000000,  -0.07885742187500000000000,  -0.09948730468750000000000,  0.12915039062500000000000,  0.05212402343750000000000,  -0.10888671875000000000000,  0.05847167968750000000000,  -0.07165527343750000000000,  -0.11022949218750000000000,  0.02905273437500000000000,  -0.04016113281250000000000,  0.11242675781250000000000,  -0.09472656250000000000000,  -0.03039550781250000000000,  -0.11450195312500000000000,  0.01049804687500000000000,  -0.04040527343750000000000,  0.03149414062500000000000,  -0.05297851562500000000000,  0.04077148437500000000000,  -0.04248046875000000000000,  -0.11645507812500000000000,  -0.04003906250000000000000,  -0.03283691406250000000000,  -0.00732421875000000000000,  -0.13854980468750000000000,  0.02136230468750000000000,  0.03894042968750000000000,  0.02380371093750000000000,  0.06140136718750000000000,  -0.04919433593750000000000,  0.10681152343750000000000,  0.10961914062500000000000,  0.11352539062500000000000,  0.02136230468750000000000,  0.03588867187500000000000,  -0.01428222656250000000000,  -0.09204101562500000000000,  -0.01965332031250000000000,  0.11145019531250000000000,  0.05334472656250000000000,  0.14099121093750000000000,  0.03100585937500000000000,
 0.02465820312500000000000,  -0.00012207031250000000000,  -0.05615234375000000000000,  0.00634765625000000000000,  0.06250000000000000000000,  -0.01757812500000000000000,  0.02612304687500000000000,  -0.00756835937500000000000,  -0.03881835937500000000000,  -0.11914062500000000000000,  0.02050781250000000000000,  0.12524414062500000000000,  -0.03747558593750000000000,  0.08813476562500000000000,  -0.01452636718750000000000,  0.13513183593750000000000,  -0.02172851562500000000000,  0.06469726562500000000000,  0.02124023437500000000000,  -0.00268554687500000000000,  -0.10607910156250000000000,  0.10791015625000000000000,  0.09338378906250000000000,  -0.09057617187500000000000,  0.05175781250000000000000,  0.06469726562500000000000,  -0.12878417968750000000000,  0.09216308593750000000000,  0.02258300781250000000000,  -0.07519531250000000000000,  0.09997558593750000000000,  0.10412597656250000000000,  -0.03564453125000000000000,  0.05224609375000000000000,  -0.01354980468750000000000,  -0.03027343750000000000000,  0.01342773437500000000000,  0.06445312500000000000000,  0.01269531250000000000000,  -0.02722167968750000000000,  0.13598632812500000000000,  0.01660156250000000000000,  -0.07385253906250000000000,  0.02807617187500000000000,  0.11853027343750000000000,  0.13171386718750000000000,  0.03466796875000000000000,  -0.03259277343750000000000,  0.00781250000000000000000,  0.04431152343750000000000,  -0.03979492187500000000000,  -0.07958984375000000000000,  0.02111816406250000000000,  0.02209472656250000000000,  -0.00524902343750000000000,  -0.08227539062500000000000,  -0.06677246093750000000000,  -0.02001953125000000000000,  0.01867675781250000000000,  -0.01464843750000000000000,  0.08703613281250000000000,  0.10644531250000000000000,  0.03881835937500000000000,  -0.02185058593750000000000,  0.02026367187500000000000,  -0.07360839843750000000000,  0.02319335937500000000000,  0.00537109375000000000000,  -0.03637695312500000000000,  -0.08569335937500000000000,  0.05407714843750000000000,  0.05541992187500000000000,  -0.03601074218750000000000,  0.03735351562500000000000,  -0.05346679687500000000000,  -0.02014160156250000000000,  0.01489257812500000000000,  -0.00280761718750000000000,  0.02795410156250000000000,  0.02124023437500000000000,  0.03149414062500000000000,  -0.05004882812500000000000,  0.04211425781250000000000,  -0.08093261718750000000000,  0.00317382812500000000000,  0.09753417968750000000000,  0.07849121093750000000000,  -0.09582519531250000000000,  -0.00524902343750000000000,  -0.02600097656250000000000,  0.00598144531250000000000,  -0.02172851562500000000000,  -0.09277343750000000000000,  0.05700683593750000000000,  0.05358886718750000000000,  0.05944824218750000000000,  -0.05651855468750000000000,  -0.02990722656250000000000,  0.00573730468750000000000,  0.06396484375000000000000,  0.03747558593750000000000,  -0.01721191406250000000000,  0.03161621093750000000000,  0.07861328125000000000000,  -0.02355957031250000000000,  0.01208496093750000000000,  -0.04284667968750000000000,  0.03576660156250000000000,  0.05590820312500000000000,  0.03332519531250000000000,  0.07885742187500000000000,  0.14379882812500000000000,  0.05053710937500000000000,  -0.02514648437500000000000,  -0.06616210937500000000000,  -0.01025390625000000000000,  -0.05798339843750000000000,  0.02307128906250000000000,  -0.10205078125000000000000,  0.08557128906250000000000,
 0.03710937500000000000000,  -0.06481933593750000000000,  0.01257324218750000000000,  0.07287597656250000000000,  -0.08447265625000000000000,  0.03820800781250000000000,  -0.07043457031250000000000,  -0.03308105468750000000000,  0.07434082031250000000000,  -0.01953125000000000000000,  0.05407714843750000000000,  -0.08862304687500000000000,  0.02697753906250000000000,  0.12182617187500000000000,  -0.03210449218750000000000,  0.06823730468750000000000,  0.10266113281250000000000,  -0.11816406250000000000000,  0.07763671875000000000000,  -0.01208496093750000000000,  0.03979492187500000000000,  0.04016113281250000000000,  -0.01000976562500000000000,  0.10717773437500000000000,  0.06384277343750000000000,  0.06152343750000000000000,  0.04504394531250000000000,  -0.03491210937500000000000,  0.07543945312500000000000,  -0.02880859375000000000000,  -0.05407714843750000000000,  0.08996582031250000000000,  0.05395507812500000000000,  -0.07043457031250000000000,  0.01733398437500000000000,  0.02441406250000000000000,  -0.12304687500000000000000,  0.01806640625000000000000,  -0.02697753906250000000000,  0.03894042968750000000000,  0.02636718750000000000000,  -0.04406738281250000000000,  -0.03576660156250000000000,  -0.00781250000000000000000,  0.09851074218750000000000,  0.01806640625000000000000,  -0.05627441406250000000000,  0.08666992187500000000000,  0.09375000000000000000000,  0.04138183593750000000000,  0.07958984375000000000000,  -0.02966308593750000000000,  0.07031250000000000000000,  -0.06799316406250000000000,  -0.01049804687500000000000,  0.07629394531250000000000,  -0.06066894531250000000000,  -0.03442382812500000000000,  0.00427246093750000000000,  0.12622070312500000000000,  0.07019042968750000000000,  0.02734375000000000000000,  -0.04943847656250000000000,  0.06811523437500000000000,  0.06213378906250000000000,  0.05664062500000000000000,  0.01159667968750000000000,  0.10925292968750000000000,  0.05090332031250000000000,  -0.09631347656250000000000,  0.10607910156250000000000,  0.02282714843750000000000,  0.01586914062500000000000,  -0.08312988281250000000000,  0.10803222656250000000000,  -0.04064941406250000000000,  0.01306152343750000000000,  0.10046386718750000000000,  0.02587890625000000000000,  -0.09741210937500000000000,  -0.00109863281250000000000,  -0.09570312500000000000000,  -0.01196289062500000000000,  -0.02490234375000000000000,  -0.02880859375000000000000,  -0.00878906250000000000000,  -0.08471679687500000000000,  0.03845214843750000000000,  -0.01379394531250000000000,  0.04125976562500000000000,  -0.04113769531250000000000,  -0.05053710937500000000000,  -0.04809570312500000000000,  -0.06372070312500000000000,  0.05688476562500000000000,  -0.01977539062500000000000,  -0.00195312500000000000000,  -0.12854003906250000000000,  0.06604003906250000000000,  -0.00219726562500000000000,  0.07287597656250000000000,  0.03393554687500000000000,  0.00476074218750000000000,  -0.03723144531250000000000,  0.06152343750000000000000,  -0.01464843750000000000000,  0.03100585937500000000000,  0.01855468750000000000000,  0.00354003906250000000000,  -0.01892089843750000000000,  0.10009765625000000000000,  0.01538085937500000000000,  0.01745605468750000000000,  -0.01184082031250000000000,  0.00378417968750000000000,  -0.04321289062500000000000,  -0.05322265625000000000000,  0.07495117187500000000000,  0.00878906250000000000000,  0.10144042968750000000000,
 0.07592773437500000000000,  -0.00268554687500000000000,  0.05773925781250000000000,  -0.05981445312500000000000,  -0.00915527343750000000000,  -0.11083984375000000000000,  -0.04760742187500000000000,  -0.05139160156250000000000,  0.07885742187500000000000,  0.06494140625000000000000,  0.03454589843750000000000,  0.00122070312500000000000,  0.05102539062500000000000,  0.10412597656250000000000,  -0.07189941406250000000000,  0.04516601562500000000000,  0.05676269531250000000000,  0.04235839843750000000000,  0.03344726562500000000000,  0.04711914062500000000000,  -0.09887695312500000000000,  0.04858398437500000000000,  -0.00830078125000000000000,  0.04125976562500000000000,  -0.07092285156250000000000,  -0.07202148437500000000000,  -0.06054687500000000000000,  0.02807617187500000000000,  0.01538085937500000000000,  0.00537109375000000000000,  0.00134277343750000000000,  0.13183593750000000000000,  -0.09948730468750000000000,  -0.01037597656250000000000,  -0.00976562500000000000000,  0.12768554687500000000000,  0.03137207031250000000000,  -0.02746582031250000000000,  -0.05468750000000000000000,  -0.05297851562500000000000,  0.01818847656250000000000,  0.07885742187500000000000,  0.05700683593750000000000,  -0.07238769531250000000000,  -0.01049804687500000000000,  -0.03869628906250000000000,  -0.00537109375000000000000,  -0.07348632812500000000000,  0.00891113281250000000000,  0.09887695312500000000000,  -0.11022949218750000000000,  -0.06372070312500000000000,  0.07202148437500000000000,  -0.02270507812500000000000,  -0.08483886718750000000000,  -0.00109863281250000000000,  -0.00415039062500000000000,  -0.00195312500000000000000,  0.06591796875000000000000,  -0.00390625000000000000000,  0.09765625000000000000000,  0.02502441406250000000000,  0.02246093750000000000000,  -0.01599121093750000000000,  -0.03381347656250000000000,  0.09387207031250000000000,  0.04040527343750000000000,  0.05456542968750000000000,  0.08422851562500000000000,  -0.04797363281250000000000,  0.00000000000000000000000,  0.11596679687500000000000,  0.07421875000000000000000,  0.06164550781250000000000,  -0.03588867187500000000000,  0.04907226562500000000000,  -0.04797363281250000000000,  0.07312011718750000000000,  -0.04174804687500000000000,  0.01171875000000000000000,  -0.01379394531250000000000,  -0.06970214843750000000000,  -0.03234863281250000000000,  0.00280761718750000000000,  0.03417968750000000000000,  -0.00354003906250000000000,  -0.08972167968750000000000,  -0.00512695312500000000000,  0.11132812500000000000000,  -0.03283691406250000000000,  -0.00244140625000000000000,  0.07519531250000000000000,  -0.09912109375000000000000,  0.00109863281250000000000,  -0.04016113281250000000000,  -0.00720214843750000000000,  -0.01000976562500000000000,  0.05139160156250000000000,  0.11682128906250000000000,  -0.09716796875000000000000,  -0.01269531250000000000000,  0.09704589843750000000000,  0.00878906250000000000000,  0.09460449218750000000000,  -0.06921386718750000000000,  -0.01354980468750000000000,  -0.12573242187500000000000,  -0.05517578125000000000000,  0.03881835937500000000000,  0.02490234375000000000000,  -0.01184082031250000000000,  -0.10083007812500000000000,  0.12780761718750000000000,  0.05004882812500000000000,  0.04077148437500000000000,  0.08312988281250000000000,  -0.10900878906250000000000,  0.14086914062500000000000,  0.00878906250000000000000,  0.03137207031250000000000,
 0.10266113281250000000000,  -0.09057617187500000000000,  -0.03869628906250000000000,  -0.11437988281250000000000,  0.00512695312500000000000,  0.06018066406250000000000,  -0.09667968750000000000000,  0.05883789062500000000000,  -0.03784179687500000000000,  0.05102539062500000000000,  -0.01940917968750000000000,  0.07019042968750000000000,  0.03869628906250000000000,  0.02368164062500000000000,  0.03466796875000000000000,  -0.03503417968750000000000,  -0.01403808593750000000000,  0.10839843750000000000000,  -0.05224609375000000000000,  0.00683593750000000000000,  0.03845214843750000000000,  0.03698730468750000000000,  -0.01293945312500000000000,  0.11584472656250000000000,  -0.00561523437500000000000,  -0.05761718750000000000000,  -0.03527832031250000000000,  0.08825683593750000000000,  0.04382324218750000000000,  0.09191894531250000000000,  -0.00744628906250000000000,  0.00415039062500000000000,  -0.06530761718750000000000,  -0.02282714843750000000000,  0.03881835937500000000000,  -0.12756347656250000000000,  0.00732421875000000000000,  -0.00390625000000000000000,  0.02160644531250000000000,  0.00842285156250000000000,  -0.03894042968750000000000,  0.05554199218750000000000,  0.03820800781250000000000,  -0.00329589843750000000000,  -0.11523437500000000000000,  -0.02624511718750000000000,  -0.00219726562500000000000,  0.07421875000000000000000,  -0.10449218750000000000000,  0.05065917968750000000000,  -0.02929687500000000000000,  0.09667968750000000000000,  0.11682128906250000000000,  0.01037597656250000000000,  -0.02832031250000000000000,  0.09167480468750000000000,  -0.10510253906250000000000,  -0.02575683593750000000000,  0.12695312500000000000000,  0.01989746093750000000000,  -0.08959960937500000000000,  -0.00390625000000000000000,  -0.03137207031250000000000,  -0.01025390625000000000000,  0.00195312500000000000000,  0.10583496093750000000000,  0.13903808593750000000000,  0.03137207031250000000000,  -0.00146484375000000000000,  -0.02221679687500000000000,  -0.08850097656250000000000,  0.02343750000000000000000,  0.00854492187500000000000,  -0.01330566406250000000000,  -0.10119628906250000000000,  -0.03454589843750000000000,  -0.04858398437500000000000,  0.14208984375000000000000,  0.01135253906250000000000,  0.01892089843750000000000,  -0.02905273437500000000000,  -0.04443359375000000000000,  -0.10632324218750000000000,  -0.05114746093750000000000,  -0.04272460937500000000000,  -0.11242675781250000000000,  0.01220703125000000000000,  0.10583496093750000000000,  0.03784179687500000000000,  0.00402832031250000000000,  0.03051757812500000000000,  0.05346679687500000000000,  0.02514648437500000000000,  0.00378417968750000000000,  0.06774902343750000000000,  -0.02612304687500000000000,  0.02978515625000000000000,  -0.00585937500000000000000,  0.10656738281250000000000,  0.08813476562500000000000,  -0.03417968750000000000000,  0.02246093750000000000000,  -0.02575683593750000000000,  -0.04797363281250000000000,  -0.06250000000000000000000,  -0.01379394531250000000000,  -0.02551269531250000000000,  -0.07360839843750000000000,  0.04882812500000000000000,  0.01721191406250000000000,  0.05249023437500000000000,  -0.01757812500000000000000,  0.07812500000000000000000,  0.04199218750000000000000,  0.01293945312500000000000,  -0.03808593750000000000000,  0.07470703125000000000000,  0.03710937500000000000000,  -0.00903320312500000000000,  -0.07287597656250000000000,
 -0.00805664062500000000000,  0.11145019531250000000000,  0.10986328125000000000000,  -0.05334472656250000000000,  -0.08691406250000000000000,  -0.02355957031250000000000,  -0.09069824218750000000000,  -0.00964355468750000000000,  -0.01818847656250000000000,  -0.04528808593750000000000,  -0.04589843750000000000000,  -0.07568359375000000000000,  0.04431152343750000000000,  -0.07055664062500000000000,  0.10327148437500000000000,  0.08984375000000000000000,  -0.00939941406250000000000,  -0.00854492187500000000000,  -0.02893066406250000000000,  -0.05944824218750000000000,  0.08020019531250000000000,  -0.11035156250000000000000,  0.07922363281250000000000,  0.12634277343750000000000,  -0.03515625000000000000000,  -0.04028320312500000000000,  0.08398437500000000000000,  -0.02062988281250000000000,  0.04541015625000000000000,  -0.07080078125000000000000,  0.03674316406250000000000,  0.01318359375000000000000,  -0.00732421875000000000000,  -0.02587890625000000000000,  0.05383300781250000000000,  0.08508300781250000000000,  0.04321289062500000000000,  0.05029296875000000000000,  0.08044433593750000000000,  0.02636718750000000000000,  -0.01074218750000000000000,  0.03222656250000000000000,  0.00683593750000000000000,  -0.01330566406250000000000,  -0.00231933593750000000000,  -0.07348632812500000000000,  -0.06848144531250000000000,  0.05847167968750000000000,  0.01391601562500000000000,  -0.04833984375000000000000,  0.04296875000000000000000,  0.10302734375000000000000,  -0.04064941406250000000000,  -0.07531738281250000000000,  0.05737304687500000000000,  0.07849121093750000000000,  0.00061035156250000000000,  -0.00219726562500000000000,  0.06176757812500000000000,  0.05151367187500000000000,  0.08288574218750000000000,  -0.11389160156250000000000,  -0.06250000000000000000000,  -0.08801269531250000000000,  -0.00024414062500000000000,  0.02148437500000000000000,  -0.04003906250000000000000,  -0.04309082031250000000000,  -0.05944824218750000000000,  -0.10290527343750000000000,  0.10937500000000000000000,  -0.00109863281250000000000,  0.11169433593750000000000,  0.06372070312500000000000,  0.00231933593750000000000,  -0.04101562500000000000000,  0.05676269531250000000000,  0.04028320312500000000000,  0.04833984375000000000000,  -0.06176757812500000000000,  -0.02807617187500000000000,  0.00378417968750000000000,  0.13574218750000000000000,  -0.02868652343750000000000,  -0.02111816406250000000000,  -0.05139160156250000000000,  0.10302734375000000000000,  0.04772949218750000000000,  -0.00732421875000000000000,  0.03833007812500000000000,  0.04309082031250000000000,  0.04296875000000000000000,  0.02941894531250000000000,  -0.11132812500000000000000,  0.05383300781250000000000,  0.00952148437500000000000,  0.03027343750000000000000,  -0.01733398437500000000000,  -0.12683105468750000000000,  -0.05297851562500000000000,  0.01562500000000000000000,  -0.02075195312500000000000,  -0.03247070312500000000000,  0.00476074218750000000000,  -0.11706542968750000000000,  -0.03002929687500000000000,  0.10534667968750000000000,  0.08801269531250000000000,  0.00000000000000000000000,  0.05261230468750000000000,  0.09143066406250000000000,  0.03955078125000000000000,  0.08728027343750000000000,  0.03259277343750000000000,  0.01098632812500000000000,  -0.01647949218750000000000,  -0.05053710937500000000000,  -0.05004882812500000000000,  -0.01171875000000000000000,  0.01953125000000000000000,
 0.05407714843750000000000,  -0.01550292968750000000000,  0.05822753906250000000000,  0.14538574218750000000000,  -0.05676269531250000000000,  0.02075195312500000000000,  -0.11254882812500000000000,  0.12316894531250000000000,  -0.08691406250000000000000,  -0.01843261718750000000000,  0.06726074218750000000000,  0.05529785156250000000000,  -0.03637695312500000000000,  0.02661132812500000000000,  0.05187988281250000000000,  -0.06237792968750000000000,  -0.05908203125000000000000,  -0.12231445312500000000000,  -0.10168457031250000000000,  0.08056640625000000000000,  0.06701660156250000000000,  -0.01257324218750000000000,  -0.01525878906250000000000,  0.05615234375000000000000,  0.07299804687500000000000,  0.00744628906250000000000,  0.02819824218750000000000,  0.10327148437500000000000,  -0.03918457031250000000000,  -0.00708007812500000000000,  0.03015136718750000000000,  -0.01257324218750000000000,  -0.02929687500000000000000,  -0.06079101562500000000000,  0.06640625000000000000000,  0.04040527343750000000000,  -0.01428222656250000000000,  -0.08630371093750000000000,  -0.08471679687500000000000,  0.14013671875000000000000,  -0.06774902343750000000000,  0.03625488281250000000000,  0.06469726562500000000000,  0.05078125000000000000000,  0.04602050781250000000000,  0.07446289062500000000000,  -0.03015136718750000000000,  0.10974121093750000000000,  -0.02062988281250000000000,  0.03405761718750000000000,  -0.06469726562500000000000,  -0.02722167968750000000000,  -0.01086425781250000000000,  -0.08947753906250000000000,  -0.11450195312500000000000,  0.04345703125000000000000,  -0.00817871093750000000000,  0.00634765625000000000000,  -0.01464843750000000000000,  -0.01037597656250000000000,  -0.02795410156250000000000,  -0.01879882812500000000000,  -0.01757812500000000000000,  -0.12878417968750000000000,  -0.02062988281250000000000,  0.11584472656250000000000,  -0.04858398437500000000000,  -0.03137207031250000000000,  -0.02575683593750000000000,  0.00830078125000000000000,  0.04284667968750000000000,  0.02185058593750000000000,  0.01684570312500000000000,  0.02368164062500000000000,  -0.04785156250000000000000,  0.07958984375000000000000,  -0.12353515625000000000000,  -0.02709960937500000000000,  -0.09106445312500000000000,  0.07714843750000000000000,  -0.05297851562500000000000,  -0.05798339843750000000000,  -0.06909179687500000000000,  0.00781250000000000000000,  -0.04211425781250000000000,  0.03198242187500000000000,  -0.01147460937500000000000,  0.05053710937500000000000,  0.02600097656250000000000,  0.12414550781250000000000,  0.04455566406250000000000,  0.07751464843750000000000,  0.06762695312500000000000,  -0.00390625000000000000000,  0.05969238281250000000000,  0.07434082031250000000000,  0.00488281250000000000000,  -0.07934570312500000000000,  0.05456542968750000000000,  -0.02746582031250000000000,  -0.03808593750000000000000,  0.03540039062500000000000,  0.02197265625000000000000,  -0.03869628906250000000000,  0.02197265625000000000000,  0.02453613281250000000000,  -0.10717773437500000000000,  0.11193847656250000000000,  -0.02575683593750000000000,  0.01281738281250000000000,  0.05895996093750000000000,  -0.04211425781250000000000,  -0.04357910156250000000000,  -0.01782226562500000000000,  0.05895996093750000000000,  -0.04357910156250000000000,  -0.13452148437500000000000,  -0.05285644531250000000000,  0.06774902343750000000000,  0.05151367187500000000000,
 -0.11462402343750000000000,  -0.08618164062500000000000,  0.07006835937500000000000,  -0.01013183593750000000000,  -0.04443359375000000000000,  0.10803222656250000000000,  -0.14526367187500000000000,  0.06958007812500000000000,  -0.04406738281250000000000,  -0.00524902343750000000000,  0.08471679687500000000000,  0.06042480468750000000000,  0.03771972656250000000000,  -0.00622558593750000000000,  0.03112792968750000000000,  0.07177734375000000000000,  -0.02136230468750000000000,  0.05004882812500000000000,  -0.04003906250000000000000,  0.00036621093750000000000,  0.11779785156250000000000,  -0.08996582031250000000000,  0.05981445312500000000000,  -0.01257324218750000000000,  0.11840820312500000000000,  -0.06884765625000000000000,  -0.02441406250000000000000,  -0.07763671875000000000000,  -0.04907226562500000000000,  -0.01245117187500000000000,  -0.13171386718750000000000,  -0.01135253906250000000000,  0.05358886718750000000000,  -0.00732421875000000000000,  -0.00109863281250000000000,  0.04711914062500000000000,  0.09484863281250000000000,  -0.01391601562500000000000,  -0.01843261718750000000000,  0.02478027343750000000000,  0.02172851562500000000000,  0.03906250000000000000000,  -0.00659179687500000000000,  -0.06982421875000000000000,  0.05151367187500000000000,  0.08422851562500000000000,  0.08837890625000000000000,  0.09399414062500000000000,  -0.01232910156250000000000,  -0.00964355468750000000000,  0.05297851562500000000000,  -0.00866699218750000000000,  0.01550292968750000000000,  -0.06445312500000000000000,  -0.00561523437500000000000,  -0.03796386718750000000000,  -0.07080078125000000000000,  0.09143066406250000000000,  0.00012207031250000000000,  -0.02587890625000000000000,  0.10473632812500000000000,  -0.09033203125000000000000,  -0.03088378906250000000000,  -0.07910156250000000000000,  0.02929687500000000000000,  0.09521484375000000000000,  0.01989746093750000000000,  0.04626464843750000000000,  0.13256835937500000000000,  0.07006835937500000000000,  0.11901855468750000000000,  0.03015136718750000000000,  -0.01623535156250000000000,  0.06164550781250000000000,  -0.08435058593750000000000,  0.02453613281250000000000,  0.02502441406250000000000,  0.05358886718750000000000,  -0.09020996093750000000000,  0.11828613281250000000000,  0.03259277343750000000000,  0.03588867187500000000000,  -0.05346679687500000000000,  0.05505371093750000000000,  0.00708007812500000000000,  0.13635253906250000000000,  -0.02014160156250000000000,  -0.00891113281250000000000,  -0.04772949218750000000000,  -0.02319335937500000000000,  -0.02246093750000000000000,  0.08496093750000000000000,  0.07739257812500000000000,  0.00061035156250000000000,  0.01049804687500000000000,  -0.01794433593750000000000,  -0.11962890625000000000000,  0.00390625000000000000000,  -0.06237792968750000000000,  -0.01330566406250000000000,  -0.09631347656250000000000,  0.03356933593750000000000,  -0.04809570312500000000000,  0.01281738281250000000000,  -0.00598144531250000000000,  -0.01379394531250000000000,  -0.01330566406250000000000,  -0.07214355468750000000000,  -0.02416992187500000000000,  -0.01550292968750000000000,  0.04736328125000000000000,  -0.03320312500000000000000,  -0.10400390625000000000000,  0.04821777343750000000000,  -0.01477050781250000000000,  -0.01660156250000000000000,  0.04724121093750000000000,  -0.02233886718750000000000,  0.05712890625000000000000,  -0.05517578125000000000000,
 -0.10888671875000000000000,  0.04882812500000000000000,  0.04858398437500000000000,  0.07434082031250000000000,  -0.05395507812500000000000,  -0.12524414062500000000000,  -0.09069824218750000000000,  -0.05810546875000000000000,  -0.04895019531250000000000,  -0.07226562500000000000000,  -0.00146484375000000000000,  0.02770996093750000000000,  -0.05969238281250000000000,  -0.06311035156250000000000,  0.02758789062500000000000,  -0.01147460937500000000000,  0.03735351562500000000000,  0.05371093750000000000000,  -0.01062011718750000000000,  -0.06323242187500000000000,  0.02673339843750000000000,  -0.03479003906250000000000,  -0.01416015625000000000000,  0.01208496093750000000000,  0.07983398437500000000000,  0.07006835937500000000000,  0.04589843750000000000000,  0.07849121093750000000000,  -0.01208496093750000000000,  -0.01611328125000000000000,  -0.02307128906250000000000,  -0.09643554687500000000000,  -0.04699707031250000000000,  0.11853027343750000000000,  0.02160644531250000000000,  0.08569335937500000000000,  0.09484863281250000000000,  0.00842285156250000000000,  -0.05554199218750000000000,  -0.01513671875000000000000,  -0.05871582031250000000000,  0.02709960937500000000000,  0.03295898437500000000000,  0.03051757812500000000000,  0.09448242187500000000000,  0.00317382812500000000000,  0.02343750000000000000000,  0.11315917968750000000000,  -0.04895019531250000000000,  -0.01635742187500000000000,  0.01586914062500000000000,  0.08300781250000000000000,  -0.05651855468750000000000,  -0.01867675781250000000000,  -0.05065917968750000000000,  -0.09191894531250000000000,  0.00000000000000000000000,  0.09582519531250000000000,  -0.02087402343750000000000,  -0.03063964843750000000000,  -0.00598144531250000000000,  -0.05444335937500000000000,  -0.10095214843750000000000,  -0.06665039062500000000000,  0.08886718750000000000000,  0.00659179687500000000000,  -0.04650878906250000000000,  -0.15344238281250000000000,  0.00219726562500000000000,  -0.01647949218750000000000,  0.06896972656250000000000,  -0.01550292968750000000000,  0.09851074218750000000000,  0.07275390625000000000000,  -0.03125000000000000000000,  0.12109375000000000000000,  0.02099609375000000000000,  -0.00952148437500000000000,  -0.12377929687500000000000,  -0.03442382812500000000000,  0.06262207031250000000000,  -0.03234863281250000000000,  -0.04174804687500000000000,  -0.06042480468750000000000,  -0.09851074218750000000000,  -0.04699707031250000000000,  -0.07800292968750000000000,  0.03149414062500000000000,  0.09301757812500000000000,  -0.06054687500000000000000,  -0.08129882812500000000000,  -0.01245117187500000000000,  0.05090332031250000000000,  0.02978515625000000000000,  -0.06579589843750000000000,  0.00952148437500000000000,  0.03051757812500000000000,  0.08129882812500000000000,  -0.04663085937500000000000,  0.07043457031250000000000,  0.09045410156250000000000,  0.08715820312500000000000,  -0.00610351562500000000000,  -0.05139160156250000000000,  -0.07397460937500000000000,  0.06469726562500000000000,  0.07128906250000000000000,  0.13195800781250000000000,  0.05615234375000000000000,  0.01489257812500000000000,  0.03173828125000000000000,  -0.01525878906250000000000,  -0.01733398437500000000000,  -0.09179687500000000000000,  -0.04602050781250000000000,  -0.04589843750000000000000,  0.03417968750000000000000,  -0.07189941406250000000000,  -0.00097656250000000000000,  -0.07775878906250000000000,
 -0.01452636718750000000000,  -0.08520507812500000000000,  0.06726074218750000000000,  0.02587890625000000000000,  0.08996582031250000000000,  -0.02172851562500000000000,  0.04882812500000000000000,  -0.01220703125000000000000,  0.06970214843750000000000,  -0.09606933593750000000000,  -0.05419921875000000000000,  0.05798339843750000000000,  -0.05932617187500000000000,  0.07714843750000000000000,  0.04113769531250000000000,  -0.05078125000000000000000,  -0.11584472656250000000000,  0.00610351562500000000000,  0.01635742187500000000000,  0.03735351562500000000000,  0.00976562500000000000000,  0.00976562500000000000000,  0.00756835937500000000000,  0.04895019531250000000000,  0.06677246093750000000000,  -0.09851074218750000000000,  -0.03454589843750000000000,  -0.07043457031250000000000,  0.10620117187500000000000,  -0.07421875000000000000000,  -0.00463867187500000000000,  -0.05639648437500000000000,  0.05761718750000000000000,  0.07324218750000000000000,  0.08056640625000000000000,  0.11462402343750000000000,  -0.01220703125000000000000,  -0.02624511718750000000000,  0.07788085937500000000000,  0.03393554687500000000000,  0.10510253906250000000000,  0.02636718750000000000000,  -0.00463867187500000000000,  -0.01196289062500000000000,  -0.02832031250000000000000,  0.10083007812500000000000,  0.09338378906250000000000,  0.07287597656250000000000,  -0.06860351562500000000000,  0.04089355468750000000000,  -0.09753417968750000000000,  -0.02502441406250000000000,  -0.08911132812500000000000,  0.08496093750000000000000,  0.09338378906250000000000,  0.03027343750000000000000,  -0.10083007812500000000000,  0.07824707031250000000000,  -0.06091308593750000000000,  0.01733398437500000000000,  -0.04504394531250000000000,  -0.05834960937500000000000,  0.00158691406250000000000,  -0.06323242187500000000000,  -0.04296875000000000000000,  -0.04003906250000000000000,  -0.03967285156250000000000,  -0.03491210937500000000000,  -0.02783203125000000000000,  -0.01342773437500000000000,  -0.05432128906250000000000,  -0.06152343750000000000000,  0.04064941406250000000000,  -0.01525878906250000000000,  0.03076171875000000000000,  -0.08728027343750000000000,  0.06677246093750000000000,  -0.04138183593750000000000,  0.06921386718750000000000,  0.04931640625000000000000,  -0.06787109375000000000000,  0.00012207031250000000000,  0.02099609375000000000000,  -0.07275390625000000000000,  -0.00231933593750000000000,  0.01562500000000000000000,  0.05847167968750000000000,  -0.07360839843750000000000,  0.08630371093750000000000,  0.06164550781250000000000,  -0.02514648437500000000000,  0.06945800781250000000000,  0.05957031250000000000000,  0.06079101562500000000000,  -0.03320312500000000000000,  -0.01281738281250000000000,  -0.01232910156250000000000,  0.02709960937500000000000,  -0.07031250000000000000000,  -0.05175781250000000000000,  0.02099609375000000000000,  0.04272460937500000000000,  -0.04028320312500000000000,  0.01281738281250000000000,  -0.06030273437500000000000,  -0.09118652343750000000000,  -0.00402832031250000000000,  -0.06494140625000000000000,  -0.09960937500000000000000,  -0.03076171875000000000000,  0.06982421875000000000000,  0.01416015625000000000000,  -0.07165527343750000000000,  -0.00646972656250000000000,  0.00927734375000000000000,  0.06091308593750000000000,  -0.00927734375000000000000,  -0.01452636718750000000000,  -0.07666015625000000000000,  0.02453613281250000000000,
 0.01123046875000000000000,  -0.13134765625000000000000,  -0.02185058593750000000000,  -0.05859375000000000000000,  0.02514648437500000000000,  0.00012207031250000000000,  0.00451660156250000000000,  -0.07360839843750000000000,  0.05480957031250000000000,  -0.10107421875000000000000,  -0.02355957031250000000000,  0.06005859375000000000000,  -0.02160644531250000000000,  -0.05786132812500000000000,  0.14892578125000000000000,  0.09545898437500000000000,  -0.05151367187500000000000,  0.03747558593750000000000,  -0.00402832031250000000000,  0.02014160156250000000000,  -0.08776855468750000000000,  0.01269531250000000000000,  -0.00256347656250000000000,  -0.03625488281250000000000,  0.10388183593750000000000,  0.07202148437500000000000,  -0.00659179687500000000000,  0.10070800781250000000000,  -0.07739257812500000000000,  -0.08886718750000000000000,  -0.03186035156250000000000,  0.01879882812500000000000,  -0.05004882812500000000000,  -0.02917480468750000000000,  -0.02294921875000000000000,  0.07214355468750000000000,  -0.06835937500000000000000,  0.04943847656250000000000,  -0.04992675781250000000000,  0.02404785156250000000000,  0.02429199218750000000000,  -0.03991699218750000000000,  0.05566406250000000000000,  0.02783203125000000000000,  -0.01403808593750000000000,  0.02392578125000000000000,  0.07617187500000000000000,  -0.00610351562500000000000,  0.03405761718750000000000,  -0.00756835937500000000000,  -0.03308105468750000000000,  -0.03344726562500000000000,  -0.01940917968750000000000,  -0.03002929687500000000000,  -0.06896972656250000000000,  0.06726074218750000000000,  0.01306152343750000000000,  0.08630371093750000000000,  0.00866699218750000000000,  0.00878906250000000000000,  0.07666015625000000000000,  -0.08642578125000000000000,  -0.03137207031250000000000,  0.03149414062500000000000,  -0.01867675781250000000000,  0.08789062500000000000000,  0.04516601562500000000000,  -0.12817382812500000000000,  -0.00305175781250000000000,  0.09753417968750000000000,  -0.09570312500000000000000,  -0.01074218750000000000000,  -0.01892089843750000000000,  0.00415039062500000000000,  0.11120605468750000000000,  0.09497070312500000000000,  -0.07702636718750000000000,  0.05517578125000000000000,  0.06384277343750000000000,  0.02612304687500000000000,  -0.00830078125000000000000,  0.07458496093750000000000,  -0.11218261718750000000000,  0.04211425781250000000000,  -0.02478027343750000000000,  0.07641601562500000000000,  0.00878906250000000000000,  -0.06921386718750000000000,  0.05957031250000000000000,  -0.08007812500000000000000,  -0.08593750000000000000000,  -0.03564453125000000000000,  -0.03808593750000000000000,  0.02526855468750000000000,  0.07202148437500000000000,  -0.05566406250000000000000,  0.02246093750000000000000,  -0.05200195312500000000000,  -0.05273437500000000000000,  0.07312011718750000000000,  0.07836914062500000000000,  0.01599121093750000000000,  -0.02661132812500000000000,  0.03442382812500000000000,  -0.06066894531250000000000,  -0.05883789062500000000000,  0.00329589843750000000000,  0.12231445312500000000000,  0.04833984375000000000000,  0.01940917968750000000000,  0.01074218750000000000000,  0.08374023437500000000000,  -0.01098632812500000000000,  0.01806640625000000000000,  -0.00427246093750000000000,  0.00061035156250000000000,  0.05273437500000000000000,  -0.06103515625000000000000,  -0.01684570312500000000000,  0.03051757812500000000000,
 0.05944824218750000000000,  0.10937500000000000000000,  -0.07885742187500000000000,  -0.07775878906250000000000,  -0.06188964843750000000000,  -0.04101562500000000000000,  0.01123046875000000000000,  -0.11035156250000000000000,  -0.02954101562500000000000,  -0.03552246093750000000000,  -0.04174804687500000000000,  0.08105468750000000000000,  0.03015136718750000000000,  0.00036621093750000000000,  0.00512695312500000000000,  0.03613281250000000000000,  0.02478027343750000000000,  0.06604003906250000000000,  0.08544921875000000000000,  0.00732421875000000000000,  -0.04663085937500000000000,  -0.00634765625000000000000,  0.09069824218750000000000,  -0.00183105468750000000000,  0.01940917968750000000000,  0.00219726562500000000000,  -0.01208496093750000000000,  0.06506347656250000000000,  -0.07006835937500000000000,  0.08691406250000000000000,  -0.03698730468750000000000,  0.01147460937500000000000,  -0.01745605468750000000000,  -0.02734375000000000000000,  0.11352539062500000000000,  -0.06787109375000000000000,  -0.01708984375000000000000,  0.00622558593750000000000,  0.03540039062500000000000,  0.00012207031250000000000,  0.03576660156250000000000,  0.00610351562500000000000,  -0.08203125000000000000000,  0.02905273437500000000000,  0.00146484375000000000000,  -0.09265136718750000000000,  0.00915527343750000000000,  0.01074218750000000000000,  -0.01757812500000000000000,  0.01086425781250000000000,  0.04492187500000000000000,  -0.03344726562500000000000,  -0.04809570312500000000000,  0.04418945312500000000000,  0.01611328125000000000000,  -0.00366210937500000000000,  -0.05700683593750000000000,  -0.04309082031250000000000,  -0.02221679687500000000000,  -0.00695800781250000000000,  -0.10949707031250000000000,  0.03173828125000000000000,  0.08300781250000000000000,  -0.06005859375000000000000,  -0.01855468750000000000000,  -0.12182617187500000000000,  0.08349609375000000000000,  -0.04614257812500000000000,  0.06091308593750000000000,  0.07080078125000000000000,  0.08349609375000000000000,  -0.09606933593750000000000,  -0.05114746093750000000000,  -0.01196289062500000000000,  0.09020996093750000000000,  -0.08581542968750000000000,  -0.03454589843750000000000,  0.05053710937500000000000,  -0.03039550781250000000000,  0.02587890625000000000000,  0.05175781250000000000000,  0.04455566406250000000000,  0.00524902343750000000000,  -0.02233886718750000000000,  -0.01367187500000000000000,  -0.03869628906250000000000,  -0.01245117187500000000000,  -0.02185058593750000000000,  -0.00939941406250000000000,  -0.00402832031250000000000,  0.01123046875000000000000,  0.00122070312500000000000,  0.04052734375000000000000,  -0.04309082031250000000000,  -0.00720214843750000000000,  0.00024414062500000000000,  -0.03308105468750000000000,  0.01721191406250000000000,  0.03588867187500000000000,  0.10473632812500000000000,  0.04345703125000000000000,  0.07434082031250000000000,  -0.03247070312500000000000,  -0.00122070312500000000000,  0.05395507812500000000000,  -0.00512695312500000000000,  0.04443359375000000000000,  0.06152343750000000000000,  -0.00158691406250000000000,  0.01452636718750000000000,  0.04467773437500000000000,  0.01525878906250000000000,  0.02258300781250000000000,  0.07043457031250000000000,  0.04040527343750000000000,  0.01818847656250000000000,  0.01525878906250000000000,  -0.00439453125000000000000,  -0.03662109375000000000000,  -0.03686523437500000000000,
 -0.04394531250000000000000,  -0.11108398437500000000000,  0.04406738281250000000000,  0.06811523437500000000000,  -0.05065917968750000000000,  -0.05358886718750000000000,  0.05456542968750000000000,  -0.08056640625000000000000,  0.05615234375000000000000,  0.03942871093750000000000,  -0.03295898437500000000000,  -0.06286621093750000000000,  0.04138183593750000000000,  -0.03515625000000000000000,  -0.00512695312500000000000,  0.02697753906250000000000,  0.02209472656250000000000,  -0.11682128906250000000000,  -0.06262207031250000000000,  -0.01147460937500000000000,  -0.01391601562500000000000,  0.00976562500000000000000,  0.01794433593750000000000,  -0.11975097656250000000000,  0.03491210937500000000000,  -0.01635742187500000000000,  -0.04138183593750000000000,  -0.04882812500000000000000,  -0.06616210937500000000000,  0.06860351562500000000000,  0.10668945312500000000000,  0.02099609375000000000000,  0.14245605468750000000000,  0.03784179687500000000000,  0.10180664062500000000000,  0.01342773437500000000000,  0.06164550781250000000000,  0.06481933593750000000000,  0.02844238281250000000000,  -0.05834960937500000000000,  -0.02307128906250000000000,  0.02185058593750000000000,  -0.03906250000000000000000,  0.07031250000000000000000,  -0.03796386718750000000000,  -0.01391601562500000000000,  0.08642578125000000000000,  -0.07641601562500000000000,  0.04199218750000000000000,  -0.05468750000000000000000,  0.10668945312500000000000,  0.00915527343750000000000,  0.00756835937500000000000,  -0.05615234375000000000000,  0.01745605468750000000000,  -0.10021972656250000000000,  -0.00292968750000000000000,  -0.02722167968750000000000,  0.02478027343750000000000,  -0.00122070312500000000000,  0.07238769531250000000000,  -0.01220703125000000000000,  0.08569335937500000000000,  -0.01660156250000000000000,  0.13232421875000000000000,  -0.03564453125000000000000,  0.09826660156250000000000,  0.08166503906250000000000,  0.11584472656250000000000,  0.00305175781250000000000,  -0.01953125000000000000000,  0.13500976562500000000000,  0.01574707031250000000000,  0.02319335937500000000000,  -0.00146484375000000000000,  0.03881835937500000000000,  -0.00964355468750000000000,  0.07336425781250000000000,  0.05395507812500000000000,  0.05847167968750000000000,  0.04064941406250000000000,  0.02734375000000000000000,  -0.05920410156250000000000,  -0.08068847656250000000000,  0.08276367187500000000000,  0.07238769531250000000000,  -0.11938476562500000000000,  -0.01782226562500000000000,  0.14721679687500000000000,  0.01379394531250000000000,  -0.01147460937500000000000,  -0.03527832031250000000000,  0.01501464843750000000000,  0.08654785156250000000000,  0.01025390625000000000000,  -0.03442382812500000000000,  -0.05798339843750000000000,  -0.03137207031250000000000,  0.03430175781250000000000,  0.00451660156250000000000,  0.04504394531250000000000,  -0.02954101562500000000000,  -0.01660156250000000000000,  0.06298828125000000000000,  0.03479003906250000000000,  -0.07592773437500000000000,  0.05541992187500000000000,  0.08471679687500000000000,  0.02380371093750000000000,  0.02819824218750000000000,  0.06542968750000000000000,  0.15307617187500000000000,  -0.02355957031250000000000,  -0.01782226562500000000000,  -0.03088378906250000000000,  -0.03674316406250000000000,  0.05883789062500000000000,  -0.05261230468750000000000,  0.06481933593750000000000,  -0.02575683593750000000000,
 -0.11853027343750000000000,  0.00671386718750000000000,  -0.04968261718750000000000,  0.01782226562500000000000,  -0.00549316406250000000000,  0.01037597656250000000000,  -0.04724121093750000000000,  -0.06713867187500000000000,  0.10864257812500000000000,  -0.01550292968750000000000,  0.02478027343750000000000,  -0.00048828125000000000000,  -0.12597656250000000000000,  0.06396484375000000000000,  0.07885742187500000000000,  0.04223632812500000000000,  -0.04553222656250000000000,  0.03564453125000000000000,  -0.00634765625000000000000,  -0.03369140625000000000000,  -0.00390625000000000000000,  0.06152343750000000000000,  0.06396484375000000000000,  -0.06933593750000000000000,  -0.03515625000000000000000,  0.02868652343750000000000,  0.00744628906250000000000,  -0.06750488281250000000000,  0.07922363281250000000000,  0.05517578125000000000000,  -0.04321289062500000000000,  0.03320312500000000000000,  -0.02465820312500000000000,  0.02392578125000000000000,  0.00378417968750000000000,  0.01794433593750000000000,  -0.06530761718750000000000,  0.02233886718750000000000,  0.01818847656250000000000,  0.02062988281250000000000,  0.12817382812500000000000,  -0.04846191406250000000000,  0.08215332031250000000000,  -0.02148437500000000000000,  -0.02600097656250000000000,  0.09790039062500000000000,  0.05126953125000000000000,  -0.03833007812500000000000,  0.04846191406250000000000,  -0.08862304687500000000000,  0.08410644531250000000000,  0.00219726562500000000000,  0.04309082031250000000000,  -0.04003906250000000000000,  -0.09252929687500000000000,  -0.08508300781250000000000,  -0.00109863281250000000000,  0.00488281250000000000000,  0.03381347656250000000000,  -0.09179687500000000000000,  0.01721191406250000000000,  0.03417968750000000000000,  0.10009765625000000000000,  -0.04077148437500000000000,  0.01208496093750000000000,  -0.06884765625000000000000,  0.07360839843750000000000,  0.00598144531250000000000,  0.00146484375000000000000,  0.07373046875000000000000,  -0.02038574218750000000000,  0.04284667968750000000000,  0.04541015625000000000000,  0.00622558593750000000000,  0.10485839843750000000000,  0.02600097656250000000000,  0.03637695312500000000000,  -0.08349609375000000000000,  0.01538085937500000000000,  0.04235839843750000000000,  -0.10388183593750000000000,  -0.05114746093750000000000,  -0.11853027343750000000000,  0.03027343750000000000000,  0.06311035156250000000000,  0.07568359375000000000000,  -0.10449218750000000000000,  0.00305175781250000000000,  -0.04321289062500000000000,  -0.00793457031250000000000,  0.06518554687500000000000,  0.06140136718750000000000,  -0.09997558593750000000000,  0.04919433593750000000000,  -0.02038574218750000000000,  0.07495117187500000000000,  0.05200195312500000000000,  -0.01538085937500000000000,  -0.01220703125000000000000,  0.01342773437500000000000,  -0.03698730468750000000000,  -0.04309082031250000000000,  -0.02966308593750000000000,  0.08447265625000000000000,  -0.06896972656250000000000,  0.07299804687500000000000,  -0.09423828125000000000000,  0.06298828125000000000000,  -0.01135253906250000000000,  0.06909179687500000000000,  0.15466308593750000000000,  0.01049804687500000000000,  -0.01611328125000000000000,  0.09436035156250000000000,  0.01562500000000000000000,  -0.00683593750000000000000,  0.02343750000000000000000,  0.01464843750000000000000,  0.11035156250000000000000,  0.04260253906250000000000,
