/*
<Lenet Neural Network High Level Synthesis Lenet>

MIT License

Copyright (c) 2020 Filipe Maciel Lins

Permission is hereby granted, free of charge, to any person obtaining a copy of this software
and associated documentation files (the "Software"), to deal in the Software without restriction,
including without limitation the rights to use, copy, modify, merge, publish, distribute, sublicense,
and/or sell copies of the Software, and to permit persons to whom the Software is furnished to do so,
subject to the following conditions: The above copyright notice and this permission notice shall be
included in all copies or substantial portions of the Software.

THE SOFTWARE IS PROVIDED "AS IS", WITHOUT WARRANTY OF ANY KIND, EXPRESS OR IMPLIED,INCLUDING
BUT NOT LIMITED TO THE WARRANTIES OF MERCHANTABILITY,FITNESS FOR A PARTICULAR PURPOSE AND
NONINFRINGEMENT. IN NO EVENT SHALL THE AUTHORS OR COPYRIGHT HOLDERS BE LIABLE FOR ANY CLAIM,
DAMAGES OR OTHER LIABILITY, WHETHER IN AN ACTION OF CONTRACT, TORT OR OTHERWISE, ARISING FROM,
OUT OF OR IN CONNECTION WITH THE SOFTWARE OR THE USE OR OTHER DEALINGS IN THE SOFTWARE.
*/

#ifndef EXP_WIDTH
#include "ap_fixed.h" 
#include "defines.h" 
typedef ap_fixed<EXP_WIDTH, INT_WIDTH> float24_t;
#endif

float fc1_layer_bias[120] = { -0.00068247289163991808891,  0.00864344090223312377930,  0.00101467838976532220840,  -0.00025532662402838468552,  0.00041628727922216057777,  -0.00539114838466048240662,  -0.00270964670926332473755,  0.00551315909251570701599,  0.00080860627349466085434,  0.00762892886996269226074,  -0.00026038987562060356140,  0.00000039508921645392547,  0.00003759244646062143147,  -0.01522601395845413208008,  -0.00677153188735246658325,  -0.00363162741996347904205,  0.00152107770554721355438,  0.00449401838704943656921,  0.00803752057254314422607,  0.01061801146715879440308,  0.00686821807175874710083,  -0.00002495049011486116797,  0.00321504683233797550201,  -0.00176941766403615474701,  -0.00646199192851781845093,  0.00034506968222558498383,  -0.00213303929194808006287,  0.00842595379799604415894,  -0.00232852925546467304230,  0.00769151234999299049377,  0.01290458161383867263794,  -0.00075418438063934445381,  -0.00601322017610073089600,  0.00217390037141740322113,  -0.00053029996342957019806,  -0.00619815895333886146545,  0.00310202664695680141449,  -0.00087345769861713051796,  -0.00015834483201615512371,  -0.00235464144498109817505,  -0.00513257272541522979736,  0.01303781848400831222534,  0.00951867643743753433228,  -0.00142255495302379131317,  -0.00259991548955440521240,  -0.00525150028988718986511,  0.00079979258589446544647,  0.00643559684976935386658,  0.00406491523608565330505,  -0.00131986534688621759415,  -0.00497375242412090301514,  -0.00627481006085872650146,  0.00225518527440726757050,  0.00106465467251837253571,  0.00178057502489537000656,  0.00055881252046674489975,  -0.00170609389897435903549,  0.00357416435144841670990,  -0.01487480290234088897705,  0.00959656853228807449341,  0.00004280870416550897062,  -0.00336405052803456783295,  -0.00434680096805095672607,  0.00075620645657181739807,  -0.00409857556223869323730,  0.01377715449780225753784,  -0.00131746602710336446762,  -0.00597973167896270751953,  0.00648054014891386032104,  0.00340338377282023429871,  0.00841803848743438720703,  -0.00112348410766571760178,  -0.00009885599138215184212,  -0.01443108450621366500854,  -0.00516079086810350418091,  -0.00301150511950254440308,  0.00074169872095808386803,  -0.00294590764679014682770,  0.01583363860845565795898,  0.00744974985718727111816,  -0.00738466391339898109436,  0.00783166754990816116333,  0.00002018987288465723395,  -0.00344765977934002876282,  0.00138871045783162117004,  0.00464859651401638984680,  0.00134524691384285688400,  0.00634577637538313865662,  -0.00058955774875357747078,  0.00005133720696903765202,  -0.00033648568205535411835,  -0.00780271366238594055176,  -0.00126492942217737436295,  0.00941921491175889968872,  0.02054488100111484527588,  0.00801245868206024169922,  0.01903152093291282653809,  0.00834909640252590179443,  0.00000437285370935569517,  0.00836605112999677658081,  -0.00524658244103193283081,  0.00276861432939767837524,  0.00364650576375424861908,  0.00087065296247601509094,  -0.00268728914670646190643,  -0.00225181574933230876923,  0.00948784686625003814697,  -0.00521025154739618301392,  0.00425210827961564064026,  0.00950431078672409057617,  0.00094020867254585027695,  -0.00461953179910778999329,  -0.01167339179664850234985,  0.00522079644724726676941,  -0.00387333310209214687347,  -0.01227487996220588684082,  0.00191282667219638824463,  -0.00283994153141975402832,  0.00234337104484438896179,  -0.00544992554932832717896};
float fc1_layer_weights[576][120] = { 0.01691985689103603363037,  -0.03922187909483909606934,  0.00693927751854062080383,  0.03717847540974617004395,  -0.01817130669951438903809,  0.09222001582384109497070,  -0.07709261775016784667969,  -0.07269873470067977905273,  0.02393317222595214843750,  0.06905008852481842041016,  -0.00723687419667840003967,  -0.04453407600522041320801,  -0.00444928091019392013550,  0.04071988165378570556641,  -0.03073226474225521087646,  -0.02724929712712764739990,  -0.05587308108806610107422,  -0.08491621911525726318359,  -0.09249200671911239624023,  0.02828025817871093750000,  0.03057951852679252624512,  0.08583242446184158325195,  0.08552417159080505371094,  -0.03541461750864982604980,  0.03294289484620094299316,  0.03706088662147521972656,  -0.03271978721022605895996,  -0.06122629344463348388672,  0.08268774300813674926758,  -0.01998130045831203460693,  0.05425990000367164611816,  0.07921179383993148803711,  -0.09066513180732727050781,  -0.05388297885656356811523,  0.05408103018999099731445,  -0.00355723476968705654144,  -0.06773398071527481079102,  -0.04541785269975662231445,  0.05008896440267562866211,  0.02413932234048843383789,  -0.02723050862550735473633,  0.05747831240296363830566,  -0.05796561390161514282227,  0.02329028211534023284912,  0.04846335202455520629883,  -0.02792790159583091735840,  0.02308307588100433349609,  -0.09190472215414047241211,  0.05815407261252403259277,  0.05448897927999496459961,  -0.08383020758628845214844,  0.04572414606809616088867,  0.00069611181970685720444,  -0.03559194505214691162109,  0.03697351366281509399414,  0.00649084663018584251404,  0.00531194917857646942139,  -0.05781559646129608154297,  0.08341859281063079833984,  0.04771234840154647827148,  0.06813222169876098632812,  -0.09187191724777221679688,  -0.03999743983149528503418,  0.02011642046272754669189,  0.04149959981441497802734,  0.01144100911915302276611,  0.00105803087353706359863,  0.05542331933975219726562,  0.09048499912023544311523,  -0.08188304305076599121094,  0.06798510998487472534180,  0.00131083361338824033737,  -0.06706353276968002319336,  -0.00288588553667068481445,  -0.00959409400820732116699,  -0.00372767122462391853333,  -0.01082554552704095840454,  0.08487863838672637939453,  -0.08000662177801132202148,  -0.07624658197164535522461,  -0.05123238265514373779297,  0.09215793013572692871094,  0.02617750875651836395264,  0.08994584530591964721680,  0.00047787584480829536915,  0.03054928779602050781250,  0.09035191684961318969727,  -0.08395007252693176269531,  -0.00179608084727078676224,  0.06359151005744934082031,  -0.03677114099264144897461,  0.01153464242815971374512,  0.04937376454472541809082,  0.08566514402627944946289,  -0.05943115800619125366211,  0.01740585640072822570801,  -0.02822130732238292694092,  -0.03755589947104454040527,  -0.01467220205813646316528,  -0.07597176730632781982422,  0.04444781318306922912598,  -0.00537298759445548057556,  -0.02308298461139202117920,  -0.03770412504673004150391,  -0.07178895920515060424805,  0.03395840525627136230469,  -0.01615768112242221832275,  -0.04365323483943939208984,  -0.06669513881206512451172,  0.06555972248315811157227,  -0.04291382431983947753906,  -0.00484117027372121810913,  0.00278610619716346263885,  -0.05939761176705360412598,  0.03457816317677497863770,  -0.03112312406301498413086,  -0.01614472270011901855469,  0.00621753837913274765015,  0.03195721283555030822754,  -0.01120928674936294555664,
 -0.03122634068131446838379,  -0.05273025855422019958496,  0.05363405123353004455566,  -0.02134453877806663513184,  0.00156271655578166246414,  0.03573036566376686096191,  -0.06214567646384239196777,  0.07454124093055725097656,  -0.03399811312556266784668,  0.04525727406144142150879,  0.08180945366621017456055,  -0.05161564424633979797363,  0.04911687970161437988281,  0.04290727525949478149414,  -0.06488773226737976074219,  0.03852845355868339538574,  0.09238450229167938232422,  0.03344998881220817565918,  -0.07245426625013351440430,  -0.06901473551988601684570,  0.08487504720687866210938,  0.07298827171325683593750,  -0.04046866670250892639160,  0.08241838216781616210938,  -0.06738931685686111450195,  0.03325632587075233459473,  0.00837967265397310256958,  0.02734257653355598449707,  -0.06026199832558631896973,  0.08837700635194778442383,  0.00507366098463535308838,  -0.05964827165007591247559,  0.01622356660664081573486,  0.07516829669475555419922,  -0.03347713872790336608887,  -0.04715101048350334167480,  -0.05882703512907028198242,  -0.06512567400932312011719,  0.04802021011710166931152,  0.05919425189495086669922,  0.05032217130064964294434,  0.02515235543251037597656,  0.03168515115976333618164,  0.02481944113969802856445,  0.03201428428292274475098,  -0.08475022017955780029297,  -0.01387823373079299926758,  -0.07858280092477798461914,  -0.04088633134961128234863,  0.01015540026128292083740,  -0.02611159160733222961426,  0.05001766234636306762695,  0.08738021552562713623047,  -0.04466509073972702026367,  -0.00297499191947281360626,  0.05514948070049285888672,  -0.08229000866413116455078,  -0.02444806694984436035156,  0.06195199862122535705566,  0.00302289752289652824402,  0.03728923201560974121094,  -0.00436135847121477127075,  -0.05056106299161911010742,  -0.00720936758443713188171,  -0.02288956940174102783203,  0.01831561326980590820312,  -0.07616884261369705200195,  0.04045709222555160522461,  0.06719861924648284912109,  0.00287429220043122768402,  -0.07340651005506515502930,  0.08743394911289215087891,  -0.03873345255851745605469,  0.08340843766927719116211,  -0.02761588804423809051514,  0.08958695083856582641602,  0.02622927352786064147949,  0.06587255746126174926758,  -0.08120740950107574462891,  -0.06264083832502365112305,  0.07986956834793090820312,  0.04216437786817550659180,  -0.05479079484939575195312,  -0.07649547606706619262695,  -0.07943835109472274780273,  -0.07264913618564605712891,  0.01620247401297092437744,  -0.01262103766202926635742,  -0.00495806755498051643372,  -0.08243795484304428100586,  0.02241017296910285949707,  -0.08857294917106628417969,  0.03440902009606361389160,  0.04647166654467582702637,  0.05669817328453063964844,  0.05735059455037117004395,  0.01806112565100193023682,  0.01657560653984546661377,  0.08484279364347457885742,  -0.05078926309943199157715,  0.03661418333649635314941,  -0.01788748614490032196045,  -0.05329642072319984436035,  -0.01792308129370212554932,  -0.05124155059456825256348,  -0.08139861375093460083008,  0.05445098876953125000000,  0.01857991516590118408203,  0.07109411060810089111328,  -0.06217802315950393676758,  -0.05661925300955772399902,  0.08921900391578674316406,  -0.03788419812917709350586,  0.07039988040924072265625,  -0.04167895391583442687988,  0.04001181200146675109863,  -0.03241330385208129882812,  -0.01007210742682218551636,  -0.08670399338006973266602,  -0.04049425944685935974121,
 -0.03119929693639278411865,  -0.02501838840544223785400,  0.05687250196933746337891,  0.01236543804407119750977,  -0.05063704773783683776855,  0.03740139305591583251953,  -0.08708059787750244140625,  0.08325731009244918823242,  -0.04564888402819633483887,  0.00138756085652858018875,  0.09232342988252639770508,  -0.04712729156017303466797,  0.02136795222759246826172,  -0.03856212645769119262695,  -0.02059359289705753326416,  0.02509742043912410736084,  0.03184511885046958923340,  -0.02240893431007862091064,  0.08121002465486526489258,  0.07052553445100784301758,  0.04926550760865211486816,  0.04943548515439033508301,  -0.00728618167340755462646,  -0.00150625419337302446365,  -0.02593977935612201690674,  -0.06736820191144943237305,  0.07788251340389251708984,  -0.05369583144783973693848,  0.03586765006184577941895,  0.00435911770910024642944,  -0.07404665648937225341797,  0.03770704567432403564453,  -0.03774555400013923645020,  -0.02169249393045902252197,  -0.05420708656311035156250,  0.01838985458016395568848,  0.00309688062407076358795,  -0.02087390981614589691162,  0.04870105534791946411133,  -0.00475979596376419067383,  0.01988699287176132202148,  -0.01477552857249975204468,  0.02014553733170032501221,  -0.05010836571455001831055,  -0.04062135517597198486328,  0.03485125675797462463379,  0.03120110556483268737793,  0.04056555405259132385254,  0.01375044323503971099854,  0.04596247896552085876465,  -0.08207601308822631835938,  0.08054950088262557983398,  0.02883119136095046997070,  0.06822089105844497680664,  -0.07346182316541671752930,  -0.01169901248067617416382,  0.01725132018327713012695,  0.00087827898096293210983,  0.01533608604222536087036,  -0.06699165701866149902344,  -0.02726305462419986724854,  -0.03698086738586425781250,  0.00043499754974618554115,  0.05897268652915954589844,  0.04385726898908615112305,  0.00015155869186855852604,  0.02723892964422702789307,  0.07644034177064895629883,  0.01651785150170326232910,  0.05278563499450683593750,  -0.00557430973276495933533,  0.08969243615865707397461,  0.07802169024944305419922,  0.05690908059477806091309,  0.00889399927109479904175,  0.03859882056713104248047,  0.06826667487621307373047,  -0.05914177373051643371582,  -0.04155495017766952514648,  -0.08611343055963516235352,  -0.03276758268475532531738,  -0.09137434512376785278320,  0.05281119048595428466797,  0.02252843789756298065186,  -0.07458287477493286132812,  -0.04858054965734481811523,  -0.00139776431024074554443,  0.03893177583813667297363,  0.02710661105811595916748,  -0.09202180802822113037109,  0.08636055886745452880859,  0.01588845252990722656250,  0.02226844616234302520752,  0.08006568253040313720703,  -0.08760184049606323242188,  0.08686383813619613647461,  -0.05960184335708618164062,  0.00421364977955818176270,  -0.04067638143897056579590,  -0.08291892707347869873047,  -0.04551949724555015563965,  0.07394089549779891967773,  0.06994218379259109497070,  -0.00392658961936831474304,  0.07291450351476669311523,  0.08169522881507873535156,  0.06234360113739967346191,  0.02517427876591682434082,  -0.04963856190443038940430,  -0.04099761694669723510742,  0.03419221565127372741699,  0.00152718264143913984299,  0.06946025788784027099609,  -0.02623412944376468658447,  0.03779856488108634948730,  -0.00527886208146810531616,  -0.03936528041958808898926,  -0.05339873582124710083008,  -0.03078060224652290344238,  -0.01104922033846378326416,
 0.04888821393251419067383,  0.02893382869660854339600,  0.04723019152879714965820,  0.03945406153798103332520,  -0.04504442960023880004883,  0.02740337699651718139648,  -0.07157916575670242309570,  -0.00021783147531095892191,  0.00657730316743254661560,  -0.04794641584157943725586,  0.03439544513821601867676,  -0.05414481833577156066895,  -0.06300103664398193359375,  0.01437287870794534683228,  0.00568921305239200592041,  -0.04861757159233093261719,  -0.02791353687644004821777,  0.06710382550954818725586,  -0.04602610692381858825684,  0.03231215849518775939941,  0.04448296129703521728516,  -0.06370849162340164184570,  0.05471759662032127380371,  0.01962718181312084197998,  0.05109725892543792724609,  0.05453839898109436035156,  0.00898287724703550338745,  -0.03650107607245445251465,  0.02418878860771656036377,  0.03907289728522300720215,  -0.03481428325176239013672,  0.01534179970622062683105,  -0.02301546186208724975586,  -0.08301323652267456054688,  -0.04746867716312408447266,  0.03259235247969627380371,  0.00852587539702653884888,  -0.07699985057115554809570,  0.08400300890207290649414,  -0.00673239771276712417603,  0.05230531096458435058594,  -0.05515597388148307800293,  0.08451324701309204101562,  -0.00085012975614517927170,  0.06617984920740127563477,  -0.06050538644194602966309,  -0.04313192144036293029785,  0.01783118583261966705322,  0.00889308564364910125732,  -0.05430104956030845642090,  -0.02847106941044330596924,  -0.08018780499696731567383,  -0.06644254177808761596680,  -0.02565094269812107086182,  0.07952396571636199951172,  -0.01978023722767829895020,  -0.06627850234508514404297,  -0.08259412646293640136719,  0.09253118187189102172852,  -0.07490598410367965698242,  -0.00817051436752080917358,  -0.08294171839952468872070,  0.06846870481967926025391,  -0.03539130836725234985352,  -0.06005527451634407043457,  -0.05419069156050682067871,  -0.07128017395734786987305,  -0.07084934413433074951172,  -0.08035754412412643432617,  0.00750874169170856475830,  0.05808674544095993041992,  0.04206197708845138549805,  0.05529439449310302734375,  -0.07364139705896377563477,  -0.05141422897577285766602,  -0.06666997820138931274414,  -0.08958709239959716796875,  -0.04228906333446502685547,  -0.04656558483839035034180,  -0.05166286602616310119629,  -0.05113035812973976135254,  0.06320313364267349243164,  0.00170044403057545423508,  0.04695428162813186645508,  0.02633491903543472290039,  -0.01283285580575466156006,  0.07699070870876312255859,  -0.01094793528318405151367,  -0.07412018626928329467773,  0.04773023352026939392090,  -0.06666942685842514038086,  0.08299067616462707519531,  0.03237421810626983642578,  -0.05244843661785125732422,  0.05383539199829101562500,  0.08490844815969467163086,  0.07543505728244781494141,  0.00491633592173457145691,  0.05015527456998825073242,  0.07538689672946929931641,  0.02606211416423320770264,  0.05418620631098747253418,  -0.02148208953440189361572,  -0.04116404429078102111816,  0.05494470894336700439453,  0.05019017308950424194336,  -0.01814949698746204376221,  0.07613474875688552856445,  -0.02260656096041202545166,  0.01249832753092050552368,  0.00566916726529598236084,  -0.04635775089263916015625,  0.04915295913815498352051,  0.02773710899055004119873,  0.02034663595259189605713,  -0.04763753712177276611328,  -0.04381536319851875305176,  0.06481223553419113159180,  -0.00372376479208469390869,  0.07521807402372360229492,
 0.04676377773284912109375,  -0.06926152110099792480469,  -0.00665727956220507621765,  -0.00522109866142272949219,  0.05598258972167968750000,  0.08630964159965515136719,  -0.03565704077482223510742,  0.09234954416751861572266,  0.08044531196355819702148,  0.06170552968978881835938,  0.02743251994252204895020,  0.04447395727038383483887,  0.00006657198537141084671,  -0.07464368641376495361328,  0.04002250730991363525391,  0.01297043170779943466187,  -0.05272056162357330322266,  -0.04667669162154197692871,  -0.09033454954624176025391,  -0.00487152766436338424683,  -0.03958279639482498168945,  0.00452833389863371849060,  -0.09263812005519866943359,  0.06779643148183822631836,  0.03154685348272323608398,  0.00798911508172750473022,  0.04082422703504562377930,  0.02464735880494117736816,  0.03194994851946830749512,  -0.08119598776102066040039,  0.08382584899663925170898,  0.06244578212499618530273,  0.05329523608088493347168,  0.05206125974655151367188,  -0.01877031102776527404785,  0.02456871233880519866943,  0.07982456684112548828125,  -0.01415012683719396591187,  0.07648802548646926879883,  -0.00117475050501525402069,  0.04397273808717727661133,  -0.06490147858858108520508,  -0.04006407782435417175293,  -0.00170125870499759912491,  0.00668121082708239555359,  -0.08205079287290573120117,  0.05784650519490242004395,  -0.07773927599191665649414,  0.05195529013872146606445,  0.08872306346893310546875,  -0.00140273140277713537216,  0.06364604085683822631836,  0.04023783653974533081055,  -0.00568898674100637435913,  0.00878155045211315155029,  -0.06874571740627288818359,  0.08815646171569824218750,  0.07817229628562927246094,  -0.01528006419539451599121,  -0.00536100985482335090637,  0.02928435429930686950684,  0.06040160730481147766113,  0.07810348272323608398438,  -0.05118665471673011779785,  -0.04473662003874778747559,  0.01713287644088268280029,  0.05169564113020896911621,  0.00229471293278038501740,  0.05554871633648872375488,  0.04131252318620681762695,  -0.01873962022364139556885,  0.08670764416456222534180,  -0.00043180689681321382523,  -0.03976501151919364929199,  -0.03987031430006027221680,  0.01601615175604820251465,  0.03535565361380577087402,  -0.00520300259813666343689,  0.00245175044983625411987,  0.00663878675550222396851,  -0.00889115314930677413940,  0.04643425345420837402344,  0.05042221397161483764648,  -0.02473843842744827270508,  -0.05314949527382850646973,  -0.06966078281402587890625,  0.03798438981175422668457,  0.01821158453822135925293,  -0.01806602813303470611572,  0.07675845175981521606445,  -0.03722734004259109497070,  -0.07416529208421707153320,  0.01710962690412998199463,  -0.09055553376674652099609,  0.00942155160009860992432,  -0.01064552739262580871582,  -0.07924228906631469726562,  -0.03934015706181526184082,  0.06670407950878143310547,  0.06267455220222473144531,  0.04995035007596015930176,  -0.07709065824747085571289,  -0.07002568989992141723633,  0.01901068724691867828369,  0.02766784839332103729248,  0.07825852185487747192383,  -0.07271970808506011962891,  -0.04011867940425872802734,  0.08864662051200866699219,  0.08520726859569549560547,  -0.02803498879075050354004,  0.06810114532709121704102,  0.07551439106464385986328,  -0.07227621227502822875977,  0.01203003991395235061646,  0.03601688519120216369629,  0.03785885870456695556641,  0.05174549669027328491211,  0.02383158355951309204102,  0.08809465169906616210938,
 0.01743329316377639770508,  -0.07794322073459625244141,  0.00306190736591815948486,  -0.07623829692602157592773,  0.04920541122555732727051,  -0.08169197291135787963867,  -0.04813515767455101013184,  -0.08452513068914413452148,  0.07598555088043212890625,  -0.05753535777330398559570,  -0.05026310682296752929688,  0.04100837558507919311523,  -0.00850216299295425415039,  -0.03797053545713424682617,  -0.03421710431575775146484,  0.00821950100362300872803,  0.05890016257762908935547,  -0.01483311876654624938965,  0.06604786217212677001953,  -0.00302539276890456676483,  0.07316386699676513671875,  0.04286602884531021118164,  -0.04680548235774040222168,  -0.01120549347251653671265,  -0.04060903191566467285156,  -0.03746447712182998657227,  -0.06283502280712127685547,  0.01859830692410469055176,  -0.07899672538042068481445,  0.00334881711751222610474,  0.05952005088329315185547,  0.02625298686325550079346,  -0.02257201448082923889160,  -0.04075936228036880493164,  -0.00556338718160986900330,  0.00275037274695932865143,  0.00073523120954632759094,  -0.08840414136648178100586,  -0.03171073272824287414551,  0.00650008954107761383057,  -0.03533877804875373840332,  -0.05089753121137619018555,  -0.05678752064704895019531,  -0.06955017149448394775391,  -0.02396772243082523345947,  0.01074952073395252227783,  0.01698564551770687103271,  -0.06920220702886581420898,  0.01668248884379863739014,  0.07597690075635910034180,  -0.02869317121803760528564,  -0.08580005913972854614258,  -0.07068406790494918823242,  0.01260906178504228591919,  -0.04343838989734649658203,  -0.01252982206642627716064,  0.07172272354364395141602,  -0.07877904176712036132812,  -0.04274563491344451904297,  0.05704297497868537902832,  0.03848627582192420959473,  0.07581817358732223510742,  0.06326861679553985595703,  -0.07631319016218185424805,  -0.08070527017116546630859,  0.05333320051431655883789,  0.03413907811045646667480,  -0.05394424125552177429199,  0.03620835021138191223145,  0.04444774240255355834961,  0.03464595600962638854980,  0.03173404186964035034180,  0.05342850834131240844727,  -0.08585308492183685302734,  -0.09328483790159225463867,  0.02714399993419647216797,  -0.01385276112705469131470,  -0.01165222190320491790771,  -0.07576408982276916503906,  -0.08802717179059982299805,  -0.00531986309215426445007,  -0.00580413360148668289185,  -0.00521902134642004966736,  0.01773211918771266937256,  -0.05722772330045700073242,  0.00353468954563140869141,  -0.08142577111721038818359,  0.07074008882045745849609,  0.06854594498872756958008,  0.02351036109030246734619,  0.00972419604659080505371,  -0.00491864560171961784363,  0.09303902089595794677734,  0.00604428444057703018188,  0.05145161971449851989746,  -0.07303617149591445922852,  -0.00971159152686595916748,  -0.08945205062627792358398,  0.01243328955024480819702,  -0.04697348177433013916016,  -0.00618902919813990592957,  0.02468423731625080108643,  -0.08902966976165771484375,  -0.06066901609301567077637,  -0.07037015259265899658203,  0.08741157501935958862305,  -0.02534422650933265686035,  0.01647428981959819793701,  -0.04137732461094856262207,  -0.02842009440064430236816,  -0.03509911522269248962402,  -0.02078571170568466186523,  -0.04595220088958740234375,  0.00016141729429364204407,  0.01663608849048614501953,  -0.00434434134513139724731,  -0.06352087110280990600586,  -0.05684969946742057800293,  0.08149464428424835205078,  -0.08711984008550643920898,
 -0.05140975117683410644531,  -0.02813011035323143005371,  0.04398492351174354553223,  0.06213438510894775390625,  0.04999423027038574218750,  -0.05966684594750404357910,  0.05769517645239830017090,  0.02710272744297981262207,  -0.02635357156395912170410,  -0.03684413433074951171875,  0.00145600468385964632034,  0.01776000112295150756836,  -0.03269698843359947204590,  -0.00727760046720504760742,  0.08925031125545501708984,  -0.03632248938083648681641,  0.03845314681529998779297,  0.02087494730949401855469,  -0.07383717596530914306641,  -0.02033922635018825531006,  -0.03947244584560394287109,  -0.01621526665985584259033,  0.05172243714332580566406,  -0.00847269594669342041016,  -0.00831772480159997940063,  -0.08271069824695587158203,  -0.00309628876857459545135,  0.03916617482900619506836,  -0.06243415921926498413086,  -0.08895297348499298095703,  0.00593275949358940124512,  0.00036100606666877865791,  0.02450092881917953491211,  0.02008698508143424987793,  -0.00913248769938945770264,  0.07918323576450347900391,  -0.03469532728195190429688,  0.06382628530263900756836,  -0.03068299964070320129395,  0.07771858572959899902344,  -0.00540884351357817649841,  0.04226728901267051696777,  -0.06028617918491363525391,  0.05352100729942321777344,  0.04095649346709251403809,  -0.09161163866519927978516,  0.01279605459421873092651,  -0.03998882323503494262695,  0.04613069444894790649414,  0.07436009496450424194336,  -0.01059506926685571670532,  0.02809277549386024475098,  0.01102652307599782943726,  0.04859265685081481933594,  -0.06637078523635864257812,  0.04490028694272041320801,  0.08717790246009826660156,  0.02841243520379066467285,  -0.00730301812291145324707,  -0.05625234544277191162109,  -0.08799988031387329101562,  0.00153410038910806179047,  0.00206206529401242733002,  -0.05963707715272903442383,  0.09040395170450210571289,  0.08274279534816741943359,  0.01405121013522148132324,  -0.01120722852647304534912,  0.03529045358300209045410,  0.09186318516731262207031,  -0.03319321945309638977051,  -0.03274890035390853881836,  0.07330416887998580932617,  0.02956265769898891448975,  -0.04128429293632507324219,  0.06958183646202087402344,  -0.06483073532581329345703,  -0.08618409186601638793945,  -0.02628746256232261657715,  -0.05963984504342079162598,  -0.08589321374893188476562,  0.00259365490637719631195,  0.00738751888275146484375,  0.01509160548448562622070,  0.04862642660737037658691,  0.04061679914593696594238,  -0.08515457063913345336914,  -0.05566741153597831726074,  -0.04062549024820327758789,  -0.03565206006169319152832,  -0.08387080579996109008789,  0.05871673300862312316895,  -0.06590680778026580810547,  0.08018689602613449096680,  -0.05201189592480659484863,  0.02495144680142402648926,  0.08999768644571304321289,  -0.01139779482036828994751,  -0.03674383461475372314453,  0.04317445680499076843262,  0.03362475335597991943359,  0.01581150293350219726562,  0.07404971122741699218750,  0.02123682200908660888672,  -0.02644794806838035583496,  -0.05676180869340896606445,  -0.06571952253580093383789,  0.08578168600797653198242,  0.01910597458481788635254,  0.08528640866279602050781,  0.07156074047088623046875,  0.03179310262203216552734,  -0.05975084006786346435547,  0.04370150342583656311035,  -0.07735329121351242065430,  -0.00175402557943016290665,  -0.00095560966292396187782,  -0.01344526186585426330566,  -0.04936031997203826904297,  -0.01959337666630744934082,
 -0.05616454780101776123047,  0.08039089292287826538086,  -0.01260345708578824996948,  0.03389961272478103637695,  0.05654751509428024291992,  0.04897587746381759643555,  0.06182938814163208007812,  -0.01986950077116489410400,  0.00256825773976743221283,  -0.02280228771269321441650,  0.02000947669148445129395,  -0.07028765231370925903320,  -0.03110484592616558074951,  -0.05056225135922431945801,  -0.07639363408088684082031,  0.04340060427784919738770,  -0.08384111523628234863281,  0.00145922682713717222214,  -0.07178982347249984741211,  0.06914789974689483642578,  0.01409160252660512924194,  -0.03511453047394752502441,  -0.08330329507589340209961,  -0.02168213389813899993896,  0.01956528425216674804688,  -0.06910207867622375488281,  0.07580877095460891723633,  -0.08628206700086593627930,  -0.04218278452754020690918,  -0.04915876314043998718262,  0.00253796274773776531219,  -0.00331467110663652420044,  0.08316924422979354858398,  0.08548497408628463745117,  -0.06572643667459487915039,  -0.08694408833980560302734,  0.06724520772695541381836,  0.00241354363970458507538,  -0.04133440926671028137207,  -0.04487685859203338623047,  -0.06276474148035049438477,  -0.04160173609852790832520,  -0.07217480242252349853516,  -0.05805711448192596435547,  0.01940435171127319335938,  -0.03405955061316490173340,  0.05609813705086708068848,  0.00590190989896655082703,  -0.03832274302840232849121,  0.02515173889696598052979,  0.03764203190803527832031,  -0.05611404776573181152344,  0.06904958188533782958984,  0.03534828871488571166992,  0.06085412949323654174805,  -0.07533534616231918334961,  0.05145720019936561584473,  -0.06735845655202865600586,  -0.06305769085884094238281,  -0.01674029231071472167969,  -0.01447605155408382415771,  -0.06724812835454940795898,  0.00342539791017770767212,  -0.08261159062385559082031,  -0.07161170989274978637695,  -0.03298344090580940246582,  0.06364470720291137695312,  0.07048718631267547607422,  0.08631107211112976074219,  0.02398891933262348175049,  0.02715014293789863586426,  0.07285150885581970214844,  -0.09200727939605712890625,  -0.01457412820309400558472,  0.00980747397989034652710,  -0.01264065410941839218140,  -0.06546258181333541870117,  0.07988832890987396240234,  0.01920776255428791046143,  -0.04247315600514411926270,  -0.04958242550492286682129,  -0.07115652412176132202148,  0.00848262198269367218018,  -0.03376633673906326293945,  0.05078699812293052673340,  0.07070945948362350463867,  -0.04130047932267189025879,  -0.01779855228960514068604,  -0.01237077172845602035522,  0.01562687940895557403564,  -0.08284889906644821166992,  -0.06275939941406250000000,  0.07098439335823059082031,  -0.08637675642967224121094,  -0.06832370907068252563477,  0.07087454199790954589844,  0.05388807877898216247559,  0.05751772969961166381836,  -0.05015628412365913391113,  -0.07250609248876571655273,  0.07002104818820953369141,  -0.02692306973040103912354,  -0.06888483464717864990234,  -0.02042449451982975006104,  0.01350543834269046783447,  0.03946332260966300964355,  0.02347937971353530883789,  -0.03370513394474983215332,  -0.02854202874004840850830,  -0.06714439392089843750000,  0.04034889116883277893066,  0.08630672097206115722656,  -0.08256630599498748779297,  0.06030507385730743408203,  0.02139470353722572326660,  0.02414861321449279785156,  0.03440008684992790222168,  -0.06724584847688674926758,  -0.06733846664428710937500,  0.06942488253116607666016,
 -0.03042057156562805175781,  0.02952561154961585998535,  -0.05547519028186798095703,  -0.00743648968636989593506,  -0.04415850713849067687988,  0.04527871683239936828613,  -0.07158286124467849731445,  0.05283801630139350891113,  -0.06511359661817550659180,  -0.03965251520276069641113,  -0.04502001404762268066406,  0.00501547008752822875977,  -0.00392425898462533950806,  -0.06940715014934539794922,  -0.02873836830258369445801,  0.08623944967985153198242,  -0.02512963488698005676270,  -0.09418275207281112670898,  0.02053663507103919982910,  0.08212970942258834838867,  -0.08493894338607788085938,  -0.02497758157551288604736,  -0.01179458480328321456909,  0.09076572954654693603516,  -0.05071823298931121826172,  0.04448550194501876831055,  -0.04017617553472518920898,  0.03877559304237365722656,  -0.00845005549490451812744,  0.01810759305953979492188,  0.04793172329664230346680,  0.00031016903812997043133,  -0.06476882845163345336914,  0.09023518115282058715820,  0.02079764008522033691406,  0.03529284894466400146484,  -0.03432697802782058715820,  0.08097298443317413330078,  0.01717130839824676513672,  -0.06645139306783676147461,  0.05485445261001586914062,  -0.06879232823848724365234,  0.08342475444078445434570,  0.00775729911401867866516,  -0.06154438108205795288086,  -0.08231538534164428710938,  0.02602655999362468719482,  0.08164104819297790527344,  -0.03961863741278648376465,  0.06626807153224945068359,  0.02623599022626876831055,  0.04745355620980262756348,  -0.06621208041906356811523,  -0.05644579976797103881836,  0.03148544579744338989258,  0.01290992833673954010010,  0.03562070801854133605957,  0.09091475605964660644531,  -0.07480434328317642211914,  -0.00507145049050450325012,  0.00160052126739174127579,  -0.06852645426988601684570,  0.04579222202301025390625,  -0.07266607880592346191406,  0.01394390314817428588867,  -0.07672719657421112060547,  -0.08852499723434448242188,  0.07297874987125396728516,  -0.03955661877989768981934,  -0.05193106830120086669922,  0.00063587730983272194862,  -0.05574137344956398010254,  -0.03050787001848220825195,  0.07203207910060882568359,  -0.01958119682967662811279,  -0.02527974545955657958984,  -0.07177399843931198120117,  -0.06614512205123901367188,  -0.00798000674694776535034,  0.04513098672032356262207,  0.02522141300141811370850,  -0.04064260795712471008301,  0.04917567968368530273438,  0.02395908161997795104980,  0.09190449863672256469727,  -0.08552179485559463500977,  0.02048602513968944549561,  -0.06242846325039863586426,  -0.06246402487158775329590,  0.01500521972775459289551,  -0.07239914685487747192383,  -0.06440869718790054321289,  -0.05298501253128051757812,  -0.02859149314463138580322,  0.04334511235356330871582,  0.01456688717007637023926,  -0.05544530972838401794434,  0.07668860256671905517578,  -0.01482470426708459854126,  0.02852753363549709320068,  0.07013776153326034545898,  0.06548307090997695922852,  0.06082487478852272033691,  -0.03192318975925445556641,  0.02261655777692794799805,  0.08272535353899002075195,  -0.08883071690797805786133,  -0.07420098781585693359375,  -0.03050078451633453369141,  -0.07951530814170837402344,  0.04867970943450927734375,  0.06022739037871360778809,  0.00247754948213696479797,  0.08056513965129852294922,  -0.00874281860888004302979,  0.08771871775388717651367,  -0.06285113096237182617188,  0.02645938843488693237305,  -0.00151416112203150987625,  0.00251546641811728477478,
 0.06302968412637710571289,  -0.00205263053067028522491,  -0.09272722154855728149414,  -0.02488275617361068725586,  -0.08506993949413299560547,  0.01827754266560077667236,  -0.03711484745144844055176,  0.07446160912513732910156,  -0.00256834342144429683685,  -0.04251192882657051086426,  -0.08300590515136718750000,  -0.08732169866561889648438,  -0.03069864213466644287109,  -0.04077828675508499145508,  -0.08521948009729385375977,  -0.06072708964347839355469,  -0.08123464882373809814453,  0.00954942684620618820190,  -0.07869283109903335571289,  -0.07412706315517425537109,  0.06911162286996841430664,  -0.01639877259731292724609,  0.06342877447605133056641,  -0.06824062019586563110352,  -0.00666754506528377532959,  -0.08603126555681228637695,  -0.06538783013820648193359,  -0.05229048058390617370605,  -0.06270002573728561401367,  -0.01673391647636890411377,  0.02457351051270961761475,  -0.03728020936250686645508,  -0.00304230814799666404724,  -0.03300407901406288146973,  -0.04707051068544387817383,  -0.04302634671330451965332,  0.00378276524133980274200,  0.09246523678302764892578,  -0.06766650825738906860352,  -0.08488804847002029418945,  -0.02005888149142265319824,  -0.05495268478989601135254,  0.04697017744183540344238,  0.07026480138301849365234,  0.03932050243020057678223,  -0.08579970151185989379883,  -0.01979869417846202850342,  0.00723156612366437911987,  0.09243882447481155395508,  0.03072400204837322235107,  0.00105237739626318216324,  0.03861577808856964111328,  0.08821716159582138061523,  -0.04939283430576324462891,  -0.00348469545133411884308,  -0.04566427692770957946777,  0.04767802730202674865723,  0.03669242188334465026855,  -0.01093759387731552124023,  0.01110704801976680755615,  0.02496673725545406341553,  -0.05890937522053718566895,  -0.02787193655967712402344,  0.04475687071681022644043,  -0.03955675289034843444824,  0.09082537889480590820312,  -0.05530474334955215454102,  -0.07973369956016540527344,  -0.01336077600717544555664,  -0.05828552693128585815430,  0.07874924689531326293945,  0.05311603844165802001953,  -0.08800047636032104492188,  0.00706068379804491996765,  -0.01450071018189191818237,  -0.00220091617666184902191,  0.08982526510953903198242,  -0.06210281327366828918457,  -0.02836705185472965240479,  -0.05353145673871040344238,  0.06849442422389984130859,  0.04543809965252876281738,  -0.02177217602729797363281,  -0.00853373017162084579468,  0.04012283682823181152344,  -0.01028765551745891571045,  -0.04331232607364654541016,  0.06073760986328125000000,  -0.02729106508195400238037,  0.08641625195741653442383,  0.02281008101999759674072,  0.07709916681051254272461,  0.02034572698175907135010,  -0.09169146418571472167969,  0.00709974160417914390564,  -0.04711778461933135986328,  0.06495866924524307250977,  -0.01955978013575077056885,  0.02358456142246723175049,  -0.05513884872198104858398,  0.04256312176585197448730,  -0.06342124193906784057617,  -0.07787164300680160522461,  0.08178938180208206176758,  0.00004367524888948537409,  -0.08686759322881698608398,  -0.07974448055028915405273,  0.07754736393690109252930,  0.02193194441497325897217,  0.06648818403482437133789,  0.04095719009637832641602,  0.00256639206781983375549,  -0.05573179572820663452148,  0.03210359066724777221680,  -0.02720075473189353942871,  0.05890036374330520629883,  0.04460959509015083312988,  0.07480530440807342529297,  -0.01990721002221107482910,  -0.05679111927747726440430,
 0.04631417244672775268555,  -0.04129585251212120056152,  -0.05446846783161163330078,  -0.03899365663528442382812,  0.02600633725523948669434,  0.07693540304899215698242,  0.01690412499010562896729,  0.01647795923054218292236,  0.04626673460006713867188,  0.08371865004301071166992,  0.00202396535314619541168,  0.04666522890329360961914,  0.05128972232341766357422,  0.02334612794220447540283,  0.03847887739539146423340,  -0.04563503339886665344238,  -0.05469318106770515441895,  0.07840984314680099487305,  0.01908413693308830261230,  -0.07358305901288986206055,  -0.08525080978870391845703,  0.07328181713819503784180,  -0.05873162671923637390137,  0.01548959780484437942505,  0.00017855635087471455336,  -0.06214248761534690856934,  0.08095621317625045776367,  0.02469006925821304321289,  0.04779993742704391479492,  0.00715771177783608436584,  -0.02452665194869041442871,  -0.04365158826112747192383,  -0.07793898880481719970703,  -0.06752580404281616210938,  0.07900770008563995361328,  0.03752011433243751525879,  0.06225364282727241516113,  0.01690198108553886413574,  0.06465301662683486938477,  -0.01066877320408821105957,  -0.05886923149228096008301,  -0.05039855465292930603027,  0.06240772455930709838867,  0.06436761468648910522461,  -0.04024004936218261718750,  0.06230479851365089416504,  0.02152239717543125152588,  0.00153750553727149963379,  -0.03319199383258819580078,  -0.03219094499945640563965,  -0.00213343766517937183380,  -0.01525774970650672912598,  -0.00312205194495618343353,  -0.01608489640057086944580,  -0.01343793328851461410522,  -0.00064466439653187990189,  -0.06294251978397369384766,  -0.05222302675247192382812,  -0.08637382090091705322266,  0.03643132001161575317383,  -0.01262538228183984756470,  0.06667454540729522705078,  0.04309870302677154541016,  -0.04437310248613357543945,  0.06003904342651367187500,  0.06086046621203422546387,  0.05127947404980659484863,  0.08316200226545333862305,  -0.04871022701263427734375,  0.02647716365754604339600,  0.06780091673135757446289,  0.04579944163560867309570,  -0.03263914212584495544434,  -0.07585878670215606689453,  0.03496180102229118347168,  0.03737568110227584838867,  -0.02239298447966575622559,  -0.06814056634902954101562,  -0.04892837256193161010742,  0.08548820018768310546875,  0.04015587642788887023926,  0.02971680648624897003174,  -0.08300781250000000000000,  -0.00313834100961685180664,  -0.08039975166320800781250,  -0.04100207239389419555664,  -0.06055305153131484985352,  0.08343298733234405517578,  -0.04090702533721923828125,  0.02878062427043914794922,  -0.03782090172171592712402,  0.07930502295494079589844,  -0.05028722435235977172852,  0.05456840246915817260742,  0.03261647373437881469727,  -0.03802777826786041259766,  0.06387834995985031127930,  -0.04342167451977729797363,  0.00293156993575394153595,  0.00634362781420350074768,  -0.07785011082887649536133,  0.06242659687995910644531,  0.07982118427753448486328,  -0.05651961266994476318359,  -0.03518599644303321838379,  -0.07469476014375686645508,  -0.05075712129473686218262,  -0.02208642475306987762451,  -0.06135388091206550598145,  -0.08618194609880447387695,  -0.06489078700542449951172,  -0.02685217000544071197510,  -0.06320568174123764038086,  0.07902915030717849731445,  0.08911880850791931152344,  0.00056583440164104104042,  0.07946236431598663330078,  0.02785393781960010528564,  0.05716178566217422485352,  0.08979961276054382324219,
 -0.04965917021036148071289,  -0.08096369355916976928711,  0.01088468916714191436768,  0.00226733833551406860352,  0.03671935200691223144531,  -0.06868177652359008789062,  0.03564523160457611083984,  0.02730544097721576690674,  -0.02049405314028263092041,  -0.01780699938535690307617,  -0.01182579156011343002319,  -0.07372272014617919921875,  0.08096038550138473510742,  0.05566070601344108581543,  0.03207549080252647399902,  -0.06069996207952499389648,  -0.06251645088195800781250,  -0.06506508588790893554688,  0.01325632631778717041016,  -0.07521711289882659912109,  0.07951336354017257690430,  -0.03087176010012626647949,  0.06354610621929168701172,  -0.00263023306615650653839,  -0.07947202771902084350586,  -0.00300681265071034431458,  -0.01486635766923427581787,  -0.07411824166774749755859,  0.08190413564443588256836,  0.06332683563232421875000,  -0.06244363635778427124023,  0.04116190224885940551758,  0.07868111878633499145508,  -0.03900044038891792297363,  -0.05838622897863388061523,  0.00025329567142762243748,  0.06201356649398803710938,  -0.08170440047979354858398,  0.07337229698896408081055,  -0.08423190563917160034180,  0.07670468091964721679688,  -0.02832073718309402465820,  -0.03652552887797355651855,  -0.08374852687120437622070,  -0.06491583585739135742188,  0.01801219396293163299561,  0.08198275417089462280273,  -0.08827061206102371215820,  -0.00163360417354851961136,  0.02956818044185638427734,  -0.09074348956346511840820,  0.00772051000967621803284,  0.00713961618021130561829,  0.03300609439611434936523,  0.06242128089070320129395,  0.04662151634693145751953,  0.03348636254668235778809,  0.02857165224850177764893,  0.06158562377095222473145,  0.00712938746437430381775,  -0.04519192874431610107422,  -0.08689775317907333374023,  0.08934433758258819580078,  -0.06073267385363578796387,  -0.04299237951636314392090,  -0.00417455052956938743591,  -0.06516363471746444702148,  0.05439361184835433959961,  -0.08786579221487045288086,  0.04671377688646316528320,  -0.08063598722219467163086,  0.06885197758674621582031,  -0.04716015234589576721191,  -0.07799593359231948852539,  0.04474563896656036376953,  -0.08823359757661819458008,  -0.05778584629297256469727,  -0.05973084270954132080078,  -0.02896802313625812530518,  -0.05948390439152717590332,  -0.04379212483763694763184,  -0.01605419069528579711914,  0.09220030903816223144531,  0.07242448627948760986328,  0.06361297518014907836914,  0.05464686080813407897949,  -0.08852683752775192260742,  0.05207512155175209045410,  0.02448947913944721221924,  0.02215365506708621978760,  -0.08518731594085693359375,  0.07593283802270889282227,  -0.04237374290823936462402,  0.05668319389224052429199,  -0.04964275658130645751953,  0.04480354487895965576172,  0.07477611303329467773438,  0.05813884735107421875000,  0.06345357000827789306641,  -0.05610192939639091491699,  0.02284596301615238189697,  0.06741481274366378784180,  0.04502175375819206237793,  0.06661825627088546752930,  0.00740613322705030441284,  0.05194913968443870544434,  0.05687331035733222961426,  0.05269651487469673156738,  -0.09381633996963500976562,  0.00551474886015057563782,  -0.03645412251353263854980,  -0.03565426915884017944336,  -0.08494595438241958618164,  -0.02712053433060646057129,  0.05351190641522407531738,  0.08314420282840728759766,  -0.03039764612913131713867,  0.01433595269918441772461,  0.02370297722518444061279,  0.05068062990903854370117,
 0.02161710709333419799805,  0.05031713843345642089844,  -0.07022038847208023071289,  -0.09215178340673446655273,  0.03332858905196189880371,  0.08723276853561401367188,  -0.03166807442903518676758,  -0.06465667486190795898438,  0.05270389467477798461914,  -0.04118392989039421081543,  0.02664089947938919067383,  -0.04816715791821479797363,  0.05803594738245010375977,  0.07741010934114456176758,  0.02275614999234676361084,  0.01803168281912803649902,  -0.04914987459778785705566,  -0.00541355274617671966553,  0.04546741768717765808105,  -0.01598796993494033813477,  -0.04881682246923446655273,  0.01324692461639642715454,  -0.03636331483721733093262,  0.06193437427282333374023,  -0.01987655647099018096924,  0.05545575171709060668945,  -0.08644246309995651245117,  -0.00095964450156316161156,  0.05130514875054359436035,  0.06352031230926513671875,  0.03756823763251304626465,  -0.04122030362486839294434,  -0.08879186213016510009766,  0.06210674718022346496582,  0.05794649571180343627930,  0.08049292117357254028320,  -0.02392946369946002960205,  0.02968871593475341796875,  0.00987922772765159606934,  0.03012694045901298522949,  -0.01849008537828922271729,  -0.06321748346090316772461,  -0.06663505733013153076172,  -0.04264121130108833312988,  0.06602465361356735229492,  -0.02312441729009151458740,  0.03683600574731826782227,  -0.06360957771539688110352,  -0.04777147248387336730957,  0.04348861426115036010742,  0.08160422742366790771484,  0.02210300229489803314209,  0.06041685864329338073730,  0.08488485962152481079102,  -0.05040889233350753784180,  -0.08797550946474075317383,  0.00651456741616129875183,  -0.00800940394401550292969,  -0.06629143655300140380859,  -0.01851943694055080413818,  -0.03613236919045448303223,  -0.07126300781965255737305,  -0.07138046622276306152344,  0.06240468099713325500488,  -0.00968629308044910430908,  -0.09163215756416320800781,  -0.04743906483054161071777,  0.04324061796069145202637,  -0.03291527181863784790039,  0.02920413576066493988037,  0.04577454179525375366211,  -0.06742201745510101318359,  -0.04857863485813140869141,  -0.03150807321071624755859,  -0.07023092359304428100586,  -0.07452822476625442504883,  -0.00945027358829975128174,  0.06107892841100692749023,  0.06386954337358474731445,  -0.03155415505170822143555,  0.04259907454252243041992,  -0.08223012834787368774414,  -0.04773416742682456970215,  0.09110983461141586303711,  0.02200639992952346801758,  -0.05562026053667068481445,  0.07818426191806793212891,  -0.06330783665180206298828,  0.08890243619680404663086,  -0.01211713254451751708984,  0.08976536244153976440430,  -0.03189112991094589233398,  0.05611660331487655639648,  -0.08062454313039779663086,  -0.06778439879417419433594,  -0.07040134072303771972656,  0.03016782738268375396729,  0.05606555193662643432617,  -0.00048558873822912573814,  0.08418887108564376831055,  -0.04783334210515022277832,  0.07047993689775466918945,  0.02861731313169002532959,  -0.01560232788324356079102,  0.01677848026156425476074,  0.08439781516790390014648,  -0.06977947801351547241211,  0.08005739003419876098633,  -0.01203027740120887756348,  -0.00564516009762883186340,  -0.03164386376738548278809,  -0.07054610550403594970703,  0.01511963456869125366211,  -0.07681553065776824951172,  -0.00150846550241112709045,  0.05267216265201568603516,  0.06013622134923934936523,  -0.06846737861633300781250,  -0.07104916125535964965820,  0.04878199845552444458008,
 0.00333609431982040405273,  -0.07496490329504013061523,  -0.06388378143310546875000,  -0.03667944297194480895996,  0.08432874828577041625977,  0.05743730813264846801758,  -0.06536070257425308227539,  -0.03807884082198143005371,  -0.02605813741683959960938,  -0.01711411774158477783203,  -0.02338369563221931457520,  -0.08932382613420486450195,  0.01698256097733974456787,  -0.01217964105308055877686,  -0.01062610931694507598877,  -0.01959782466292381286621,  -0.04553110897541046142578,  -0.07434137165546417236328,  -0.09166893362998962402344,  -0.00238897115923464298248,  0.09191139787435531616211,  -0.05758028104901313781738,  0.00841482449322938919067,  -0.07807921618223190307617,  -0.06099239364266395568848,  -0.05238272994756698608398,  0.06492887437343597412109,  0.01949157565832138061523,  0.04658899828791618347168,  0.02315048873424530029297,  -0.07998383045196533203125,  -0.09176392853260040283203,  -0.02892840281128883361816,  -0.05768949910998344421387,  0.01527495961636304855347,  0.06102184951305389404297,  -0.04628165438771247863770,  0.03414433449506759643555,  -0.07802595198154449462891,  0.01832950860261917114258,  0.06950601190328598022461,  -0.03438559174537658691406,  0.02175679616630077362061,  -0.05155895277857780456543,  -0.06671418249607086181641,  0.04573232308030128479004,  -0.02538571320474147796631,  -0.00397552223876118659973,  -0.06962427496910095214844,  0.00855539739131927490234,  -0.03363306075334548950195,  0.02759882248938083648682,  0.05991428345441818237305,  0.05570596829056739807129,  0.04871295765042304992676,  0.00582168810069561004639,  -0.06576075404882431030273,  -0.07249936461448669433594,  0.05130235478281974792480,  0.07324476540088653564453,  -0.08657789230346679687500,  0.04619450122117996215820,  -0.01526692323386669158936,  -0.02061279490590095520020,  0.06063285470008850097656,  -0.02608716301620006561279,  0.01957962475717067718506,  0.06828548759222030639648,  0.04858061671257019042969,  0.02650072984397411346436,  0.01885159313678741455078,  -0.09015785902738571166992,  -0.02985830232501029968262,  0.05412986874580383300781,  0.05328651890158653259277,  0.03483292087912559509277,  0.07357875257730484008789,  -0.03486846014857292175293,  -0.08419592678546905517578,  -0.07765847444534301757812,  0.05101883411407470703125,  -0.04965426772832870483398,  -0.06959110498428344726562,  0.03194954991340637207031,  -0.07377400994300842285156,  -0.03967460617423057556152,  0.08842590451240539550781,  -0.04649359732866287231445,  -0.02179132588207721710205,  -0.06081758812069892883301,  -0.00669374456629157066345,  -0.08884851634502410888672,  0.06618627905845642089844,  0.02015548385679721832275,  0.06142255291342735290527,  -0.08640339970588684082031,  -0.06751178205013275146484,  0.05135113373398780822754,  0.04337475821375846862793,  -0.06427761912345886230469,  0.04781568422913551330566,  -0.06398061662912368774414,  -0.09076789021492004394531,  -0.04573537781834602355957,  -0.00374106410890817642212,  0.00984109472483396530151,  0.04486922919750213623047,  -0.05637468397617340087891,  -0.06876730173826217651367,  -0.05306704714894294738770,  -0.08719525486230850219727,  -0.09109403192996978759766,  -0.08236328512430191040039,  0.08667200058698654174805,  0.03807890415191650390625,  -0.04414357617497444152832,  -0.03774610161781311035156,  -0.00450137676671147346497,  0.05762539803981781005859,  -0.05977837368845939636230,
 0.08884955942630767822266,  -0.07201518863439559936523,  -0.07132364064455032348633,  -0.01820449903607368469238,  0.05394016578793525695801,  -0.01788926497101783752441,  0.09000665694475173950195,  -0.03566943481564521789551,  0.03296495974063873291016,  -0.01356858480721712112427,  -0.02199948206543922424316,  -0.03341409564018249511719,  0.08923058956861495971680,  -0.06552308052778244018555,  -0.08740541338920593261719,  0.00665123341605067253113,  -0.03309821709990501403809,  0.05576022341847419738770,  -0.06746885925531387329102,  0.00906822737306356430054,  0.04072424024343490600586,  0.02514608763158321380615,  0.05062279105186462402344,  -0.02430098876357078552246,  0.06920579820871353149414,  -0.09017691761255264282227,  -0.05462210625410079956055,  -0.05565573647618293762207,  -0.04469850659370422363281,  0.02431538887321949005127,  0.03974878415465354919434,  0.06408277899026870727539,  -0.00957038532942533493042,  0.04719589650630950927734,  0.05579483881592750549316,  -0.01492334716022014617920,  -0.06715226173400878906250,  0.08479421585798263549805,  0.01509273238480091094971,  -0.08122400194406509399414,  0.06980108469724655151367,  0.06648387759923934936523,  -0.01439742185175418853760,  0.08239649236202239990234,  0.03359864279627799987793,  0.08523443341255187988281,  0.08499030768871307373047,  -0.02540447749197483062744,  0.06242370977997779846191,  0.02662275731563568115234,  0.08512807637453079223633,  -0.07106187194585800170898,  -0.06308556348085403442383,  -0.04051575064659118652344,  -0.01810593158006668090820,  -0.01189345214515924453735,  0.03140989318490028381348,  -0.03526527434587478637695,  -0.02709194459021091461182,  0.07358371466398239135742,  0.03106847591698169708252,  -0.06115088239312171936035,  -0.08017532527446746826172,  -0.01110166497528553009033,  -0.08463572710752487182617,  0.02028900943696498870850,  -0.03157891705632209777832,  0.06179953366518020629883,  -0.04557092487812042236328,  0.01113516185432672500610,  -0.04244832322001457214355,  0.00404139654710888862610,  -0.02592696249485015869141,  -0.09090683609247207641602,  -0.08990336209535598754883,  -0.00375259295105934143066,  -0.05685462057590484619141,  -0.05388561263680458068848,  -0.08896006643772125244141,  0.03829303011298179626465,  0.09217878431081771850586,  0.02247916907072067260742,  0.04466425254940986633301,  0.01696885377168655395508,  0.07083260267972946166992,  -0.05362174659967422485352,  -0.03565070778131484985352,  0.04185329377651214599609,  -0.06256080418825149536133,  0.03620493784546852111816,  0.06589215993881225585938,  -0.09143010526895523071289,  -0.09280987828969955444336,  -0.09184721857309341430664,  -0.06099012494087219238281,  -0.01320569310337305068970,  0.03107522800564765930176,  0.01840718649327754974365,  0.08253455162048339843750,  -0.01254120003432035446167,  -0.00208335556089878082275,  0.09031333774328231811523,  -0.02345043607056140899658,  0.08926188945770263671875,  0.07307432591915130615234,  -0.04077996686100959777832,  0.07782856374979019165039,  -0.04567686468362808227539,  -0.06469137966632843017578,  -0.07434751093387603759766,  -0.06350692361593246459961,  0.07888115197420120239258,  0.08619085699319839477539,  -0.04993752017617225646973,  -0.03122838586568832397461,  0.08105896413326263427734,  -0.01035248860716819763184,  -0.08766400814056396484375,  -0.02010454982519149780273,  -0.06385822594165802001953,
 -0.07830789685249328613281,  0.00896622240543365478516,  -0.09420623630285263061523,  0.07991488277912139892578,  0.08993375301361083984375,  0.06496834754943847656250,  0.00259463000111281871796,  -0.04323776066303253173828,  0.09050291031599044799805,  -0.07103108614683151245117,  -0.07681541889905929565430,  0.02177438884973526000977,  0.08240348100662231445312,  0.04841290041804313659668,  0.07931055873632431030273,  0.07872702181339263916016,  0.00066676153801381587982,  -0.07105345278978347778320,  -0.02250323258340358734131,  -0.04264054447412490844727,  0.03019211813807487487793,  0.00262132962234318256378,  0.08343010395765304565430,  -0.02722268179059028625488,  0.00287358229979872703552,  0.00549344858154654502869,  0.00323066744022071361542,  -0.05229838937520980834961,  -0.05967354401946067810059,  0.00133573799394071102142,  0.05989620089530944824219,  -0.06630490720272064208984,  0.05284694954752922058105,  -0.02673389390110969543457,  0.03968604654073715209961,  -0.02714908123016357421875,  0.00864018779247999191284,  0.00163850351236760616302,  0.07080628722906112670898,  0.00552846072241663932800,  0.06451053917407989501953,  0.04181559756398200988770,  -0.06082376465201377868652,  -0.04886944964528083801270,  0.05570388957858085632324,  -0.00335246603935956954956,  0.08314479887485504150391,  -0.04190343990921974182129,  0.04375053569674491882324,  -0.01927508600056171417236,  0.02240275219082832336426,  0.08280344307422637939453,  0.05495171621441841125488,  -0.00035816302988678216934,  0.05270830914378166198730,  -0.07479733973741531372070,  -0.03808736801147460937500,  -0.03157428652048110961914,  0.08484467118978500366211,  -0.06736766546964645385742,  0.00187955296132713556290,  -0.02328443154692649841309,  -0.06799349188804626464844,  0.06553797423839569091797,  0.01893843896687030792236,  0.05743138492107391357422,  0.07097145915031433105469,  -0.08840153366327285766602,  -0.07689207047224044799805,  -0.08859241753816604614258,  -0.07452943176031112670898,  -0.04981024563312530517578,  -0.04040397703647613525391,  -0.06788328289985656738281,  -0.01355585362762212753296,  0.07387200742959976196289,  -0.03819404169917106628418,  0.04030369222164154052734,  -0.04333265125751495361328,  0.01180315669625997543335,  -0.04400930553674697875977,  -0.08507017791271209716797,  -0.00825858861207962036133,  0.08858263492584228515625,  0.08108804374933242797852,  -0.06443828344345092773438,  0.07266590744256973266602,  -0.06441988795995712280273,  -0.06872024387121200561523,  0.05103904753923416137695,  -0.06491581350564956665039,  -0.02892921492457389831543,  0.00806588027626276016235,  0.06003008782863616943359,  -0.01751415804028511047363,  0.02509930171072483062744,  0.04999870061874389648438,  -0.03558271005749702453613,  -0.04026104882359504699707,  0.08645442128181457519531,  0.01127481367439031600952,  0.04058222100138664245605,  0.07263241708278656005859,  0.00627456884831190109253,  0.01040440890938043594360,  0.03877710551023483276367,  0.05717182159423828125000,  0.06819750368595123291016,  0.03044816106557846069336,  0.00388183863833546638489,  -0.04983164370059967041016,  0.01560325268656015396118,  -0.05240429937839508056641,  -0.02044253982603549957275,  0.01748217456042766571045,  0.01479404699057340621948,  -0.06775549054145812988281,  -0.02723627910017967224121,  -0.01055805105715990066528,  0.06615190207958221435547,
 -0.00444904854521155357361,  0.03418371453881263732910,  -0.08868291229009628295898,  -0.01572180911898612976074,  -0.01754447072744369506836,  -0.02044672891497611999512,  0.03162203356623649597168,  -0.04664797708392143249512,  0.01506691798567771911621,  0.08919935673475265502930,  0.03246483206748962402344,  0.06352022290229797363281,  -0.05450252816081047058105,  0.08784243464469909667969,  0.05670915171504020690918,  -0.05991369113326072692871,  -0.05024961382150650024414,  -0.05209717154502868652344,  0.05799534171819686889648,  -0.02708322554826736450195,  0.04405808448791503906250,  0.07993391156196594238281,  0.05576446652412414550781,  0.07239097356796264648438,  0.07470370084047317504883,  0.06038607656955718994141,  0.07624571770429611206055,  -0.06117447838187217712402,  0.08222301304340362548828,  0.08860648423433303833008,  0.04413122683763504028320,  0.04442916437983512878418,  -0.01997116394340991973877,  0.00391088426113128662109,  -0.01370628736913204193115,  0.04428188502788543701172,  -0.01682030409574508666992,  0.00288078794255852699280,  0.06467983871698379516602,  -0.07587411999702453613281,  0.05937357619404792785645,  -0.08489994704723358154297,  0.07554961740970611572266,  -0.03835716098546981811523,  -0.04670821130275726318359,  -0.06613853573799133300781,  -0.06841345131397247314453,  0.06108503416180610656738,  0.01649877242743968963623,  0.04388147220015525817871,  0.06913486868143081665039,  0.01665314473211765289307,  -0.06226225569844245910645,  -0.06352168321609497070312,  -0.00645077088847756385803,  -0.00766080850735306739807,  -0.05348831787705421447754,  -0.03432822600007057189941,  0.09027034789323806762695,  -0.00352434534579515457153,  0.08245818316936492919922,  -0.01535802427679300308228,  0.07948508113622665405273,  -0.04788117855787277221680,  0.00037256712676025927067,  -0.04206529632210731506348,  0.03400717675685882568359,  -0.00881383940577507019043,  -0.03964842855930328369141,  -0.03957629203796386718750,  0.01928252354264259338379,  -0.06312883645296096801758,  0.07003819942474365234375,  -0.04546261951327323913574,  0.04559022933244705200195,  -0.08910723030567169189453,  0.05153500661253929138184,  0.04979885369539260864258,  -0.04511192813515663146973,  0.07072206586599349975586,  -0.02889110334217548370361,  -0.09091726690530776977539,  0.00660047307610511779785,  -0.04231444746255874633789,  0.04474017024040222167969,  0.02290892601013183593750,  0.05283324047923088073730,  -0.02340351976454257965088,  -0.04756259545683860778809,  -0.01663209311664104461670,  0.07442310452461242675781,  0.05429667234420776367188,  -0.00314528215676546096802,  -0.09246797859668731689453,  0.02182865701615810394287,  0.04254136234521865844727,  0.04012592136859893798828,  -0.04623739793896675109863,  -0.02127275057137012481689,  -0.04986072331666946411133,  -0.02948155440390110015869,  -0.01320070028305053710938,  0.07144843786954879760742,  0.06983646005392074584961,  -0.00889384839683771133423,  0.07554715126752853393555,  -0.08609004318714141845703,  -0.03962463513016700744629,  -0.06229639425873756408691,  -0.01240749377757310867310,  -0.00654287170618772506714,  0.08756168931722640991211,  -0.04253470897674560546875,  0.03330181166529655456543,  -0.01764579117298126220703,  -0.08987794071435928344727,  0.07351501286029815673828,  -0.06041724234819412231445,  0.07946479320526123046875,  -0.02245074510574340820312,
 -0.02059001289308071136475,  0.03623445332050323486328,  -0.07335975021123886108398,  -0.08551865071058273315430,  -0.05853556841611862182617,  -0.01880901120603084564209,  -0.05106245726346969604492,  -0.08338563144207000732422,  0.07283709198236465454102,  0.00344730028882622718811,  -0.04878001660108566284180,  0.01918309926986694335938,  0.04903133586049079895020,  -0.08177417516708374023438,  -0.04665544256567955017090,  -0.01814080588519573211670,  0.01617896929383277893066,  -0.07231148332357406616211,  -0.03522796556353569030762,  -0.01084211561828851699829,  -0.05872417241334915161133,  -0.01572472974658012390137,  0.06591519713401794433594,  -0.01287068240344524383545,  -0.01172176655381917953491,  -0.04411945119500160217285,  -0.03208756446838378906250,  0.03010783530771732330322,  -0.02966373041272163391113,  -0.00447415933012962341309,  -0.07445615530014038085938,  -0.06851224601268768310547,  -0.08772791177034378051758,  0.02796068601310253143311,  0.07826260477304458618164,  0.04660422727465629577637,  0.03253662586212158203125,  0.07741463184356689453125,  -0.05826127156615257263184,  0.07612987607717514038086,  -0.04708227142691612243652,  -0.00309619912877678871155,  -0.00824729911983013153076,  0.00742916343733668327332,  0.04736508056521415710449,  0.07901593297719955444336,  0.01370726339519023895264,  -0.04078029468655586242676,  0.00837039109319448471069,  -0.05826910585165023803711,  -0.00128706858959048986435,  0.02551949769258499145508,  0.06423961371183395385742,  0.08842347562313079833984,  0.02106928080320358276367,  0.01034467574208974838257,  -0.05746299400925636291504,  0.08942630141973495483398,  -0.01764866523444652557373,  -0.03710271045565605163574,  -0.02664293535053730010986,  -0.08123581111431121826172,  -0.08130493760108947753906,  0.07655943185091018676758,  0.00236376794055104255676,  -0.05006295815110206604004,  -0.03265893086791038513184,  -0.01856051571667194366455,  0.04826860874891281127930,  0.05998292192816734313965,  -0.09361895173788070678711,  0.02724898979067802429199,  0.05286940559744834899902,  -0.05476847663521766662598,  -0.05695912241935729980469,  0.00465912511572241783142,  0.05080579966306686401367,  -0.05804863944649696350098,  0.03548559918999671936035,  -0.04205810651183128356934,  0.06490102410316467285156,  0.05256196111440658569336,  0.02728543430566787719727,  -0.06198872998356819152832,  0.00924787018448114395142,  -0.00011372450535418465734,  0.03126592934131622314453,  -0.02246425300836563110352,  0.02898892574012279510498,  -0.01813836954534053802490,  0.07353900372982025146484,  -0.01073358021676540374756,  0.07195757329463958740234,  -0.05631892383098602294922,  -0.08828404545783996582031,  -0.06235022470355033874512,  -0.06020176783204078674316,  -0.02857542783021926879883,  -0.09087510406970977783203,  0.03998999670147895812988,  0.04192821681499481201172,  -0.01007718592882156372070,  0.08653268963098526000977,  -0.06996982544660568237305,  0.07618208974599838256836,  -0.06585986167192459106445,  -0.02469751238822937011719,  -0.08813257515430450439453,  -0.08585102856159210205078,  0.07547364383935928344727,  -0.02318076230585575103760,  -0.04227146506309509277344,  -0.05561293661594390869141,  -0.00671535637229681015015,  0.01851481758058071136475,  0.08567236363887786865234,  -0.00589662743732333183289,  0.05189768224954605102539,  -0.08617839217185974121094,  -0.02018870785832405090332,
 -0.05513922125101089477539,  0.05176378041505813598633,  0.01938027702271938323975,  -0.04879607632756233215332,  0.07075893878936767578125,  -0.03157678246498107910156,  0.08679717034101486206055,  -0.07461173832416534423828,  -0.03418597579002380371094,  -0.05200369283556938171387,  -0.06039218977093696594238,  0.00338975340127944946289,  -0.00148828269448131322861,  -0.00040228266152553260326,  0.04630453139543533325195,  -0.07402913272380828857422,  -0.05511868372559547424316,  0.06938759982585906982422,  0.05009652301669120788574,  0.03035107068717479705811,  0.00572523614391684532166,  0.00434310268610715866089,  0.01759371533989906311035,  -0.01977371424436569213867,  0.01405963115394115447998,  -0.06253721565008163452148,  0.08173480629920959472656,  -0.00821230281144380569458,  -0.03060558997094631195068,  0.03731769695878028869629,  0.00186725449748337268829,  -0.08376554399728775024414,  -0.07995946705341339111328,  0.04510388523340225219727,  0.00256010447628796100616,  0.04595093801617622375488,  0.08593846112489700317383,  -0.02907654270529747009277,  -0.00128942739684134721756,  0.00664785644039511680603,  0.03594772517681121826172,  0.04783084616065025329590,  -0.02652784436941146850586,  -0.06572754681110382080078,  0.02252500876784324645996,  -0.03161065280437469482422,  -0.04809764400124549865723,  -0.04156921803951263427734,  0.08544818311929702758789,  0.02311868593096733093262,  0.03770312294363975524902,  -0.04201606288552284240723,  -0.06002836674451828002930,  -0.06599304825067520141602,  0.00260933907702565193176,  0.01395459473133087158203,  0.02480858378112316131592,  0.00739892153069376945496,  -0.08122472465038299560547,  0.08308500796556472778320,  0.07648593932390213012695,  -0.06549657881259918212891,  -0.07257510721683502197266,  0.03967294469475746154785,  0.04891466721892356872559,  -0.05539017915725708007812,  0.04230054467916488647461,  -0.00812079384922981262207,  -0.01787353865802288055420,  0.02136685885488986968994,  0.05163759365677833557129,  0.01505042705684900283813,  0.04448493942618370056152,  0.06992292404174804687500,  -0.03974396735429763793945,  -0.06289606541395187377930,  0.08754938840866088867188,  0.02699044533073902130127,  0.04362173005938529968262,  -0.04909475892782211303711,  0.08062469214200973510742,  0.02151278592646121978760,  -0.01916617341339588165283,  -0.00185938435606658458710,  0.02512850053608417510986,  0.01507126167416572570801,  0.00160853692796081304550,  0.02012589015066623687744,  -0.06052632257342338562012,  -0.05794357880949974060059,  -0.07385879755020141601562,  0.04481519013643264770508,  -0.02682023122906684875488,  -0.01650816947221755981445,  -0.05252332985401153564453,  -0.03266001492738723754883,  0.03005879744887351989746,  -0.00205388339236378669739,  -0.04546161368489265441895,  0.07733596861362457275391,  -0.01906396634876728057861,  -0.02292803302407264709473,  -0.03788366541266441345215,  -0.01749898493289947509766,  0.07787326723337173461914,  0.02944688685238361358643,  0.06752121448516845703125,  0.02402114681899547576904,  0.00080914434511214494705,  0.00735643738880753517151,  0.08073706924915313720703,  0.06473738700151443481445,  -0.00574660720303654670715,  -0.00429634936153888702393,  0.08204405754804611206055,  -0.08941349387168884277344,  0.06420084089040756225586,  0.04518682137131690979004,  -0.06598091125488281250000,  0.03796365112066268920898,
 0.02603402175009250640869,  -0.08777441829442977905273,  0.05829974263906478881836,  -0.02608849480748176574707,  0.05747892707586288452148,  -0.07828852534294128417969,  0.07013945281505584716797,  -0.01372851151973009109497,  0.01057301834225654602051,  -0.00162489456124603748322,  -0.00144574500154703855515,  -0.07488042116165161132812,  0.01017743628472089767456,  -0.08055958896875381469727,  0.07871419936418533325195,  0.02934018336236476898193,  -0.08478893339633941650391,  0.02835285477340221405029,  0.00365451257675886154175,  -0.08862647414207458496094,  0.07987038046121597290039,  0.01462595164775848388672,  0.06936202943325042724609,  0.00352109665982425212860,  -0.01565464958548545837402,  -0.00291372626088559627533,  0.00674643414095044136047,  -0.07492545992136001586914,  0.07928720116615295410156,  0.08341728150844573974609,  -0.07634100317955017089844,  -0.06959623098373413085938,  -0.05685206130146980285645,  -0.05058354139328002929688,  -0.05251863971352577209473,  0.04202405363321304321289,  -0.03865937143564224243164,  0.08531865477561950683594,  -0.08032650500535964965820,  -0.02655189111828804016113,  -0.04561220481991767883301,  -0.03773878142237663269043,  0.08671186119318008422852,  0.08684061467647552490234,  -0.00567348022013902664185,  -0.08346674591302871704102,  0.01283880881965160369873,  -0.03203674405813217163086,  0.01681267842650413513184,  -0.03237937763333320617676,  -0.00481919012963771820068,  -0.03123388066887855529785,  0.01254509389400482177734,  0.04318385943770408630371,  0.06616551429033279418945,  -0.05726024135947227478027,  0.04922477528452873229980,  0.01793397776782512664795,  0.05612805113196372985840,  -0.04063151031732559204102,  0.03025237470865249633789,  0.08010341972112655639648,  0.05723987147212028503418,  0.06424983590841293334961,  0.00046534038847312331200,  -0.02748236060142517089844,  0.04313545301556587219238,  -0.08909837156534194946289,  -0.06578472256660461425781,  -0.07892870157957077026367,  0.05061057209968566894531,  0.00015520839951932430267,  -0.00648056343197822570801,  -0.05896402522921562194824,  0.01136617735028266906738,  -0.02607203833758831024170,  0.00916636455804109573364,  -0.02351607382297515869141,  0.04003493860363960266113,  0.01952570863068103790283,  0.05132344365119934082031,  -0.03278001770377159118652,  0.05901818349957466125488,  0.01648323237895965576172,  -0.01195992529392242431641,  0.07650680840015411376953,  -0.06811012327671051025391,  -0.01951521076261997222900,  0.01804839447140693664551,  -0.08680157363414764404297,  -0.07791964709758758544922,  -0.03717647120356559753418,  0.07650324702262878417969,  -0.04905887693166732788086,  -0.00215579220093786716461,  -0.02571515366435050964355,  0.03242929279804229736328,  0.03192088752985000610352,  -0.06643770635128021240234,  0.08809880167245864868164,  0.03854036703705787658691,  0.09164912998676300048828,  -0.02909448184072971343994,  -0.05394634231925010681152,  -0.09012909978628158569336,  -0.06388385593891143798828,  -0.04782516881823539733887,  0.09111423045396804809570,  -0.04992929846048355102539,  0.01558247115463018417358,  0.07321939617395401000977,  0.00279823550954461097717,  0.02759633027017116546631,  -0.01958719640970230102539,  -0.04052985459566116333008,  -0.04548574239015579223633,  -0.07235959917306900024414,  -0.03801593184471130371094,  -0.07220561802387237548828,  0.04290173575282096862793,
 -0.08632402867078781127930,  -0.08058521151542663574219,  0.06284292787313461303711,  -0.01903584972023963928223,  0.03707041591405868530273,  0.05648123100399971008301,  -0.04576159268617630004883,  -0.06747731566429138183594,  0.08186834305524826049805,  -0.02352610975503921508789,  -0.08662148565053939819336,  0.08524636924266815185547,  -0.07623045891523361206055,  0.07886525243520736694336,  0.08719078451395034790039,  0.08127591013908386230469,  -0.02894255891442298889160,  -0.00697111664339900016785,  -0.08177391439676284790039,  -0.01907246187329292297363,  -0.04045550525188446044922,  0.01278497930616140365601,  0.08049347996711730957031,  -0.08116471022367477416992,  -0.08682429790496826171875,  -0.03585191816091537475586,  -0.04812687635421752929688,  0.09140186011791229248047,  0.08337981998920440673828,  -0.01748105511069297790527,  -0.07877735793590545654297,  -0.00377580733038485050201,  0.00354184280149638652802,  -0.05490825325250625610352,  -0.04097684100270271301270,  0.03176635876297950744629,  0.07288179546594619750977,  0.04413722455501556396484,  0.00442654173821210861206,  0.03051949478685855865479,  0.05590563639998435974121,  -0.08613099157810211181641,  0.04491620510816574096680,  -0.01724761910736560821533,  0.08039873093366622924805,  -0.08670168370008468627930,  0.08559732884168624877930,  0.00248737446963787078857,  -0.04191060364246368408203,  0.00937096681445837020874,  -0.06148767843842506408691,  -0.02581644989550113677979,  -0.02303559333086013793945,  -0.02302560582756996154785,  -0.01062713749706745147705,  -0.05451253429055213928223,  -0.03880853578448295593262,  0.07368698716163635253906,  0.03063204139471054077148,  0.06605630367994308471680,  -0.01578904129564762115479,  -0.06135922670364379882812,  -0.08908255398273468017578,  -0.07452262192964553833008,  0.01791058294475078582764,  0.07390203326940536499023,  -0.07756485790014266967773,  0.06636790931224822998047,  -0.09471911191940307617188,  -0.01030002161860466003418,  -0.00388343259692192077637,  -0.02180247008800506591797,  0.06911417841911315917969,  0.06127510219812393188477,  0.07292155176401138305664,  -0.02101004682481288909912,  0.04120999947190284729004,  -0.01399490889161825180054,  0.04381579160690307617188,  -0.07759767025709152221680,  -0.04988810420036315917969,  0.02731259912252426147461,  0.04605134204030036926270,  -0.01746728457510471343994,  0.02164009772241115570068,  0.01731348410248756408691,  0.05173427239060401916504,  0.01670506596565246582031,  -0.07314299792051315307617,  0.09478648751974105834961,  0.06425969302654266357422,  0.03726120293140411376953,  -0.07937327772378921508789,  -0.09133493155241012573242,  -0.08777264505624771118164,  -0.07099476456642150878906,  -0.09179958701133728027344,  0.05514192208647727966309,  -0.00269055529497563838959,  -0.08727597445249557495117,  0.08172251284122467041016,  -0.00416810298338532447815,  -0.03322616219520568847656,  0.05715024471282958984375,  -0.04811236634850502014160,  -0.08021827042102813720703,  -0.07525800913572311401367,  0.01843450218439102172852,  0.04546682536602020263672,  0.08062427490949630737305,  0.08466868102550506591797,  0.01166560966521501541138,  0.06001469865441322326660,  0.08353115618228912353516,  -0.05329160019755363464355,  0.09205185621976852416992,  0.03469002991914749145508,  -0.08314349502325057983398,  -0.04629914462566375732422,  -0.02442424558103084564209,
 0.04482014477252960205078,  0.02583297900855541229248,  -0.06917287409305572509766,  -0.06724910438060760498047,  0.04687099903821945190430,  -0.08797951042652130126953,  0.04596853256225585937500,  -0.03664795681834220886230,  0.07401648163795471191406,  0.00307101709768176078796,  0.07621814310550689697266,  -0.04742881283164024353027,  0.08267981559038162231445,  -0.04273677989840507507324,  0.00238719442859292030334,  -0.08062748610973358154297,  0.04043971747159957885742,  0.02652586996555328369141,  -0.07711441814899444580078,  0.02690428309142589569092,  -0.06940993666648864746094,  -0.04858521372079849243164,  -0.04604341834783554077148,  -0.04105377569794654846191,  -0.06452586501836776733398,  -0.07419178634881973266602,  -0.07639781385660171508789,  -0.04113230481743812561035,  -0.06885728985071182250977,  -0.07907850295305252075195,  -0.03277991712093353271484,  0.00500967260450124740601,  0.01227703969925642013550,  0.00913329329341650009155,  -0.07519265264272689819336,  0.08674596995115280151367,  -0.06125109270215034484863,  -0.01592266373336315155029,  0.03634910658001899719238,  0.03269125148653984069824,  0.08077882230281829833984,  0.04422563314437866210938,  0.06772737950086593627930,  0.00079656165326014161110,  -0.08664011210203170776367,  0.02368750981986522674561,  -0.03682921081781387329102,  -0.07606914639472961425781,  0.01075971778482198715210,  -0.02635072171688079833984,  -0.06706569343805313110352,  0.04217969626188278198242,  -0.06951797753572463989258,  0.02640669792890548706055,  -0.07617616653442382812500,  0.08894627541303634643555,  0.00934025831520557403564,  -0.03928422555327415466309,  0.08561617881059646606445,  -0.05776778608560562133789,  0.04066544398665428161621,  -0.08286827057600021362305,  -0.09200802445411682128906,  -0.01646793633699417114258,  0.00178045628126710653305,  0.07596649974584579467773,  -0.01638217829167842864990,  0.01062434166669845581055,  -0.02180269733071327209473,  0.00603781640529632568359,  0.07433193176984786987305,  -0.06160358712077140808105,  -0.03534939512610435485840,  0.02564807422459125518799,  0.02748108655214309692383,  0.06062883511185646057129,  -0.05103068426251411437988,  0.04797301068902015686035,  0.02134835161268711090088,  0.09124943614006042480469,  -0.09139350801706314086914,  -0.05345115438103675842285,  0.04574757069349288940430,  0.08179201930761337280273,  0.06694809347391128540039,  -0.03990935161709785461426,  0.00177321757655590772629,  0.00176288583315908908844,  -0.04579235985875129699707,  -0.02262315154075622558594,  -0.05868138745427131652832,  0.09282645583152770996094,  0.01707684062421321868896,  0.02100296132266521453857,  -0.07944038510322570800781,  -0.05207698047161102294922,  -0.05506380647420883178711,  0.02631956152617931365967,  -0.04307654500007629394531,  0.02235254831612110137939,  0.03683894872665405273438,  -0.00887917261570692062378,  0.01911065168678760528564,  -0.01508241891860961914062,  0.02987704612314701080322,  0.06182628497481346130371,  -0.00204730359837412834167,  0.07964575290679931640625,  0.04239997267723083496094,  0.07594448328018188476562,  0.03767415881156921386719,  -0.07413983345031738281250,  -0.01824414357542991638184,  0.00046513183042407035828,  0.04890029877424240112305,  0.05482283607125282287598,  0.07210493087768554687500,  0.01784065365791320800781,  -0.08456037938594818115234,  -0.06843985617160797119141,
 0.00045072287321090698242,  -0.07894579321146011352539,  -0.03528153151273727416992,  0.06378388404846191406250,  -0.00605368567630648612976,  0.06090066954493522644043,  0.01007892377674579620361,  -0.00525840371847152709961,  0.01697760820388793945312,  0.05618406459689140319824,  0.04752036184072494506836,  -0.08902846276760101318359,  -0.09277503937482833862305,  -0.05856631696224212646484,  0.00955035816878080368042,  0.03805914893746376037598,  -0.05478495731949806213379,  -0.04988584294915199279785,  -0.03268577530980110168457,  0.05756552144885063171387,  0.08728351444005966186523,  0.05038136988878250122070,  0.01003279909491539001465,  0.01261018123477697372437,  -0.00549079431220889091492,  -0.04787164553999900817871,  0.04280373826622962951660,  -0.08217888325452804565430,  -0.05273313075304031372070,  -0.08335507661104202270508,  0.05058610439300537109375,  -0.00158025801647454500198,  0.06452904641628265380859,  0.01978782191872596740723,  -0.03156765177845954895020,  -0.03402672708034515380859,  -0.05051038041710853576660,  -0.00014599954010918736458,  -0.05149542540311813354492,  -0.02015095390379428863525,  -0.00710092810913920402527,  0.01611822284758090972900,  -0.06597969681024551391602,  0.00661370204761624336243,  0.07366260886192321777344,  -0.03296492621302604675293,  0.08710774779319763183594,  -0.01474708318710327148438,  -0.06534928083419799804688,  -0.05551892518997192382812,  0.02355221100151538848877,  -0.01365801505744457244873,  -0.05106094852089881896973,  -0.05909204483032226562500,  -0.01365085970610380172729,  -0.09150470793247222900391,  0.06855015456676483154297,  -0.00999822653830051422119,  0.06693383306264877319336,  0.02878705598413944244385,  0.02376785874366760253906,  -0.07188995182514190673828,  0.01168318372219800949097,  0.04094556719064712524414,  -0.04874708876013755798340,  -0.08941394835710525512695,  0.06815733015537261962891,  0.03083773702383041381836,  0.03724891692399978637695,  0.02414919063448905944824,  0.09032935649156570434570,  0.06193289533257484436035,  0.01504424214363098144531,  -0.06204199418425559997559,  -0.03368088230490684509277,  0.06460355222225189208984,  -0.03133579716086387634277,  -0.08639974892139434814453,  0.02965715341269969940186,  0.01403048727661371231079,  0.08481136709451675415039,  -0.06632314622402191162109,  -0.03816934674978256225586,  0.08967103064060211181641,  -0.00891780946403741836548,  0.09218617528676986694336,  0.01069849357008934020996,  -0.05523714050650596618652,  0.06047851964831352233887,  -0.06466025859117507934570,  -0.07938999682664871215820,  0.06288207322359085083008,  0.02775323949754238128662,  0.00296828965656459331512,  -0.03635613247752189636230,  -0.01212131883949041366577,  0.05643478035926818847656,  -0.04380272701382637023926,  0.04605995863676071166992,  0.02562924101948738098145,  0.05157958343625068664551,  -0.03853086754679679870605,  0.07806791365146636962891,  0.00326961628161370754242,  -0.07229445874691009521484,  -0.07827764004468917846680,  0.04073309525847434997559,  0.04164862632751464843750,  -0.08467197418212890625000,  0.07446947693824768066406,  0.00724212592467665672302,  0.01087240129709243774414,  -0.02498336322605609893799,  0.02779343537986278533936,  -0.01570125855505466461182,  0.02452503889799118041992,  0.09111770242452621459961,  0.07499366998672485351562,  -0.05523590743541717529297,  0.04006668552756309509277,
 -0.04381214827299118041992,  -0.07493136823177337646484,  0.08111536502838134765625,  0.06144792959094047546387,  -0.01289532240480184555054,  -0.04767341539263725280762,  0.05393169075250625610352,  -0.08199307322502136230469,  -0.08004035800695419311523,  0.01358248572796583175659,  -0.06271430850028991699219,  -0.07725924253463745117188,  0.06757255643606185913086,  0.00843446701765060424805,  -0.01477178651839494705200,  -0.08911491930484771728516,  -0.00090014567831531167030,  -0.04206664860248565673828,  -0.04696212708950042724609,  0.09063630551099777221680,  -0.06800623238086700439453,  -0.07366148382425308227539,  0.03645600378513336181641,  -0.06002527475357055664062,  -0.08757419884204864501953,  -0.08085778355598449707031,  0.07368998974561691284180,  -0.05166415870189666748047,  -0.01786664500832557678223,  -0.00798137951642274856567,  -0.08567006140947341918945,  0.04723378270864486694336,  -0.07646879553794860839844,  -0.00440670130774378776550,  -0.03331885859370231628418,  -0.05036853253841400146484,  0.02763186767697334289551,  0.06294000148773193359375,  -0.05053038895130157470703,  -0.05190057680010795593262,  -0.04647142067551612854004,  0.08884689956903457641602,  -0.05993292853236198425293,  -0.00197878573089838027954,  0.02290727570652961730957,  0.08140082657337188720703,  0.03694427013397216796875,  -0.03639827296137809753418,  0.01333826221525669097900,  0.02952136471867561340332,  0.06111768633127212524414,  -0.07687231153249740600586,  0.09045321494340896606445,  0.08108468353748321533203,  0.09299091249704360961914,  0.01003468036651611328125,  -0.03625827282667160034180,  0.06479725986719131469727,  0.03493977338075637817383,  -0.00922607816755771636963,  -0.01783167012035846710205,  -0.04766419157385826110840,  0.02700859680771827697754,  0.06284593045711517333984,  0.05456675216555595397949,  0.01317149121314287185669,  -0.00744813028723001480103,  -0.07073862105607986450195,  -0.02239642851054668426514,  0.03580522164702415466309,  -0.06423004716634750366211,  -0.07038705796003341674805,  -0.00616451166570186614990,  -0.02562597580254077911377,  -0.06336604058742523193359,  0.08090526610612869262695,  -0.07838105410337448120117,  -0.07207986712455749511719,  0.08517604321241378784180,  -0.06319175660610198974609,  -0.08173472434282302856445,  -0.05128849670290946960449,  -0.05848972126841545104980,  0.07795520126819610595703,  -0.00261514401063323020935,  -0.04962463676929473876953,  0.02746746875345706939697,  -0.06165991351008415222168,  -0.00058720522793009877205,  -0.03562621027231216430664,  0.01134926266968250274658,  0.02570097707211971282959,  -0.02971328049898147583008,  -0.04342986643314361572266,  0.05933508649468421936035,  0.07493517547845840454102,  0.06036720797419548034668,  0.05624825507402420043945,  -0.00135761639103293418884,  -0.07852844893932342529297,  0.07012616097927093505859,  -0.05669941753149032592773,  -0.05683138221502304077148,  -0.07843763381242752075195,  0.02752654440701007843018,  -0.00589986471459269523621,  0.01307633519172668457031,  -0.06541036069393157958984,  0.03381639719009399414062,  -0.08884023874998092651367,  -0.07813791930675506591797,  0.03525163978338241577148,  0.00938089285045862197876,  0.04727340117096900939941,  0.04148462414741516113281,  0.04022041708230972290039,  -0.02046612650156021118164,  -0.00412084115669131278992,  0.02981593459844589233398,  0.01085332781076431274414,
 -0.05540960654616355895996,  -0.00502617610618472099304,  -0.00677639292553067207336,  0.07526893168687820434570,  -0.01226458139717578887939,  0.06597997993230819702148,  0.02262756600975990295410,  0.07073619961738586425781,  -0.05255139991641044616699,  -0.03626551479101181030273,  -0.09154830127954483032227,  0.08775999397039413452148,  0.02148302830755710601807,  0.07031104713678359985352,  0.00960766803473234176636,  0.08412854373455047607422,  0.08434113860130310058594,  -0.05555753037333488464355,  -0.07151320576667785644531,  0.06867464631795883178711,  -0.06948011368513107299805,  -0.03391399234533309936523,  0.09528078883886337280273,  -0.08287257701158523559570,  0.00882635824382305145264,  0.08834831416606903076172,  0.05678786337375640869141,  0.01954483054578304290771,  -0.02864307351410388946533,  0.00921632349491119384766,  -0.07156517356634140014648,  -0.01862745359539985656738,  0.08327921479940414428711,  -0.05084262415766716003418,  0.00808040983974933624268,  0.00250081694684922695160,  -0.00910635478794574737549,  0.07163691520690917968750,  -0.06430310010910034179688,  -0.02707831561565399169922,  -0.05511606857180595397949,  0.01100575830787420272827,  -0.07924246788024902343750,  -0.00788468122482299804688,  -0.08769129216670989990234,  -0.03932021930813789367676,  -0.01710342802107334136963,  0.08092591911554336547852,  -0.06142030283808708190918,  0.06974839419126510620117,  -0.04176660627126693725586,  0.05213966593146324157715,  -0.02819785848259925842285,  -0.06385003775358200073242,  -0.01575178094208240509033,  0.02180063165724277496338,  -0.07059180736541748046875,  0.01582243852317333221436,  0.01460334379225969314575,  -0.07225560396909713745117,  0.01971074938774108886719,  -0.08814733475446701049805,  0.04996579140424728393555,  -0.07638160139322280883789,  -0.06372471153736114501953,  0.08430799841880798339844,  0.03053007833659648895264,  -0.07846371829509735107422,  -0.09275482594966888427734,  -0.08531975001096725463867,  -0.07418055087327957153320,  0.00057178328279405832291,  -0.05176679417490959167480,  0.01887492462992668151855,  0.07817760854959487915039,  -0.08664081245660781860352,  0.06057829409837722778320,  0.05829157680273056030273,  0.01267183572053909301758,  -0.02297592721879482269287,  -0.02163376472890377044678,  -0.06654186546802520751953,  -0.05757755786180496215820,  -0.01332068257033824920654,  0.01420758664608001708984,  -0.00123303500004112720490,  0.04254135489463806152344,  0.06491062790155410766602,  0.02997685410082340240479,  -0.00813815556466579437256,  -0.05660378932952880859375,  -0.03610469773411750793457,  -0.00613304972648620605469,  0.00934077519923448562622,  0.08249516040086746215820,  -0.01997490599751472473145,  0.07936859875917434692383,  0.05474739521741867065430,  0.04213653132319450378418,  0.05349487438797950744629,  0.01519654691219329833984,  -0.02743630856275558471680,  -0.00718452921137213706970,  -0.02465756796300411224365,  -0.08627012372016906738281,  0.06443914771080017089844,  0.08945679664611816406250,  -0.05695671588182449340820,  0.04482003673911094665527,  -0.09184312075376510620117,  0.02044354379177093505859,  0.03765477240085601806641,  -0.07457529008388519287109,  -0.05734342709183692932129,  0.04951575770974159240723,  0.00044641637941822409630,  -0.04524033889174461364746,  -0.00619199359789490699768,  0.00927489157766103744507,  -0.02407090924680233001709,
 -0.02947414293885231018066,  -0.07458369433879852294922,  0.05505827069282531738281,  0.03563328087329864501953,  -0.02309263311326503753662,  0.08413572609424591064453,  -0.04751508310437202453613,  0.04508381336927413940430,  -0.09239931404590606689453,  0.05086395889520645141602,  -0.05196230113506317138672,  -0.08462862670421600341797,  -0.01218052580952644348145,  -0.04776274785399436950684,  -0.06027600169181823730469,  -0.02823456935584545135498,  0.01161513198167085647583,  0.04921878874301910400391,  0.05730622634291648864746,  -0.08947020769119262695312,  -0.04090673476457595825195,  0.08641973137855529785156,  -0.04461863636970520019531,  -0.02205893769860267639160,  0.01145762763917446136475,  -0.03859610110521316528320,  -0.00549238780513405799866,  -0.02992486581206321716309,  -0.08981858938932418823242,  0.01854673586785793304443,  -0.05735126882791519165039,  -0.03462225943803787231445,  0.07438151538372039794922,  -0.05677322670817375183105,  0.04850063100457191467285,  -0.05421686545014381408691,  0.01658592745661735534668,  -0.07410811632871627807617,  -0.07342347502708435058594,  -0.00258588651195168495178,  0.06186259910464286804199,  0.03645716980099678039551,  -0.09212633967399597167969,  -0.07653170824050903320312,  -0.01753568276762962341309,  -0.00810789596289396286011,  -0.08878390491008758544922,  -0.00386020960286259651184,  0.02542293630540370941162,  -0.02652198821306228637695,  -0.01470501627773046493530,  0.01714090257883071899414,  0.06908710300922393798828,  -0.07895395159721374511719,  0.03867905586957931518555,  -0.08367744088172912597656,  0.06908549368381500244141,  -0.01507644448429346084595,  0.04232561588287353515625,  -0.05940022692084312438965,  -0.03098772838711738586426,  -0.00854768045246601104736,  -0.08495440334081649780273,  0.04060951992869377136230,  0.05946260690689086914062,  -0.03098282404243946075439,  -0.04729229211807250976562,  -0.06650567054748535156250,  0.00014503527199849486351,  0.01251948438584804534912,  0.03140169754624366760254,  -0.02142365463078022003174,  0.07237780094146728515625,  -0.05567464604973793029785,  -0.04988248273730278015137,  0.01727651990950107574463,  -0.02445738203823566436768,  -0.06530076265335083007812,  0.07218036800622940063477,  -0.00509346136823296546936,  0.04362555593252182006836,  0.05837285891175270080566,  -0.03023156523704528808594,  -0.04721629992127418518066,  0.08887802064418792724609,  -0.03161511197686195373535,  -0.05834351480007171630859,  0.01507576834410429000854,  0.08364616334438323974609,  -0.05804255977272987365723,  0.08705793321132659912109,  -0.03591325879096984863281,  0.09239578992128372192383,  -0.01980087347328662872314,  -0.07424068450927734375000,  0.08001061528921127319336,  0.04972955957055091857910,  0.07871704548597335815430,  -0.04778263345360755920410,  0.02674245275557041168213,  0.03619541972875595092773,  -0.07988428324460983276367,  -0.04932624101638793945312,  -0.06217756122350692749023,  0.02741498872637748718262,  0.04683212935924530029297,  -0.00096625968581065535545,  0.06697078049182891845703,  -0.07729418575763702392578,  -0.01287145540118217468262,  -0.01369982399046421051025,  -0.04185132309794425964355,  -0.05630080029368400573730,  -0.00408432399854063987732,  0.02437851019203662872314,  -0.07004179060459136962891,  0.02260203659534454345703,  -0.08022770285606384277344,  0.01417077705264091491699,  0.00868472922593355178833,
 0.06389879435300827026367,  -0.07787150889635086059570,  -0.08086314052343368530273,  0.09190148860216140747070,  0.02586794644594192504883,  0.04472782835364341735840,  -0.07399474084377288818359,  -0.08400263637304306030273,  -0.00164557562675327062607,  0.02278005518019199371338,  0.08003146946430206298828,  -0.00512069463729858398438,  -0.02584053203463554382324,  0.00020432147721294313669,  0.06959303468465805053711,  -0.08415112644433975219727,  0.03202814608812332153320,  0.06406636536121368408203,  0.04591491445899009704590,  -0.03272441402077674865723,  -0.03287445008754730224609,  0.02228164114058017730713,  -0.01695856451988220214844,  0.00705695617944002151489,  0.05130114778876304626465,  0.08259434252977371215820,  -0.04069198295474052429199,  -0.06626418977975845336914,  0.02511300519108772277832,  -0.06237610429525375366211,  0.05986138805747032165527,  -0.07834789901971817016602,  -0.01874619163572788238525,  -0.03296409174799919128418,  -0.07406629621982574462891,  -0.07212114334106445312500,  0.00401045288890600204468,  0.09127143770456314086914,  -0.04461711272597312927246,  0.08068770915269851684570,  0.07214499264955520629883,  -0.09107277542352676391602,  -0.08009240776300430297852,  -0.02636172063648700714111,  -0.03995685279369354248047,  -0.03974907100200653076172,  0.04112297296524047851562,  -0.00305565237067639827728,  -0.04407254233956336975098,  -0.02108217589557170867920,  0.04553458467125892639160,  0.06797240674495697021484,  -0.00213121413253247737885,  -0.04011006280779838562012,  -0.05418390035629272460938,  -0.07563700526952743530273,  0.07740367949008941650391,  0.05146552622318267822266,  -0.04531275108456611633301,  0.08848150819540023803711,  0.08416981250047683715820,  0.03463217616081237792969,  0.07314441353082656860352,  -0.02437468804419040679932,  0.05396403372287750244141,  0.07326579838991165161133,  -0.02144695445895195007324,  0.04877008125185966491699,  0.07496897876262664794922,  -0.05677317455410957336426,  0.02900543436408042907715,  0.07824850827455520629883,  -0.05119479820132255554199,  -0.08432325720787048339844,  -0.02840517275035381317139,  -0.07204390317201614379883,  -0.00198858557268977165222,  0.04872108623385429382324,  0.08723352849483489990234,  0.08496540039777755737305,  -0.03032622113823890686035,  -0.00069144560256972908974,  -0.01753339171409606933594,  0.01552797108888626098633,  -0.06325098127126693725586,  0.05311857908964157104492,  0.01158747728914022445679,  0.06601011008024215698242,  0.08275763690471649169922,  -0.01288560591638088226318,  0.04204159975051879882812,  -0.02582820504903793334961,  -0.03727325424551963806152,  0.07890950888395309448242,  0.02443674951791763305664,  0.03188072144985198974609,  -0.00220048055052757263184,  0.08101706951856613159180,  -0.01022181753069162368774,  -0.01153143960982561111450,  0.04996141791343688964844,  -0.07959149032831192016602,  0.06434706598520278930664,  -0.09090519696474075317383,  0.00396503321826457977295,  0.05242600664496421813965,  -0.05314932763576507568359,  -0.00183199776802211999893,  -0.06677974760532379150391,  -0.08384436368942260742188,  -0.00929714366793632507324,  -0.02063455991446971893311,  -0.03561791777610778808594,  -0.06303060799837112426758,  0.04161929711699485778809,  0.02022587694227695465088,  -0.02686537057161331176758,  -0.01203515101224184036255,  -0.08097632229328155517578,  0.03358956798911094665527,
